ai @ ~519000 iterations
[{"levels":[{"inputs":[1,1,0,0,1,1,0,0,0,0,0,0,0,0,0,0,1,0,0,0,0,1,0,0,0,0,1,0,0,0,0,0,1,1,1,0,0,1,0,0,0,0,0,0,0,0,0,0],"outputs":[1,1,0,0,0,1,0,1,0,1,0,0,1,0,1,0,0,0,1,1],"biases":[0.06856123679295857,-0.03769544488687708,0.08977147583405805,-0.1297282856252309,-0.12159959559454486,0.026133154970920485,0.023527936993481387,0.003476493361067614,-0.03387501272596633,0.20154593705676466,0.032533931773384483,-0.059922785327417225,0.03422829594190949,-0.0197838681481996,-0.04918544986239767,0.01913218492134462,-0.0173580382699032,0.05645757130985964,0.0829544419437344,0.08091518064828097],"weights":[[-0.08666156322214265,0.017301112635797703,-0.14212540587197475,0.1079367429207392,0.008260315576579975,-0.11081751995247585,-0.21445820691554124,0.04513145545919699,-0.0035327487965417896,-0.015451234960352875,-0.14764017400465623,0.05625395615559767,-0.07628645434046807,-0.03544863348768766,0.05078601124841384,0.0043856011943360015,0.17908076209622037,0.022108213942864403,-0.08159885200489064,-0.0007635588477373292],[-0.0866013758046006,-0.04223822097437088,-0.05070316467874372,0.06849861544379682,0.02305186758730418,-0.053277624408443094,0.005513675550099219,-0.02854317325287397,0.10140695789226008,0.03817890702200267,-0.09546628597688797,0.0962392410105271,0.05444951194208819,-0.09952666557710545,0.09941825870139198,-0.023573140867598888,-0.028879117186721842,0.07513616557791365,0.053206627592742604,-0.08391955272854536],[-0.04635775373478905,0.09017897929317877,0.1789204989286512,0.01105023959991899,-0.07408208256107802,-0.011448361738501691,-0.01428968789476645,0.09778700907090285,0.14621254579701945,0.05732326537049068,0.07852372857757137,-0.10419966567068267,-0.07737499568682021,0.04895278960758366,0.05943112313721281,-0.26138158461922717,0.013656743373955393,0.0676986107562944,-0.05461313895056626,-0.0635876093988974],[0.1360804075479297,0.13845249371886445,0.0000734301326664813,-0.02438698264698693,0.14197140081985613,-0.06532981003361511,0.05696083256326225,-0.15009570906794284,0.060592741631094196,0.0060072659135078955,-0.025476992820003534,-0.049565013416336345,0.04448494917013265,0.012708082892654446,-0.1244830074764893,0.05729074298886131,0.08210844651999223,-0.06272519932737537,-0.02817842850416432,0.19017455313528098],[0.10632700561953697,0.12798322199936493,0.10273008568775321,0.0768157187324329,0.044349726798740226,-0.00760486082135907,-0.031334455109119135,0.10645878029235309,0.03502415034473849,-0.08172290307809238,-0.0036226625064065196,-0.013630841686129068,-0.04095832880103978,0.027118187644947576,0.042459977911199466,-0.030397472032091206,0.09723432313023166,0.0006916273637664564,-0.14663850316517574,-0.01912514325909673],[0.04771225738840803,-0.09761568277513819,-0.03637140447875599,-0.030860390660541148,0.15964596218673838,0.013117273697104064,0.018983024096959872,0.12897151162876813,-0.041213678246982,-0.019485115710911306,0.08191527007901447,0.18580695589870816,0.05631871077240183,-0.05494786395629016,0.14377141155605244,0.03443958024125556,-0.07619045061704197,0.11248897865849247,-0.2529083038145155,-0.047676043562571796],[0.06335301023172565,-0.12273912565891909,0.11420102851930541,-0.011993796036486072,0.08754066119785023,0.039031894774425285,0.008843998061128478,0.018635241378420146,0.03420197778226279,-0.13007176574338655,-0.022368350949874764,-0.1649802884832915,-0.037845570546012834,-0.0438671768125957,-0.019721887539209955,0.009476141941624328,-0.04055338596773083,-0.11252492565576941,0.23813052533097853,0.03789304872838186],[-0.04586955431609088,-0.060825175092761294,0.03695733479490094,0.15043534542542056,0.017073370964466712,0.16764314538211553,-0.046360530638775745,0.07018688977632304,0.09043189996601048,-0.1267640850006307,0.03050513075944089,-0.07292634270803192,0.04703127382923833,-0.19015578010402387,-0.006323426961270285,0.00941148975057838,-0.08905655097635275,-0.060520026467799345,-0.07104581238404423,-0.08985596332180236],[-0.1155284073006705,0.008302991312338123,-0.09866561968326781,0.004978567447551013,-0.1652145638008118,-0.13745442653423812,0.020395485722656065,0.04378376712994885,-0.003741466383659523,0.09825101700164532,-0.08781315790407401,0.14043260407266925,0.06775538135084988,-0.1327907204303029,-0.11295261338955716,-0.08062159056429942,-0.0680053931562416,0.052402741119087916,-0.004408442883165747,0.03987766111965958],[-0.036717798771653654,0.05743807495423801,0.03858907044354867,0.019574134843914237,0.16475772635438043,-0.059593686060776745,-0.08289672239181092,0.03276232923502067,-0.07921909799972396,0.12257279269786164,0.011220346072547314,-0.1274140328948497,-0.02339483138726308,0.06872416837781509,-0.051242672834235795,0.16277498927524722,-0.17104516537491465,0.1197575297686151,-0.08412397845603985,-0.06327289437609963],[0.05853938523834993,0.04088202456542782,-0.05578382741124191,0.0342398575805373,-0.11482001457353727,-0.07268655211810045,0.1454145845754721,0.07320889951547038,-0.13225318568605668,0.048125033086297966,0.007753522802439298,-0.05776969140482648,0.02311711696197409,-0.07138836110903707,0.023279256495730892,-0.009271867424496903,-0.023513901492565898,-0.16836191004087514,-0.016002980035137518,-0.025924299811950897],[-0.025117436474112985,-0.026871380503299163,0.013031781749661395,-0.18619532551918686,-0.012137242078258371,-0.11745173545702207,0.06913157776964987,0.03466044373289059,0.021983907591158397,0.04869763697204661,-0.054433257015370655,-0.11863538658638464,0.03841452594543905,0.06716245288630163,0.04790931862210651,-0.07145609741602538,0.07042786207412798,0.0018694346470789491,0.039766864002901914,-0.028917370350958708],[0.07086432276093084,0.12359546303789275,0.08202834803286943,-0.03840213779381426,0.18561112453856787,0.015025823016154342,-0.031235200259048697,-0.170453933321869,-0.2065497358159915,-0.024350589201311758,0.18153852862555903,0.12547394785759602,-0.004108717940368411,0.03612885046303874,0.11455877104147051,0.1755224038587439,0.04953274621194375,-0.09440376198454808,0.07534056074626247,0.2533466942107818],[-0.04712703527112792,-0.12846180847830366,-0.1449285704353659,0.10603433583098615,-0.16779295861662713,-0.18455213555647632,-0.00035922177697381846,0.11012628198240991,0.09096108856459945,0.016787472993079457,-0.09917022872027022,-0.04771601302083526,-0.07034475463915121,0.12577535290205746,-0.08801009728970212,0.018728691618273334,-0.021611400915972172,-0.07820758843511165,0.06030511905138171,0.14791979267338973],[-0.08866653056096406,0.07330234986404842,-0.00042551800809416396,-0.00536613436015821,0.1305246618477517,0.06404062476742009,-0.07233593643997738,0.05899851788760151,-0.0022939102997877672,-0.12124017062091563,0.03631838019800032,-0.15407699977742695,-0.0134674374059444,0.07561652310214599,0.05572595370782144,0.17655018789793656,0.03076516321194813,0.025287438981602343,0.05935058054134572,0.038984910156035196],[0.0032781576658470514,-0.01130866374215507,0.037364439051017745,0.1329419609954556,0.06866763772876655,-0.14379439398513041,-0.022144137377339577,-0.1039567409814287,0.02411772500217087,0.0617018737057865,0.06767809465710355,0.09377803556131815,0.10771446684882932,0.06410806032499806,0.09366492711961592,-0.08372682375732218,0.08692625726677125,-0.17953172418221683,-0.13384952213450038,-0.07123368352779183],[-0.2718828624653118,0.09914495790366587,0.015191336055303232,-0.11738480508901838,0.01946355171091427,0.07673553987704036,0.1103906991332375,0.08925585790395907,-0.02798042708491309,-0.06356940878636114,-0.0034501450671908587,-0.08306488713486257,0.012820086751748413,-0.03335282453289792,-0.0042840721459662025,0.105335707007362,0.09395677213965217,0.11202571565972406,0.042939808024177614,0.0552601132363368],[0.2025331223697592,-0.020705019324831285,0.10970168332458624,-0.004572408720733671,0.0018905357293408712,-0.0845856982242073,-0.0230998597781401,0.05559102249897786,-0.1379846610963412,-0.10137977163862083,0.017938851701535384,0.07162186958952536,-0.061745534939123894,0.008626932036111434,-0.017477629287070397,0.04461032222737402,0.0018657138964428832,0.06779245396922873,0.10616968439792417,-0.09567423103831527],[0.07905633547011473,0.0520351852596448,-0.16701792210456345,0.005257838032286372,-0.011575721401859515,0.23912398981163085,0.00957969395069207,-0.11421052880721504,-0.18924414801600556,-0.059830499634115464,0.06880852222356451,-0.07630613927617266,0.018512403995693316,0.19256986194134554,-0.007497569564102103,0.1146196197934723,0.12752598169763163,0.013552771088891318,0.08750357975495276,0.05221696011463315],[0.03227209515708194,0.0024354913171037336,-0.016419566154211584,-0.1443796283144857,0.10033165760639871,0.2596475724694786,0.026090354431713814,-0.11087084616948403,-0.00205663020860513,0.036454618664247415,0.005882450104303931,-0.043198936447994704,0.056671991019143116,-0.12258628225182523,0.06697920610121968,-0.1542487462094872,0.001479910926383,0.09035271006658838,0.09080093215339725,-0.013029381139056967],[0.015123828959207261,-0.02462199493363161,0.025531283572872716,0.011545515665472617,0.2264664572459367,0.03949253761336954,0.035569973317952294,-0.24356655550219375,-0.054616904984512146,0.04774402616148844,0.08774658004689427,-0.026468256575689412,-0.1318804845945445,0.155916093006967,-0.021570247563096986,0.12650304067904342,0.1114702698444207,-0.0330523007657598,0.053788568218990196,-0.009216809585899367],[-0.10325052663849396,-0.11125045621400294,-0.1237802563595048,0.10628226817635708,0.12327144329730559,0.029618068944211186,0.11268726368966075,0.07365111900726358,0.19872321583575234,-0.12014929236842115,0.06979162101276687,-0.14785447835183108,-0.0713191021282896,0.09628024121998327,0.006679460527876132,-0.19380782141580127,0.12991381335657745,-0.044662170816012606,-0.05046171502440383,0.1417890177767629],[-0.24715593471007447,-0.12733089176972348,-0.01812548931535151,-0.14500055033982973,-0.09252957926127676,-0.16886247124812256,0.046486989508917956,-0.024000658088085276,-0.029462147039975135,-0.10556556559368738,-0.06362828793853319,0.03100465721794838,0.006632041580941186,-0.04728608455827529,0.17479049264053526,-0.15204216002486642,-0.014721858284989658,0.09176647753436261,0.12287338066202169,-0.07167147777189323],[-0.05605485392459168,0.14151038336641739,0.1154153454862445,-0.04950920290612182,0.03128375607683558,-0.08297028823996505,0.02610811620042469,-0.09825385574353956,-0.10685270015741839,-0.17834788375692232,0.08273673875290186,-0.13632386445451194,-0.08077424802711292,0.11699524839559258,0.03109204562721484,-0.0356181871196167,0.04378445228073345,-0.0807435545454977,0.21769383104685242,-0.0029940482405207414],[0.1491070232520073,-0.22150571582631934,-0.07764322771480248,-0.042355952584572976,0.10082745962468151,-0.1153427026254198,-0.06859620918084962,0.048235678071455505,0.020082090002311537,-0.024956170150771097,-0.037761344248458104,-0.04016384418187297,0.07995017802547016,-0.1061211012624125,0.02434755561044298,0.13787325386709426,0.007437111874994146,0.00647700744075539,-0.0723883103371803,-0.05218933207259081],[-0.05802969785719558,-0.056128298979695346,-0.0126836726554607,0.00839372735950001,-0.09891681833426005,0.10773744585986687,0.016906272746293624,-0.1499608962846439,-0.007529311830337174,0.03172194526740789,0.14110902399617395,-0.03796680530018624,0.010386141506454182,-0.1665386953935975,-0.17766615841846745,-0.0324504262393996,-0.0024496407941918263,0.040864057433237164,-0.1043388944318976,0.003969199877133031],[-0.03875573227585617,0.11393956582744731,0.003212723722451044,-0.08378757041311162,0.1302029183440565,0.01228829807751197,0.06953909893586388,0.11696058930493623,0.1700862339557677,0.08682494934979391,-0.0037272064999690976,0.03262076762822034,-0.005268501104919448,0.028460807215450135,0.10272055314470517,0.049305610299910825,-0.1131238132552145,-0.009849393627588809,-0.03351315309460648,-0.04689730767501779],[-0.0011452210042781634,-0.024928694280362,0.03736174406190229,-0.04434523958416393,0.015789558099341336,-0.0011066346443826588,-0.024975597060864586,0.0016322199326636957,0.032533192562121414,-0.05167112329039458,0.049283358408138814,0.11747312906547593,0.031293541720801815,-0.10846237401456602,-0.006220255514925983,-0.08402163942205157,-0.027418628433316664,0.04376188184775199,-0.06616988330495699,0.0012948559530029102],[-0.1250188027564211,-0.016020848196077905,0.015097629747366396,0.013162447033970022,-0.10278869177734742,0.012729576088234919,0.05070323368830632,-0.15577407889528694,-0.03288822851222484,0.0249130486324277,-0.03885952031912065,-0.010555229816539516,0.276157427852068,-0.01065013323513061,0.12221736122077631,0.04465668819459455,-0.13877597730846092,0.03149277148099919,0.09939672753135259,-0.10198715042434121],[0.046838688962257694,0.10622460598502456,0.059621512936068884,-0.038700453582301626,-0.016828555394427538,-0.03592322412924602,0.05755002934834012,-0.031583097017816156,0.008059469586872977,0.01272878572643644,0.007197787000395209,-0.027862960901110685,-0.013147217417786516,0.12639646043958272,0.09677304098399994,0.006570526761615118,0.08874633776083667,-0.2931056216343405,0.12991426758200114,0.21774683831377664],[-0.041422225562420534,0.15861307077206133,0.04411026727352527,0.11003555658511721,0.09237364459507884,0.09335739475916312,0.08025848635114964,-0.09661063557037164,0.010073996632775254,0.023531985753471298,-0.11601466588945253,0.11588261741358898,0.14721896444340632,0.003272467470342981,-0.05076378834603557,0.10351320410649828,-0.11563014426462699,0.07480541532237636,-0.028013100588430647,-0.1652942565119907],[0.03220047615235378,0.006224247522276178,-0.08456444584689704,-0.2108867500913083,-0.14607218965681956,0.11996617424283226,-0.02606594217628623,0.06261599037659513,-0.055115651775360694,0.1989826001526898,-0.20791424977909628,0.19275980798228692,-0.09244299698913908,-0.11068772968549415,-0.10094226185627372,0.014190725075740283,0.05069492716132072,0.0017261821637337901,0.04747031089381422,-0.018235745571375812],[0.021681664764933165,0.04370770368771151,0.0499045442990631,-0.1384705005905205,-0.023105255180735747,-0.040368606376625024,0.055433438120773816,0.030205564989222933,0.04747192146014818,0.08264558256957874,0.04607174400371958,0.028432049633153496,0.017573232177032425,0.02082096563028538,0.024935155348165636,-0.1050842024430062,-0.023509284082658424,-0.1300167005483138,0.00673222479936696,0.0667640766999262],[-0.017954785385323246,-0.037271113989381,-0.1297828847492964,-0.20715221271968925,0.024017216924597858,-0.036385397519339724,0.22464709707374136,-0.042248922439244885,0.06588093111678626,-0.0160478522695474,0.08187310304474021,-0.04824068234820616,-0.05240551030587226,-0.12745875107756746,0.05863914434514676,-0.07113045817060015,-0.09602069008636901,0.09123220042388719,-0.027312138079329494,0.009583244474155678],[0.0016548527921274123,0.056602231059316215,-0.059929100713933085,0.005702257102219381,0.03941514874840967,-0.06834934027214878,-0.00036664333135557475,0.102189530185838,0.09762541896086656,-0.018882153536443146,-0.07857497384064459,0.050648496872557215,0.03868044201937943,-0.05676686650219159,-0.004814375000785038,-0.11696376579521403,-0.00819528163829205,-0.20115784929333808,0.003085715596007045,-0.1313363879963766],[0.02597122414295112,0.0018965216423644377,-0.025937198966116,0.02881182118452077,0.1392726005761768,-0.006755005043310253,0.19744650496386684,-0.11797948493495716,-0.11517520554080012,-0.006202499212563021,-0.10565786447046564,0.08216892647719776,0.010464580040434178,0.015446170783367588,0.07917762205753755,-0.08955242220903387,0.013804491622227872,0.09025993352045314,-0.05449022348917478,0.013678700175111344],[0.010162567189916594,-0.010550067293912654,0.06735725346985913,0.04983803751521395,0.08643515792080149,-0.04392167934795489,-0.042104244218852636,-0.17917455972880175,-0.04637637754169052,-0.07529284979616374,0.049025274090547646,0.023191781093111413,-0.07111254652054833,0.0339213058247554,0.05912236191938541,0.06432383278715725,-0.0543911549997705,0.0274689270310692,-0.03911740435249575,0.04697951505337431],[0.12430863549194052,-0.010423781596228983,-0.05672459670339526,0.07868477432525493,-0.02949601316567797,0.10268384245838447,-0.05109728811765688,0.08785578899914806,0.014078585200224116,-0.0016545737483283796,-0.03010135058129864,0.13182323935377993,-0.06593777189478402,0.18038683845792625,0.18809784668594787,0.13421395770046485,-0.003687129797223472,-0.007922566052896513,0.07500852809295987,-0.0867193044905745],[-0.05143582870446847,-0.07053728746574411,0.11186422990518563,-0.07320782971369554,-0.04327165699413357,-0.035845267913828804,0.016914652312283455,-0.15636775367965053,0.09625561921517566,-0.08604608732832172,-0.05830040259069311,0.0022445250076287295,-0.12587671039187442,0.01663091193586143,-0.034568487215100314,0.2000924273177635,-0.17608646601304914,0.07946784373088236,0.08181429187856351,0.031159892993572847],[0.13237046801160263,0.15617077131478796,-0.05160799110208798,0.09839546371635788,-0.07827001707740833,0.17376987498956034,0.19393390859194448,-0.08226697045792253,-0.043804725180464577,-0.01949141597297648,-0.09695740684849316,0.043298487155938745,-0.040686614213627875,0.18099495369765112,-0.11252193707203405,-0.07389955093898844,0.02488430803876789,-0.09861039855211459,-0.05920490249464388,0.07569597987110592],[-0.012659182824095998,-0.15528939397237873,0.00990083965872553,0.12538731677357692,-0.03377235082078789,-0.06220002649940421,0.040689171609219484,0.05818042959885217,0.15823173109802244,0.04132677553929487,0.06468250842104376,-0.03301566087269607,-0.027949936474050734,0.10272150636705588,-0.08213465106304539,-0.03355051062821188,0.14392089218565546,0.01456143061417911,0.11228784263377274,-0.08109779147491003],[-0.05669289831614925,-0.14607177990805087,-0.09891566785358809,0.058116336199673435,0.12016276291334965,-0.11096139688406437,0.015021813240167367,0.01816026526684907,-0.06359457223376158,-0.15363362357637436,0.062139748785247084,0.07615735500594933,0.038587182306646664,0.02424040447799357,-0.11719531347100653,0.10637700883578505,0.13936162173411576,0.061182858447624555,-0.024825272382459764,0.02857034485709481],[-0.1609137864162056,-0.07524406243199702,-0.050938343286822556,0.044656714034105344,0.01780448649452624,-0.05732422176464724,-0.07576485445761415,0.010575569164126442,-0.0012858576079521383,-0.022618803714288063,0.047757396420811976,0.026303490164358928,-0.15392228650054166,-0.07305605650345676,0.0992355127883167,0.11388918553055066,0.1997383177275131,0.02801973811191808,0.08463100145068472,0.1303218338065591],[-0.1863063964495539,0.025018363876290247,0.16121446086217867,-0.1002349534732329,0.04673401049611807,-0.047767959547343544,0.0014225485779786814,0.1093954392695054,0.09078959084813248,-0.06556731256330037,-0.053275921976880865,0.019053832342017844,-0.06110151306602532,0.129602375003334,0.01976359353632992,0.02954183880661164,0.0012935680114787773,-0.2712589519820107,-0.07125496181708971,-0.06067080510125929],[0.07671821664452573,-0.011409363026591266,0.06268044949623604,-0.020384564692136765,0.03237455138486618,0.09360303833264291,0.10363703330915441,-0.03836810716965959,0.040765706682518145,-0.050530454100299875,-0.07910492665629842,0.012694379294836626,0.006140854071153206,-0.21919280325527474,0.002006618438255156,0.09839189470427348,-0.1368825396895916,0.08471281350736451,-0.11554565425452105,0.09497392850104916],[0.017476206527085612,0.00887690634841165,-0.05959514958455596,-0.14236527870340154,-0.18561159352195875,0.02742255150727205,-0.011052319828450077,0.09615440352157004,-0.007136939520559816,0.03877962867875126,-0.08658901389348218,0.23400679056046111,0.09072893168638983,0.1735283262463406,-0.0453812962074103,0.04125031381945654,-0.016069339069742138,-0.04904954671868903,0.13651071095594794,0.09107863069119856],[-0.038828202347596416,-0.10878368584222367,0.026459854601587687,0.019152093268359805,-0.13313196377193978,-0.028658435589401194,-0.1558898087062775,-0.03933054525797289,0.08515189477958846,-0.04943464624265869,-0.11695743107758819,-0.04206891555746799,-0.05214917610232915,-0.049213856519560215,0.03766953600929979,0.14220993803358783,-0.2791906738460874,-0.0019644028254097194,-0.029617110893559916,0.151098569201005],[-0.03902631560979185,0.11674348719030592,-0.00824956754175309,-0.053007766394872244,0.024456357244015486,-0.057620976744440736,-0.08347718172828363,-0.023339845835592878,0.012348375306252182,-0.17499222173009873,0.0017686295029326823,0.04546601396776568,0.016588832331606157,0.01090330620173447,-0.01613635226519032,-0.11432184206805966,-0.015177871788334258,0.2068915270376369,-0.046912580187894376,-0.1293432711533488]]},{"inputs":[1,1,0,0,0,1,0,1,0,1,0,0,1,0,1,0,0,0,1,1],"outputs":[-0.06754311551043833,-0.3658531636564345,0.08078344382550692],"biases":[0.040914615191786935,0.09947478782284586,0.12861027812768913],"weights":[[0.04578026207503942,-0.0059931984354075,0.1574480506923971],[-0.14395550135517018,0.0515589518594075,-0.0011144901304271579],[0.11239918971212375,0.047795671077689277,-0.08824354435489487],[-0.21535976671627213,-0.055807930802261305,0.002810531102446192],[0.05157937718929674,0.028314773163005447,-0.007094770832590483],[0.03759211911344318,0.19580860145512002,-0.060123343641567545],[0.013807265823700269,-0.029950911762657795,-0.16332994246256574],[0.047271312105205146,0.10038860884308863,-0.009226396024830281],[0.021207538800135213,-0.2645333527587344,-0.03120967999014434],[0.20064535138983858,-0.13223328868844303,-0.1381960458928928],[0.1581245319013256,-0.050360949961511345,0.011428986259727943],[-0.010156741679876347,0.12227272053548702,-0.17053030059907315],[-0.11359450009870461,-0.12575531448249663,0.007944594954978169],[-0.0032213647911362407,-0.1527411203919964,0.11927214672335704],[-0.07725701683182334,0.20229404767814502,-0.08195894248760727],[-0.08889993846924371,-0.13173887242881374,-0.056301330543574224],[0.23997784741558129,-0.004180940905920881,0.10203843555639933],[-0.036124707834194525,0.0030333115041125437,0.06077242722153005],[-0.01335667979334659,-0.06901258004153231,-0.06679434733499222],[0.06269840447008179,0.04630326834985371,0.032443720903842524]]}]},0]split[{"levels":[{"inputs":[0,0,0,0,0,0,0,0,0,0,0,0,0,0,0,0,0,0,1,0,1,0,0,0,0,0,0,1,1,1,0,0,1,0,0,0,0,0,0,0,1,0,0,0,0,0,0,1,1,0,0,0,0,0,0,1,1,0,1,0,1,1,0,1,1,0,0,1,1,1,0,0,0,1,1,0,1,1,0,0,0,1,1,1,0,0,1,0,0,0,0,0,0,0,0,0,0],"outputs":[1,1,0,1,1,0,1,0,0,0,0,0,0,0,0,0,0,0,1,0,0,1,0,0,0,1,1,0,0,0,1,1,0,0,0,1,1,1,0,0,0,0,0,0,0,1,0,1,0,1],"biases":[-0.15017984371225682,0.04847300174091125,0.010193334906140002,-0.13671106311492484,-0.14744963528167715,0.0016661744559177682,-0.08891760722198447,0.20070897182764375,0.01019718372348476,-0.06874549014302281,-0.13961195902358545,0.060686361530665395,0.04519766760100151,-0.149953223313358,-0.07773225495100342,-0.030457116331666527,-0.04112154801728371,0.10427287158174953,0.11453379447201152,-0.23179333011005115,-0.1441742923660815,-0.17696432432119744,0.07117216431792352,-0.004558831637888349,0.03241402802527753,0.04924933941462046,-0.035937433766341384,-0.047859367490328444,0.014592953006716106,0.009446751500310761,0.030561848566914667,-0.054360917151924926,0.002863901691130377,-0.08103575437154828,-0.008406601366316033,0.10812700804708798,0.12487776013525839,-0.030884513499671765,0.055718845604367975,-0.021612139974048344,-0.05197812847450732,-0.0040756190955315505,0.1733690710148354,0.06042951102822395,0.10043072374338989,0.008063788603330815,0.03711406897726419,-0.05859270664875588,-0.04769114289677134,-0.004154908791627773],"weights":[[0.028452158738033074,-0.010984891316717321,0.01941259242452016,0.159616034884012,0.16113781093520385,-0.007167848772991675,-0.044838248180770465,-0.0009558286613525081,-0.04912293178387083,-0.048214968981245554,-0.03759383590663046,-0.14474092341157266,0.06955155079163737,-0.0895993646782737,-0.0366778609290315,-0.016315212570318524,0.11290307378247269,0.1974772700468067,0.11719427766539393,-0.1215183651036759,0.06980889156730753,-0.2158366978783311,0.09912533235647832,-0.03823493837545,-0.009997380937672806,-0.06305508113967817,0.19648929884876135,0.0053559475549820705,-0.07831750474109964,-0.06820331294185657,0.14154149105317124,-0.07177784040349167,-0.06306052769972215,-0.10985982862455554,0.14278985237232794,0.08169684148524081,-0.05987841187215405,-0.01682604234451528,0.12263211874663474,-0.06929624368072432,-0.02261055130188372,0.049028905960838705,0.03565572738043432,-0.02243346854975898,0.02479404639080899,-0.17837989291128256,-0.03624743245087897,0.09434970549509572,0.0935317704552867,-0.04305886304329015],[0.045345384502561974,-0.002689755781714251,0.08047971577541572,-0.07857412083702364,0.03930966411431969,0.09087472490437226,0.028288244659493707,-0.060146152193546215,0.1346503476604895,0.03437444053604605,0.021244537599519685,-0.08114531658390603,-0.058813358396764374,-0.059503734664450504,-0.13128146661978504,-0.07056405472778922,0.07244316536006679,0.025229939580306986,0.06380428980125709,-0.035520619768793664,0.06800775647420126,0.03290999765326145,-0.07974125351367144,-0.13202022654645768,-0.05445513987927967,-0.16100041430811063,-0.06128505490232121,0.17333838306481789,-0.17550351837244246,0.02993169775183869,0.0490655575252506,-0.142433703610505,-0.031798488449397526,-0.00814259902332654,0.2510695831722472,0.0537942001810555,-0.12383620855569973,0.007535063386093405,0.11257569903240741,-0.07653143850486302,-0.03510668872855999,0.04190114738698832,-0.021719286378709794,-0.030353429244858177,-0.06040141514856653,-0.06355285726852503,0.04681424262637379,0.003750593461888989,-0.05279357983114109,0.056923133296959486],[-0.08197151963823388,0.026659293973839288,-0.0013639743321529896,0.09177176725021106,0.1856758833393339,0.09725659272131532,0.12365899098866145,-0.056640854408952106,0.13856146806398295,0.08267433109187755,0.07711579175647433,-0.03615603706291126,-0.017963423381566323,-0.04632900626396677,-0.10565642347305673,-0.12294354310518205,-0.10617966269395451,0.11494600182269063,-0.007817531497124334,-0.128040677062095,0.17861415775570105,0.10341889488915611,-0.010072830795121238,0.014921985414792265,0.12475521060002961,0.08628896825844984,0.10235798848560859,-0.04200635762223967,-0.05970917952681065,-0.005431682684953171,-0.004808441304226502,0.1610566714559032,-0.04841539034299354,-0.004002216456968804,-0.09815703553363651,-0.002542626116239337,0.09563434812864394,0.12021962713075071,0.09650905546218323,-0.01665697664077198,-0.05841652160875194,0.06122093370250131,0.10936362991606349,0.06244541198852545,0.00765881191434032,-0.14698512189141552,-0.08684760075508076,-0.14238588022042378,0.022717477459191154,0.12306579284109057],[-0.07609392324702405,-0.0714090124321072,-0.11258306648036684,0.03302400146565366,-0.21678317062683267,0.012797982197344224,0.12030529562466008,-0.04287005592863951,0.19520403862866834,0.06409451555177288,-0.03831591645014691,0.09348687554140096,0.12716869804076783,0.06519218105598258,0.006967963645515685,-0.01546358173874134,0.11642298017671102,0.02976652204809702,0.05710139474914666,0.06760963821979592,-0.030630230257668978,0.018125117064094802,-0.11613723082529956,0.13578833357682585,0.17901742399814258,-0.22181816978300678,-0.11018423795249409,0.05260757433358683,-0.04194651402892289,-0.03196738174166754,-0.14480775217225703,0.1083533498116137,0.09938766036025437,-0.10098813003736978,0.1372495111225342,-0.09832404477019045,0.09888871628793391,0.08517921342482805,0.04641229862096786,-0.002401554957546563,-0.0833279475768259,-0.05928632405028445,0.12518105491335124,-0.03515732235582849,0.013357664205065366,-0.12823484305144503,0.030172594277073198,-0.03991525193431085,-0.22377839468843874,0.00394476080301589],[-0.022585523164715595,0.08890973612653827,-0.028680427177553203,0.1481095788426035,0.010964284159555594,-0.11620498282346411,-0.2573654103040409,-0.1746440150042104,-0.02340745082772093,-0.1988192163118683,0.07445204430737765,0.024952816794403906,-0.13781319552318963,0.008190793770098126,0.19761623797464858,0.06456353645973231,0.07184265158974085,-0.0798698320903341,-0.042035533727576554,-0.030284428747551335,-0.006140999346919449,-0.030727399057780484,0.018918032885688038,0.12838030561781616,0.024389261196840036,-0.0003492595872092649,-0.038170670366837474,-0.08009076551877271,-0.0924545497697103,-0.13988136567071077,-0.1766460910404729,-0.0018062406037493706,0.09865621239498568,-0.03424362951565196,-0.05566357626350167,0.10158146528223627,0.048033778310439625,0.06968450226559968,0.03212028581775019,-0.06710217773548435,-0.03795847747960186,0.003660322305499432,-0.024462382021373862,0.01649569591889444,-0.14391267577311906,-0.13518574322684784,-0.0010381561030996106,0.055712820057809434,0.009147723572084328,0.12344775421353921],[0.027459079016362145,0.050693263081042134,0.125169916837103,-0.09299553990617117,-0.13827842840784926,0.020469297311434795,0.014326502222752046,0.022049796000136866,0.07150628347466867,0.00461223357443067,0.1504093220983493,-0.03233342202238565,-0.0798895354178079,-0.06023166263617296,0.030440760242434018,-0.02397138214302222,-0.01529406707328181,-0.09133699234705002,0.08023476359492854,-0.007331297229717593,0.009113963688913214,-0.03594482583509304,0.0002025609360168032,0.12798489082766992,-0.05579588834226337,0.2994684716833953,0.13729568875814485,0.02867218761142132,-0.13629568513536947,-0.02307524443447819,-0.075547989324675,-0.054483065327649426,-0.025495064504341643,-0.03586692343846252,0.16337101876069532,-0.04938583467014833,-0.08147662682794235,-0.06767091462887885,0.031999611944344655,-0.017202438925535992,-0.015668792262514816,0.008630265565963705,-0.007454429894671467,0.1497587854483314,-0.0905463575906842,-0.08100200461967458,-0.03413898870559983,-0.021359643774209493,0.0383054275434693,0.04941826145309239],[-0.0744782822353913,-0.12184383435533051,-0.00507413954814665,-0.1338615687520665,0.033541763077169585,0.006914968847613218,0.04091269449099135,-0.14297938783788602,-0.0026532365533239594,-0.11700432425821289,0.11426036656423977,0.022469746608642142,0.12224905721459883,0.04689193422968277,-0.10976085159353113,0.1429513873018871,-0.026198491268845464,-0.031194642964663316,0.06356468374684586,-0.033399559134466746,0.058423431827040365,0.03341125856779435,-0.058605647169347116,0.008703107672527478,0.08409698941471624,0.007969599595175,0.14452166878343983,0.03814917369467899,-0.06314939847203492,-0.06418214865304313,-0.0734792998671305,0.010762216102400116,0.06976774044857334,-0.014830422041169342,0.09842697649587637,-0.0006147885582188546,0.005606275690786554,0.1767414140561554,0.061591186517602294,-0.04557700917768763,-0.05423163467693802,-0.021819563212324648,0.07868194398640402,-0.1296388529019224,-0.06409918320562265,-0.05403491134825407,0.08847121988146484,0.09526588058247791,0.009878846111470746,0.020644690919772897],[-0.1019395381474457,-0.025740255954856434,-0.09614978822738647,0.060850987601587164,0.03557760537329945,-0.05031995609655577,-0.018426066882629523,0.011149628315652794,0.08938099740381425,0.08197239834187406,0.12976711738604052,-0.029388029500510594,-0.0762397914156989,-0.18739830988977385,-0.04401988782068002,-0.14021486022340882,0.05225737661541016,0.21775580339092823,-0.0769294868611399,0.07281683701606417,0.020414673224214697,0.08314900181898095,0.01686319801861285,-0.06683584767511554,-0.11497590230828554,-0.09001352020041738,0.061550805611178,-0.09070411483581632,0.127346695787787,-0.10617311389768438,-0.0325869836703978,0.006738968378944221,-0.11832024004301371,0.025973704221987172,-0.10583934676658424,-0.14078798551777388,-0.09057717199310303,0.07348815918558471,0.15354065897498004,-0.12295964658836799,0.04047001238305063,-0.12247283015814946,-0.10937563928830375,0.026289706392368713,-0.017748060826104597,0.11542345062333806,-0.04705986384747101,0.137759104290077,0.11185587196117239,-0.04210924444059394],[-0.017480820004476413,-0.1137417266587312,-0.019171913907899383,-0.12720906451490369,-0.10957478144399882,0.015276227595853717,0.15048758773441276,-0.05343711447714564,0.10832699003191741,-0.01970070713482975,-0.11624544853789037,0.018129601640694566,0.009152129993307109,0.18839029878006808,0.03707583900734264,-0.040313110427081786,-0.08696879500224183,0.05185686626819317,-0.13617924828546418,-0.16765124199616283,0.01616690333030131,0.04398646168110844,0.07628038528493222,-0.17477675579696722,-0.033741434569776865,0.019756314515179053,-0.22989510827532134,-0.039515761890172085,0.08969578038916462,-0.1468885616465894,0.13166374311411172,0.10213822736011517,0.004901038183350193,0.022040349561093554,0.019373325856659775,0.13765311104137185,0.06161287238049511,0.0355638508212061,0.13505104149044314,-0.06616977893097965,-0.05491943031723459,-0.0563896951827299,-0.04924598477674083,-0.07187920457404401,-0.09457553051763846,-0.06094179538482969,0.10955871642602943,0.04133461591183838,-0.03216233692543685,0.09291426452707459],[-0.16684403261947625,0.004798734973951925,-0.06347418996386617,-0.10861444734186397,0.0997223894496319,0.024819546149721868,-0.08650856513421189,-0.12346434641556878,-0.04026615216114054,0.12663830649121005,-0.016092264803378296,0.02638611400550525,-0.06405841537042445,0.028380612202220216,-0.11566834236323195,0.030304073443253567,-0.17690540610845445,-0.06686107624146581,0.07672639128282846,-0.1607443142616258,0.08505363628343396,-0.12175242858189415,-0.11689173170305328,0.00047359966611580304,-0.014474770777441068,-0.020978614633294774,0.009848664148750828,0.037776128086080094,-0.1047472278929982,0.07846510454222108,0.2841858088113677,-0.027958858419283472,-0.1660803086792581,0.03899261810369123,-0.10200239140994605,-0.01720010443332999,-0.18474598472806816,0.0738540976757335,0.20327548046015148,-0.05192891330460257,-0.1489092756808482,0.21011752617361365,0.07618789113657698,-0.11460636246383421,0.05674374189453398,0.01626489726590205,0.03872291335263691,-0.03626129026373465,-0.1312185558784374,-0.08860740895645988],[-0.03790336590693709,0.0664982660325179,0.0017408180819778185,-0.028740535449565667,-0.07805264493008013,-0.01054236254492404,0.14089951365141604,-0.10264639796977071,0.0013097813879388645,-0.10593131531630591,0.05666882961373221,-0.09333296355918952,-0.023770258111976923,0.018599510175258918,-0.04888753705650006,0.14486715783416096,-0.05009925515361628,0.07614037750596166,-0.05151233901749325,-0.04933523079355222,-0.010932198384174606,-0.0739499931526417,-0.07860998048515905,0.09715496179675667,-0.03321760314154142,0.020650347905675857,-0.005876054296085645,0.0887884763669254,0.03207944104623364,-0.16931112374671356,0.013021741417484842,-0.042147156020693174,0.23394376186154092,-0.20924875696795764,0.04081966636341883,0.08307214001993327,-0.015885334847590332,0.05375814029736695,0.13017357996640708,0.1739569921425767,-0.025988948206761855,0.05165586891784115,-0.048206182187001366,0.09569567111225434,0.030379791174984107,-0.0004944548873924863,-0.007972882524101811,0.0014489360679818403,-0.010941242362380445,-0.1427725702406566],[0.013868693985192814,-0.06752905493929037,0.04182492030726606,-0.05760600943669053,-0.13695622511226369,-0.163546475372807,-0.16760067516718696,0.13941213377630457,0.012795991121745363,-0.03681233579357872,-0.015284383432177862,0.01219668449366499,-0.03679036209764586,0.023566338856273097,0.12808901606006529,-0.05296697260766907,-0.028818068134409718,0.07281342417667724,0.20276554403922084,0.010274568853089177,0.0751058864616646,0.1622636128052743,0.019937178319170218,0.04482606686628254,-0.12317128253434378,-0.025999922784355825,0.015505640753207869,0.0022950279151681616,-0.07911760982615962,-0.21709083406382,-0.21657992649641003,0.07526310561506519,0.04204643458428301,-0.08557005008007702,-0.029950654882429078,-0.036822890138236974,-0.08683376470954697,0.12871507142181518,0.06461273647721268,0.04964005763639358,-0.1517214986019223,-0.10476034820735453,0.1541546975542426,-0.009893504959899022,0.011696013211581927,-0.0723965565154242,-0.0804120821567293,0.2133313999254597,-0.22398519242009862,0.03280360702952892],[0.13454058586064516,0.025296580638390433,0.056450515458027005,0.02364365100123069,0.11918732235736157,-0.002465953428940359,-0.13602901716101604,-0.13168202528147374,0.15137128024946478,0.01764798067489165,0.04322153822330199,-0.06801770398654192,0.025534904804963184,-0.016079924363095112,-0.1890771089808681,0.13976595450991042,0.04457410170359539,0.015564056937489287,-0.12353369912598566,-0.01864805084848911,0.13960599295316511,-0.041612309849789905,-0.1453416712452931,-0.12077324712396623,0.017210986315902694,0.09524098868706815,0.008673010919443128,0.22404217350434633,0.10741676194006494,-0.0415818039817252,-0.06628828932362071,-0.1700897227956808,-0.037817348668543506,-0.16349996724211519,-0.02868001809626735,0.13449300550130378,0.018278837484049994,-0.13186950878146397,-0.029096655068539378,-0.04699633843185662,-0.13732001956102563,0.0370182653838826,-0.07656917318110694,0.0352580780643914,0.03997021913773759,-0.047299245461305414,0.14310333714925622,0.024772318725789957,-0.01266273648278693,-0.03409933077425609],[0.05073328649373371,0.09472578918215883,-0.02576605265831245,-0.21212172805896848,-0.0074690676228122595,-0.055714273124809484,-0.04392177592054984,-0.08367534036468259,0.014345578368948866,0.11394683670777367,0.019976119184744276,-0.0919207172725708,-0.12274707900633891,0.04169801220388175,0.05448328425559571,0.04488496946922954,0.05678392478803472,0.07043151249608437,-0.007386365662082464,-0.09744540183553128,-0.018177313749714527,0.1302042187521986,-0.186968322980845,0.01920884617323318,0.06123479197379444,0.03899416986676435,0.0551740911433775,0.2195095483958341,0.023064520002712793,-0.11980083601482208,-0.09398753322383552,0.021239162824645427,0.18679325810883055,-0.07609689857856308,-0.003937904125886266,0.08563742426512679,0.0245285592739138,0.048755302222077225,-0.10205779108788005,0.1124717988931947,0.09429738147593028,0.002454731427807838,0.006082306001236479,-0.1575109538478821,0.010399148664414284,-0.12348360815868731,-0.05474540195998198,-0.09530267089557891,-0.09480848450218188,0.04365333045592591],[-0.0015632914516066111,0.014056568176197496,0.14187723937219412,-0.08606165311744954,-0.13846913491386356,0.05152847130214533,0.04863594267200838,-0.01644749921235985,-0.11105167797842377,-0.08279504621846187,-0.05528007171320768,-0.027480996765649822,0.1411033695015835,0.0659648995172998,0.11599792906556443,0.0020027634299799937,-0.07133983083847134,-0.08233636960275971,0.03767623608073619,0.0916419763656622,-0.1984026901124545,0.07463163490316604,0.03281223880911068,-0.013806739161551562,-0.11824739574351509,-0.09613687894298385,-0.005222956477705001,0.04530139731994022,-0.04795847277993501,0.05496660543773175,0.03792256106344492,-0.09573837356182169,-0.01230293510509145,0.05871380859529506,0.043175634512140425,0.024636594282762506,-0.09162486015792295,-0.12567026702597983,-0.0809235552205334,-0.06826454972495881,0.07912357192585158,0.14539974121894725,0.0536106326097806,-0.07364457810242642,-0.03655574766144368,-0.11439572534952518,-0.012177069655712976,-0.0071713833862807235,-0.03611900745488164,-0.07950212303166823],[-0.13945726837066544,-0.03626154250150001,-0.022571860142218556,-0.06981610662427266,0.046188187472691045,-0.10653609211240926,-0.0822037216630929,-0.1380224661379132,-0.06502535668204355,0.031220446651234635,0.08332205347160167,0.14676082329271714,0.131244366955957,0.02518019656926191,0.07221881244596959,-0.03833275518854384,0.14426226866222627,0.08762327437708149,-0.02905444145979698,0.16119078440476375,-0.00756752824657363,0.09121632302187885,-0.025168756256643353,0.017493287552200233,0.13448111217786046,-0.04610604348590491,-0.0309529512487287,-0.115297284394466,0.16448145648018692,-0.013850744241610966,0.08003699837235481,0.013366367455583533,0.04310333078378418,0.012819984475347719,-0.12925827163496184,0.04717348943329851,-0.07927186039193967,-0.017399021827183447,0.05354974819808491,0.09032892818096319,-0.013797700917068317,-0.07771762369710314,0.03768520810767033,-0.12151845041731434,0.074982256623838,0.038469325539114196,0.021242537556365036,-0.15124702356768419,0.13924326240638685,0.12303473440575921],[-0.14870218090238305,-0.06465766373982722,0.08702372114067722,0.13715701049620255,0.018823461361258387,-0.04258252191370388,-0.03707141889918551,0.1309692211463807,-0.030679582422020308,0.06013583522640446,-0.055995715218432766,0.008749041443394112,-0.0023585670188341484,-0.10963829403554366,0.02326019572752097,-0.00822120293820411,-0.053855395454677685,0.056770828378295536,0.028860396509404328,-0.08989649940162465,-0.0005696178031134383,0.09780809289148923,-0.021027794577475875,-0.060189409404991116,-0.12556943711625973,-0.04150819369484461,-0.0024510266610209422,-0.06834035844113266,-0.03383989348121194,-0.07129084574212506,0.1341247402485645,-0.06590895360098524,-0.049373436022663184,0.03271231129653539,0.06725671240398878,0.11561489398824336,0.02703764121482352,0.10453090697229267,-0.16727603190177806,-0.03335907189341413,0.027121140084329344,-0.016154684943683568,0.092269381998522,-0.02392649621039688,-0.06527059115852896,-0.13461636952807568,-0.14330471855780966,0.12352523705529948,-0.01631976311511487,-0.17464712975128124],[-0.04729639501193009,-0.06899137988162186,0.001397444308779451,0.062492856952748574,0.11364819491653683,-0.00956658739557462,-0.07755249857775859,-0.03064068218612428,-0.03363485466718573,-0.1127681533608953,0.10456924072607385,-0.044979402012798854,-0.0634207027173985,0.06232651340498001,0.014236859796108559,0.06458626723741252,0.021260331114275617,-0.13355710876659335,-0.04688180745828388,0.06237930556551341,0.07561600662686789,-0.03593309642541007,-0.047797085076591125,-0.03411454701485665,-0.18586097168115756,0.041006931024722235,-0.13483773810215607,0.04624105686632972,-0.007261316366245644,0.07347638574497453,-0.054417404809833064,-0.25194682973548777,-0.11249528335911609,0.007057866639451122,-0.012869607578905807,-0.17267380571702415,0.00755759426075594,0.02269318263121387,0.019249107731654735,-0.01483398185830253,0.13279872430546663,-0.1036670094572289,-0.03382212513933651,-0.028947544297801518,0.024822583459346063,-0.02898016392968842,0.13247568215824446,-0.049335030120786404,-0.12240873470215027,0.14239000351094183],[-0.1379262279437081,-0.02295273205233188,0.04099416575860489,0.037895693005677356,0.05557037266159246,-0.11128649238262164,-0.037945978322964896,0.0019072795896072844,-0.10960415981525817,-0.0008805627768278187,-0.06199355185555855,-0.005015414981541132,-0.020545010867711905,0.04317549529439904,0.12286829757739032,0.06296985624909757,0.11244928364601252,-0.014030422623265752,0.08257995608137138,0.015362799096339655,0.06820570169120757,-0.11025131927781366,-0.12758253070967215,-0.004698958192453723,0.05716115309408662,-0.02470963586362252,0.08453643360209036,-0.08691629325177413,0.03732508286836384,-0.008511409751870376,-0.02318985198575768,0.08289308798715815,-0.02637507090299078,-0.00897724155023445,-0.12335746879113688,-0.1659918668116088,0.027783266622031663,-0.05622001850645732,-0.010248360859324318,-0.0946118716560217,-0.049575047075562005,-0.08633210276355838,-0.05308926704172212,0.15934315817025135,-0.12398161866179691,0.020329833321542208,0.18550505720387536,0.05052321335439816,0.11341799048277376,-0.05857693603111777],[0.06617796195075121,0.07044126796750279,0.12141424420446328,0.1211715548413563,-0.050405400225623405,0.17897015861786938,0.04037118179357226,-0.057314278212272966,-0.02545100812887468,-0.16516598663691065,-0.03307841283425913,-0.13127897061777566,0.06347242977757331,0.027165244247990668,-0.11238789911968444,0.06784480380625522,0.0757644142543597,0.021225627425477175,-0.01654150101042326,-0.1406942059263872,-0.021477183765748774,-0.22317577559355653,0.185939152421694,-0.10080803786552478,0.047925151136940125,0.015631354887655158,-0.05768898818722811,-0.01968517451705895,0.034586904554323485,0.01085946963207364,-0.014169477128274134,-0.06551718029952948,0.17746303036414107,0.033939606621837065,-0.06285373830814611,0.08247372175474206,0.10694283864335681,-0.01436730708928351,-0.05792379668546166,0.029152333156821576,-0.0692890274807218,0.21068132261259226,-0.0007364011019346632,0.004928895566985822,-0.07538850119958879,-0.09890100262131554,-0.07051834003219284,-0.0764937977544566,-0.0106396393172059,-0.01933163764677824],[-0.08413587475159745,-0.09646320220873675,-0.18654078197378432,0.09276331765161791,-0.06371319135909195,-0.1294534562724821,0.10603819267371936,0.029496520163540353,0.04790809095773186,-0.09486876440754372,-0.03310125834789743,-0.06163237079329861,0.11750170981541437,0.039987990832221224,0.06125082050672125,0.24264898058321546,-0.09422963527667025,0.050902667465890686,-0.12529679341691227,0.03897597386899655,-0.1351160779267812,0.013108949588617514,0.07827347275806446,-0.005216593289244495,0.05957002477921927,-0.0481449142705098,-0.04130252725655813,0.0510355382774953,-0.003659467625818015,-0.03918121438548658,-0.03239741951733002,-0.07689644117812723,-0.044194560123207244,0.01073073403724649,-0.032915646955702905,0.007481261588620437,-0.07450724253841143,0.10200872815206304,0.0830964339795569,-0.10541247070447239,0.027694611573283474,-0.11421174373865316,0.10188498546081798,0.10707106100834488,-0.15754932157542276,-0.03861390366214037,-0.08981391570458659,-0.16398608564810405,-0.2653997373354033,-0.20769801570756757],[-0.07336861597903654,0.05964182799184853,0.13982998546361777,-0.10207022107086147,0.06983873211010938,0.1318129543857811,-0.2160877523028026,0.04235539150767169,0.058803130798485925,0.11995817111643123,0.18968295829538206,0.03836730108260613,-0.07370181556150458,-0.21435837075471334,-0.03190801310493901,0.07233125517233183,0.1477830543687924,-0.12203402463998408,-0.10549944445532497,-0.05973128260428026,-0.051737929398543,-0.13706130847173192,0.2090259830932745,0.07444598055396895,-0.025440482543738006,-0.029315611875971002,0.07245654435714351,0.016616051777081003,0.11427976285638569,-0.12344336883719036,0.003474522229512826,0.012454677878115421,0.0287875381493526,0.0699180296694212,0.0999074130676319,0.030814542200780313,-0.007277796875748067,-0.11206896399744781,0.08996621664142938,-0.11063899896065657,-0.1753961184674795,0.0724147122357344,-0.015763912286492647,-0.0035752910136546794,-0.021698363827774847,0.018660597309642122,0.002080850546041863,0.0075398715685806375,-0.05628415785761711,-0.13583253622790817],[0.018784128741079067,-0.08179148914390053,0.002328415317519844,-0.017166106381334704,0.050051191936184784,0.04597128658784863,0.12352793629172212,-0.0012463943185812981,0.01605023249618768,0.140008329184978,0.05779793421458218,0.10347364908569104,0.1097601507401329,0.013428925157419358,0.03585102706146381,-0.07281063287847794,-0.14356532401610783,-0.07044917575769599,-0.04575906273513472,0.06416338122596553,0.22010235022736874,0.04003135248184546,-0.00559413319948197,0.023460748431416878,-0.0009249319671769734,0.12072355298181327,0.023237077692484454,0.03554171623543958,0.0494535936909272,-0.1376219980222062,0.16106625378600814,-0.1302873680808456,0.08764160276418803,-0.1017882916859966,0.059576431688633524,0.12904912940132718,0.1038344446491177,0.10999044557850575,0.09912359238109485,-0.05178779918990638,-0.10860949132797078,-0.16209209328048607,-0.07308072928641951,0.1149438474094371,0.0002777399790257762,0.12886769150763852,-0.014963629193619774,0.10671753912176635,0.06762882046235351,0.1872997042256326],[0.0885221779093301,0.027723815971252883,0.1002490901861462,-0.10510181486781019,-0.0858838292462553,0.14691717218225123,-0.06936164023339178,0.06198953415331886,-0.021767220775752737,-0.0706621471123959,0.10631730771830515,-0.1002417750113099,0.06317153626574745,0.06745184146957324,-0.1005050487011257,-0.06924901487128404,0.13435703068146446,-0.15163073902669577,-0.14808770600364451,0.09888121796940769,0.1176694992302861,0.09648773104936026,0.1043469328757653,-0.049513494934479756,0.011754930954253038,-0.049555442569370375,-0.03782095023059462,0.013467051333212417,0.04224494170515296,0.13526753397285732,0.028558670450624123,0.11110812052548219,-0.08804859774404292,0.11529386124669291,-0.054287115537357586,-0.11815206167007718,-0.1358058554699116,-0.0017637195316047433,-0.09117842523536472,-0.004818261496100183,0.03628632922006435,-0.0464060880080306,0.10435951112039055,0.10610668959130208,0.14485156730438017,0.02857597567681783,-0.09033437875960071,-0.12416436945634174,-0.044913825286215195,-0.026151954334233257],[0.1923941796494538,-0.15474948258652316,0.11316332440826554,-0.050110123313480776,-0.018497160764698928,0.16484015880049818,0.023825038028911005,-0.03975806530980823,-0.120511940695263,-0.08497625585993866,0.12377399504585349,0.1148016160677722,0.009286563549288883,0.1262868917238246,0.037138807616576515,0.02896975620095433,0.14592472572317092,-0.06212129707028655,0.15853960402973363,-0.06878525092432262,-0.055798406199821196,0.07530807952444166,0.006330004259015068,0.2682739994711563,-0.013170652401361671,0.07013223911510837,-0.008472605738550507,-0.019414444350378895,-0.2297088257293292,-0.06772974341884389,0.0026725105840384854,-0.06731931312162491,0.04138038362137314,0.020763525128180818,0.001525638024030454,-0.09033725287256486,-0.08606594822534067,-0.08809797068029163,0.1509954851092085,-0.025083641234184342,0.02615859024099739,0.17112301135884875,-0.062007804805187576,-0.025879741844766404,0.0070566978692846,0.0413485211798165,0.048346553212287015,-0.04723388791795631,0.026245030598151663,0.042372129678246974],[0.016852009167636996,0.12889758520801342,-0.04427797452007624,0.033968438807970534,-0.07270396728316236,0.08486778275581247,-0.026836035660660253,-0.09240088409222812,-0.001462137801739777,0.00807186268437169,-0.034789095416703934,-0.07157919081284757,0.08281870788527262,-0.07031048872449756,0.06460583006883043,-0.023081691593668956,0.16401816932758925,-0.004605191033314172,-0.047333875510944486,-0.005216262670330662,0.030047501452067055,-0.0024645878822835907,-0.12601593459985863,-0.002772188498542651,-0.0959922215971936,0.1386875580361943,0.038549340538333414,-0.09245559357227555,-0.07730038735007591,-0.07598778213462642,-0.06862398713057127,-0.007496202796844521,0.06066513946647581,0.02424090576960037,-0.05632508881866416,-0.08260643604108,-0.0579671971984602,0.09457020986613965,-0.045345083776197795,0.12703465719577905,0.05948657305752898,0.04952459354872107,-0.11879919116307942,-0.11029445144155298,-0.0243990852324053,-0.03191125486770762,0.035771312990378994,0.11072851941836209,0.006779368678960264,-0.019471406779199507],[0.08999409483202311,0.10741217822291765,0.000950239736633246,0.045397179236275474,-0.06436012198079005,0.062479857183778145,0.1387839809238564,-0.008760252635060913,-0.0036042287520704243,0.03941535397904714,0.13234483605638517,0.07605600316560292,-0.1616227005126565,0.08678691639679183,-0.05747144653358151,0.012726142778178427,-0.06502772340219215,-0.23054588962066022,0.034992106334112545,-0.1229739531390963,-0.16893370645062913,-0.20786629068178364,-0.07920798088209705,-0.09518250048934462,0.002081309585828854,0.16761881896510775,-0.10589666155701387,0.2219858631232048,0.043010436073292496,-0.20991763964950153,-0.032668450148168236,0.01604266403263082,0.0986258110212216,0.07653465372277983,-0.11060470571323314,-0.03440251540640388,-0.0385104702088296,0.002782294437231679,0.1609726897888998,0.068339505630799,0.022099085571199814,0.00869164875457661,0.041960582624271235,-0.06343028418784034,0.06626058996479477,-0.07817401115845249,-0.07975314417283011,0.09716099079291718,-0.10360611595443553,-0.12856819660954885],[0.18504825472679864,0.018510641576561494,-0.07058499037969294,0.022662253007673754,-0.06013006951717395,-0.16053202929917088,0.03658493219346594,-0.03420428338036467,0.03083882482162682,-0.16374688904687726,-0.024908462016577666,-0.04792339852523391,0.05657884884816262,-0.06080622077284517,-0.09101209732511209,0.0007551291440836428,-0.031061078233760513,-0.10792582128442997,0.07099668877226353,-0.024681842768822057,0.0247562284087346,0.06275436153617722,0.043294061403294296,0.17935295199540388,0.011634958747158697,0.007101021893042063,0.03597008462250045,0.0025774404616703724,0.1948047720055933,-0.09268294242511357,0.057755575748847994,0.15704376319128382,-0.04142814404169247,0.12864154631225339,0.1403793684665929,0.07272350007660457,0.07690959420703228,0.16033140885707087,0.08261076938386819,0.014004048029403457,-0.1340459505555798,-0.00014102877783245954,0.062090055666008725,0.0908581336814814,-0.06360930133409089,-0.08200918271523262,0.08977516143546573,-0.0051737211649897745,-0.004974140171587652,0.1166139855941586],[0.05732090307393267,0.08056057919016964,0.01715239015093975,-0.07586199402248742,-0.08382048028282878,0.13437173581248443,0.05296234080915142,0.02479861020852276,-0.06774235053842279,0.011725869008758577,0.04253255243059377,0.07429998466517906,-0.12962649680372346,-0.02059506671213425,0.06449098870283791,-0.009948756399992719,-0.021215551804191553,-0.04081615427100216,-0.14505153361182815,-0.03747924534151092,0.02019048244246947,-0.014831074490492778,0.13291021149756552,-0.00496466439712398,0.03170024264944212,0.07002941697594285,0.031988669036085965,0.2497472462763786,0.0230426038123032,-0.17280347840407886,0.056464895785195174,-0.0896600385487116,0.016006021712198427,0.001959432467139574,-0.05471988937250187,-0.012822733987033957,0.038806348297051166,0.13301412777670282,0.008422470064304943,-0.16418250145687488,0.00789116946614788,-0.08308172384264853,0.14082898862299717,0.14885959322545084,-0.0010715657688245492,-0.07979776136400836,-0.11368734576660972,-0.0962090741419008,0.043862387845546996,-0.09129817679683297],[-0.17365952908900187,-0.18309940396025415,-0.028069286444728753,-0.1611782867185408,0.051275829584437944,0.11531510471898933,0.12726606121912595,0.034207562215340055,0.07520993882720974,-0.06977632919213392,-0.001411070410340165,0.05392902687888717,-0.1468354612915829,-0.0706552618681258,0.0075699298597046785,0.028551912578546296,0.00534804107849933,0.07543792634935154,0.04575947054022408,0.04516863002948112,-0.0432092860983953,-0.012303627676006408,-0.05500639963702389,0.015959960244486385,-0.0903841942161884,0.0037039987671189586,0.11343182847569694,-0.009936779701348111,-0.041200303230941246,-0.0645258563171,0.06591786907656917,0.024172872095630512,-0.038910271746654984,-0.017890904842198713,-0.007549476967632335,0.006672862335069643,-0.08661472404988468,0.057073357213766295,0.09953892525472217,0.08192188193365811,-0.1332364431616334,-0.028057617238725196,-0.05983337489926771,-0.1692778726438441,0.011654507945360028,0.016106728338272723,0.16954572094621514,0.046405956258079514,-0.10369734905443814,-0.07408401721161681],[-0.109759238540151,0.11222581150223959,0.06724587213251824,0.21245442556948146,-0.03905159079617533,-0.0062873592920905524,0.04768751278793583,0.10169016394794286,0.06041753559082785,-0.20145510347730639,0.06948098447221365,0.02989304018875222,-0.010419538821764811,0.14745882599130505,0.10599208743927799,-0.1005278900468649,0.06801425014129983,0.12672806343697937,0.0638953042935127,-0.0003721789677072415,-0.12046849624243405,0.06546840733888591,0.046212553682956646,-0.005273513734209168,0.06448552847905278,-0.05104295982694228,0.11270779831088974,-0.02266838603289572,0.09978051699973642,-0.07148200202780094,0.00930470365625017,-0.08366549012698277,-0.09238700162563428,0.02323896417800478,-0.05493570817744757,-0.025700238548324723,0.05499367716071623,0.03523712911443373,-0.041970925897302655,0.12187973497430765,0.0024598787197307945,0.0747343200818112,-0.0026588979745859193,-0.03210000213912611,-0.07437226154174363,0.08248047984456626,0.1435972966122995,0.012756458654081867,-0.10007265984761535,-0.04261503227123641],[0.07548166599522846,0.05202764249157293,0.18052469078547717,0.027303963383532928,-0.21223438779239223,-0.07858196006813536,0.013532531244198058,-0.10209559439575039,-0.00921230787422365,-0.16626182323911776,-0.025010205505533147,-0.07120320196484559,-0.1545892913996783,-0.1435537372859207,0.11399898269163412,0.006315756890494725,-0.07310964135146554,0.2043967854363876,-0.1298208165798646,-0.046377223025846195,-0.036267437792708114,0.06330728265180728,-0.17211327551439254,-0.08888231851922455,0.026557075364495947,-0.12155406933587157,0.04936882573672354,-0.02210028499064518,-0.012448391389767702,0.02102770154998372,0.06862282575185115,0.05369840190101145,-0.039550423207203506,0.127350081774024,-0.011550653268674396,0.04571947031081582,0.037792078137573897,-0.021605767478311083,0.046161266612266126,-0.006677870221012183,-0.10907080080168037,-0.11177338636269109,-0.0036346572818670778,0.06696184560708708,0.08890628467896174,-0.09950340484726099,0.06499345379772072,0.12652024667849193,0.008588818591464832,0.03050991502362167],[-0.08075630629255102,0.011563312569932092,0.08002895386201991,-0.1555471054537086,0.10649585856866282,-0.15895382117369838,0.07655096398753002,-0.11323970981080198,-0.07608609042159878,-0.04178611899002304,0.09006992286443166,-0.0562469739955191,0.1213333660747687,0.08028923905557557,0.10090098037249917,-0.1252325461145575,-0.21597405468849595,-0.045477143106220475,-0.00004613922350185651,0.06468083662006592,0.016151491363481485,-0.023908362328843365,-0.12166619164227228,0.053047618842112836,-0.04583321515090999,-0.043336031095246225,0.07758907952741323,0.1292491307331511,0.08365567090472845,0.14964605559921024,0.3258829127581308,0.12226277976677985,0.04339370653411312,-0.08703134988362744,0.2996114898492211,0.07261606037543444,0.1060347175307236,0.12084128867242719,0.11568819845923249,0.1095303839429795,0.09062270831387483,0.10915272416574527,-0.17892916812724274,-0.10158621553843027,-0.09503543164495928,-0.1889742383497438,0.07095117513944306,0.05924078819637102,0.1490906392582485,-0.08850062253203216],[0.02247807799507046,-0.02322830009799632,-0.013436243913079765,-0.24381787962503187,-0.05655302319134242,-0.11389342703945471,0.14648747726115996,-0.08535275523671768,-0.07556582098847506,-0.013573940267247144,-0.13022420040331834,0.10897667734331243,0.035314807533412755,0.030619314363526273,0.10565201533625934,0.014355307256284047,0.043015452415376326,0.06405193637498824,-0.11513388630593,0.02299843191720089,-0.10319199176372476,0.03038579302024383,0.14434187913410995,-0.017247751046694706,-0.06331070309819509,-0.005004376446613789,-0.11330096662400924,0.00248691260397264,0.01838275214540512,0.0391688228570545,-0.0014757372064885081,0.06018702720781926,-0.05138783069782898,0.04833254937154062,-0.07110825587626166,-0.07872560775621493,-0.054219067913533675,-0.04652870826582359,-0.15656778564987084,0.1887210481865924,0.0318575996961089,0.07695370026706344,0.014121093489502986,-0.024187034252440967,-0.1434071613975123,0.11465316092432778,0.09594413558937728,-0.05190423788492445,-0.14939787365056717,-0.02375701862661407],[-0.10375260289724064,-0.08267088947170878,0.009878369832288049,-0.18606741688743614,-0.07631236231223566,-0.014507914462219572,0.025910221457884866,-0.0450450777336888,-0.0020463747093388204,0.12614552170531804,0.1600193165894293,0.007201363076193387,0.00842326992831174,0.1573134171946785,-0.09045380887812496,0.17840107283820042,-0.054706045500295494,-0.1044771354146203,0.04791364563117802,-0.07418632193472835,-0.10226726359327537,0.15678353811056148,0.15057617268406615,-0.004831581928901334,0.025522646385209413,-0.04857087028027024,0.14399966706739603,-0.023217009419467298,-0.14116064805489725,-0.0474706663452772,0.1982964577479384,-0.0005734800342704384,0.05585905117933816,0.10612633374315275,-0.04545877002308385,-0.13774819514555217,-0.06980063134177701,-0.016475151939469038,-0.08175816218627213,0.020623027930443977,0.17784520755620076,-0.08821971404139031,0.13768665987422912,-0.04503895950554374,0.005078460198384328,-0.03118596285303213,-0.011568815752321542,0.0004348112422726813,0.029117354110145866,0.04550592934750913],[-0.07415040882729285,0.05804048287561161,0.01646816027676421,-0.0790727374407784,0.10075324391001889,-0.022229276651434135,-0.03547395396215432,0.08615283587801521,0.06737385431372893,-0.10450940721590202,0.027148424529918454,0.09037712547422576,0.19112206641132176,-0.11738651015948584,-0.13408624795098426,0.23080907893557964,-0.052745512059256774,0.1718321572161327,-0.02848835974612181,-0.04272547439926555,0.047789685388548296,0.0639288395603892,-0.00478128640642039,-0.01899675542050556,-0.004789113976338764,0.00019746528119130718,-0.16871085521336096,-0.10181303652323231,0.11666681525934147,0.13011565791781723,-0.055435804721011256,0.014762386524484077,0.061082789534510455,-0.12461998633937868,-0.05851970291284925,0.0686414399986546,-0.05335951703939344,0.09438707255862758,-0.016129397323395828,0.12192538970938036,0.049538680084883505,-0.1485436749079237,-0.1120996903167955,-0.05772868468728698,-0.08122390610161363,-0.21020581152212744,-0.03533439965540477,-0.17008785973073937,-0.08938568645530745,0.08479606263997994],[-0.1048686596887781,-0.2501251920647978,-0.0850617065991243,-0.07932618580359617,-0.14509156986725713,0.10978507533026999,0.028607040981132238,0.1674725816440081,-0.04442615323770721,-0.09997348270640068,-0.3978418062272036,0.2152376514778137,0.15648947460533302,0.03084731899019966,0.1156972672601978,0.07212411774054898,0.08514270372954406,0.046560659751320524,-0.06590330182534333,-0.2327070190741368,0.025210072220248108,-0.13970317746225414,0.091925067421662,0.04024001045616085,0.05281791108038858,-0.03175900485186016,-0.05767331751586408,0.028189490040548663,0.05451784548639699,-0.04802487267883558,0.07476365767612235,0.027553822247688764,0.08120636423734105,0.05609856588212665,0.07495917440467495,-0.1533332347084679,-0.1802311058073622,-0.08269686141061555,-0.03374548522770315,-0.058228468135924805,-0.18258677549049068,0.05034996234681905,0.1384316159047723,0.12501770350813154,0.06590730578988166,0.07782315728517801,-0.0698380878458847,-0.11021978016256662,0.10098320503736313,-0.04322601682515218],[-0.008981692310994936,-0.02032221632444583,0.01837587796299498,0.0935506954724683,-0.0684343782750869,-0.022407840560269253,0.1874216261413318,-0.19172247631691564,-0.12866312393179746,0.03161670511970491,0.06406181879486988,0.05003027478728927,0.004272249103378459,-0.0887543931620926,0.10966497218466176,-0.011744084139115957,0.05107768547395858,0.11229224922510213,-0.06331897036346476,-0.18927919484779882,-0.11265214712344875,-0.037757790807054,-0.11214264979475318,0.08572420487353191,-0.1537862156440983,0.057809308231316546,0.05894479158409347,-0.03602295783895926,-0.06875719747502589,-0.1442349116048602,0.12377960215649605,0.016292388179804933,-0.03739019911474648,-0.012484146218244323,0.07529370145392293,0.06002146499283847,0.01869788007307447,-0.056023530220743856,0.06101458830471031,-0.00752090412044909,-0.04236608431862173,0.021144049453056327,0.14578405106319114,0.09679185499995031,0.06137472971552111,0.08543060818806508,-0.009599773923786518,-0.07525396166972326,-0.04721178682143238,0.03642938303705906],[-0.04064581366161552,0.008470510641904676,-0.09673414902410984,-0.13194275436412173,0.1968981106286894,0.030224059723188205,-0.0663113241922999,-0.0039030059984785127,0.12352457600348521,-0.09123330336153741,-0.031199197061807182,0.008965432856846086,-0.04684037254555632,0.21812154646738377,0.19135956965668469,0.16147434749115047,0.08329870628487765,-0.04040931167122132,-0.12280220545839425,0.04604181481098013,0.0649889779862651,-0.04001117218637939,0.030810959821512947,0.12945099257585999,0.01703784066947544,-0.11503143668914043,0.0465881413655626,0.17816029995924326,-0.11850870222373894,-0.1866071583743825,-0.20819616440097719,-0.07681180508130497,0.06943995683761207,-0.004137586089892925,-0.038713244002146346,0.05651647379991746,0.09586514561091622,0.059658913713137696,-0.001987107300970483,0.055888449044236184,0.10309698991542812,-0.07052643461644686,-0.059612870878887635,-0.03960316528897613,-0.024710266405695912,0.13307417166368682,0.13673163243427527,-0.07000891899731651,-0.16224528177493147,0.19075646944273722],[-0.009506972220531016,0.06127247339257598,-0.06848021052579502,0.11675679088198297,-0.001992830545707723,-0.043619324806323856,0.07229142088362486,-0.04949971849073988,0.07545834505512693,-0.10529676990238727,0.14611044177540922,-0.16568786832764362,0.15270291946011555,0.06432328887712106,0.07953914340175455,0.11715829133678735,-0.01770112554979955,-0.09714953238792093,-0.10358317287229056,0.0028956014780361504,-0.17697121232902663,0.04040698869508785,0.03292903566714475,-0.07666709032406381,0.11899059419545889,0.020226734191243007,0.016019244014796295,0.04068767199650564,-0.12704706655982467,-0.11646156119419199,0.11363079363219644,0.2034423901671158,0.04573889799745172,0.0027642692217390782,0.13150433549270077,0.002432536583371475,0.0564370466999065,0.024000116427558744,-0.008202332174975697,-0.08220202079271774,-0.04844188747341964,0.11294258869334849,-0.02457841775279964,-0.015572190645723495,0.0009576967912564016,0.04942734382559164,-0.005125362863832668,-0.04349772648815635,-0.01307886522051773,-0.0016521458417783907],[0.014395569787613027,0.22865829207145424,-0.025403280485258632,0.009974140406660576,-0.06424145746618509,-0.11999966361503066,0.039140684255357626,0.048870539999072836,-0.01711079838371298,0.01365043255320331,-0.09470544669106917,0.029112199120014053,0.0366730120146773,-0.11009951652231527,-0.1059106125801248,-0.03546066419723855,-0.16396484018636215,0.042079597233183205,0.10633460529435612,0.1272239036298269,0.07919986976774379,0.025057512825395638,-0.04627444220358581,0.03994732637401231,-0.036390427656035625,-0.04750158814590455,0.04138185934738892,0.1267417252241781,0.120264748351314,-0.0117553962227969,0.07463993959394741,0.0794645358368811,-0.13812701642078493,-0.03258125933935246,0.02950773116650589,0.1189627113686609,0.030348839488060247,-0.05763356378535291,0.14092655772517307,0.06996124455714542,0.08243467461146571,-0.14559105975848477,-0.02441514662158905,0.04619526907962336,-0.19650781229865275,0.11703561916076356,-0.09040068602516457,0.04448621366047956,-0.006487784379640114,-0.14223564502993746],[-0.14651867968474036,-0.010763070873453788,-0.11892211398902837,0.027220567335260876,-0.18027258469247218,0.10293395238013894,-0.04954859904564477,-0.14353936918517549,0.14636249118758504,-0.050048448627256915,-0.030589026937746934,-0.015624282738596729,0.07634073619557621,0.05233519756995385,-0.10811041955050017,0.19862878917795163,0.08702578759982989,0.03732186392296684,0.06141954098113514,0.0547194759313574,0.06900009928350498,-0.13121805998495217,0.024804453738388476,-0.08812817876259932,0.06031586341008911,-0.251898667722854,0.14044524628064095,0.013178550264373142,0.07257574165964102,-0.12120728250839566,0.07433716343966895,-0.025865274187879594,0.00020268827545567164,0.0838657997344715,0.018238519424285535,-0.09858381107538268,-0.08126652942012608,-0.0614757823099821,-0.044224427928868444,-0.15516459099453186,0.024069985550171147,-0.1401785387140052,-0.12576730333279937,0.12925916414372982,0.02045204156028176,0.03760800133488623,-0.09755415658946044,-0.21785514428563463,0.15548764409246416,0.07777661873371422],[0.03425753653215211,-0.16874095634423594,0.04968141373424768,0.031445697521216856,-0.06990105737114412,-0.1387049495938533,-0.06838552421955207,-0.07305397956623756,-0.20138228360322283,0.07823791580884011,0.047321209676777116,-0.031694788749673256,-0.21726901248772057,0.23985122828364883,0.06985843542675423,-0.03801099019097471,0.09248129737050374,-0.228047416180268,-0.007948515058366381,0.09958435816934819,0.013065851476038268,0.13508147956143982,0.0016784332562845075,-0.06805413943940886,0.07691655418222623,0.039687831097375614,0.13401036247858628,0.10602967403043848,0.14555312479456592,-0.053293200682043074,-0.10786711025103402,-0.009834086968695956,-0.05709992726963936,0.04066998476339943,0.04552384178630643,-0.042257819825469736,-0.010945171471037369,0.0883706670772094,-0.033142034467327455,0.09057167336003019,-0.10430746122117948,-0.10084940968524163,0.0034989578134942655,-0.03961412971107511,0.0021200048229700237,0.09350391618572794,-0.0753898819950182,-0.01765421059810328,-0.03205002058369738,-0.0058585721938836585],[-0.05639598594678359,-0.04252782003843179,-0.02742423646296205,-0.1265410089173825,-0.049781279511067866,-0.1323586284956956,0.01165330275425356,-0.11633860620035427,-0.0728053608382607,0.021335806021160128,-0.138849898103395,-0.07225836142416407,-0.10841734010954135,-0.015979938579438965,-0.1168225175257035,-0.10349720688042258,0.09087196841820813,0.037654846785175035,0.006052837288472009,-0.1211375663287286,-0.05573679948329733,0.11794950468716751,0.0006975329039838659,-0.007356453995807744,0.024701081724436157,-0.06762910100747946,-0.04985982473847776,-0.04460507525166463,0.06378827544707227,-0.005343565229494657,0.08059313124302042,-0.044014861605632165,-0.08201097091549411,-0.035667787349823676,0.022587353948991425,0.03955213634593323,-0.1720477490973035,-0.07747566006103232,0.06063942968441163,0.039150290806836435,-0.09434635442016269,0.007336399545517368,0.1228863659797476,-0.0058308927154737955,-0.04252642034577313,0.102910593635849,0.0760714331644293,0.04456954796365086,0.012472982876481594,-0.0012829432492541329],[0.04971920324037006,-0.08888432477014044,0.0360931024595922,-0.04378123794726974,-0.1204450878477685,-0.00783741921917909,-0.0328946090586241,-0.007248972277587137,0.12836598693239099,0.000582522154584774,0.046046414606475336,-0.12930942359531103,0.14887017601763572,-0.1309886526186599,-0.18089874704205383,0.0040252185352921445,0.04191259694913993,-0.11579320111627422,0.08100416970640263,0.0392913298488584,-0.02686180401827811,0.05868183311356094,0.005958348870143168,-0.009503104320989157,0.25273084213305985,-0.08618751193966162,0.0692119284287961,-0.03652238690514291,-0.11027107402067839,0.05091009351967708,-0.011989218309849267,-0.09020936240190733,0.029174236755520618,-0.15779247322780698,0.14477193518365852,-0.040320184911506185,0.06864863999945521,-0.2052603580103839,0.05022351791480633,-0.06426182624403232,0.07087111639809214,-0.09635198522152078,0.01631115975610878,0.026468080233275466,-0.14294917133495882,0.0025920126135142788,-0.12601771121356575,0.12264964565620046,0.08988531978512401,0.06210688784946501],[-0.02802699439266444,0.0543855028138923,-0.011458592747363501,-0.0036257044655672588,-0.013400250544746053,0.06541420289710326,0.04658421408965499,-0.03797229057604894,-0.08306750041891103,-0.18165208100169938,-0.031426892003592485,-0.0017217279766605777,-0.00862957480901547,-0.05074995904892717,0.1303206280727793,-0.030202536995080104,0.05807322990608905,0.07914197816532838,0.014595641926451172,0.006012204763623697,0.0007031478134678013,0.19871155527668208,-0.18047658864227362,-0.12570338103801895,-0.08703547811594697,0.07829594589050451,-0.19826458359863436,-0.13053497685163798,-0.08810490478447892,-0.08489093946536412,0.07448672375371751,-0.05470407973725219,-0.01943525925891998,-0.0164373675959914,0.020489765079687458,-0.1202763397604514,0.11403928274533952,0.052547440087492236,0.12588080014255087,0.06313310058609538,0.109026928080139,0.05036320874965966,-0.031049538263620773,-0.08569677479297594,0.04968380566062376,0.13355060417948042,0.03816056075082999,-0.01720912458820073,0.06417877201083144,-0.01618648567853551],[-0.05346864472466223,0.05253717039244707,-0.0736444611197588,0.092635717360935,0.03879870457490512,-0.14132174846742346,0.032251769339727815,0.05513274385154261,0.042834035331179035,0.0896310343100279,0.00568910263176616,-0.10242512594669861,-0.0412408550766838,-0.09795719530867661,0.05934632601869488,-0.09263595437005392,-0.03141866518918551,-0.0211085178402994,-0.16291111584187581,0.09588733432744327,-0.04306482321526058,0.1290557212013534,0.0465498026087633,-0.11635011948714973,-0.017241181898810062,-0.07510583469013563,0.04426950033845925,-0.09676929451019255,-0.19244377586918993,-0.11095771601956785,-0.03999124529458022,-0.08370111227795762,0.14173030151489538,0.03349424811455314,0.026373053235959357,0.030084513280147725,-0.20464728710252067,-0.00786926060235003,-0.09254491262688903,0.01513527251473925,-0.14013179071061566,-0.06077105951089056,0.08733301707849625,-0.0584088710195872,0.010392206972791352,-0.008227051286927786,0.049139186240100684,0.06691397118927778,-0.11055351211297898,0.056519227770802684],[-0.06250592808973489,-0.02549761028135479,0.0655202854541617,0.11073482031927183,0.17366705324720605,-0.02900634341834645,0.058703888336885335,-0.04189165829635533,-0.12890968899587604,0.00027426337523395183,-0.09685058359185264,-0.007053120489968204,-0.037336942508856656,-0.09282451341580941,0.0010278360888073892,-0.10627498522696871,0.132349320399718,0.06262897429136492,-0.12079645711035523,0.1093684368271135,0.023286816668081245,0.02794226112130206,0.05376500327356626,0.11119767802297313,0.03384851917420996,0.10141369692173245,0.04292158127861857,0.006465315557880748,-0.02272372848767001,-0.060059885147516916,0.06581606692796044,0.06226160357934256,0.027615518310680928,-0.12529601689915915,0.14243571004776986,0.2885431728450966,-0.07152634887177768,-0.10068237835746402,0.04722131351784894,0.025638736963592965,-0.09828291208606885,0.05855230594974137,-0.011362682645992796,0.033143359987083655,-0.09698802022548172,-0.10700540263685926,-0.028552586645408037,-0.15271587808113732,0.026551556503924274,0.006257531763101315],[-0.10835238072775726,-0.010291157229464387,0.02966029200679925,0.029753447980948776,0.015799969902837177,-0.01836919420979402,-0.073950058402642,-0.011715971814001054,0.1354086483924183,0.0894411111407046,-0.0008894316331891604,-0.21700383524787625,-0.052882929111855895,0.06990217139664345,0.09197612369527337,0.10027636828296546,0.041959581833725605,-0.12429729383814155,-0.019003079603009232,-0.037621961675503704,-0.1253059774759957,0.04090071725106185,0.10541512779963164,0.04648851908666705,0.017584822340621753,-0.1108578435646555,-0.195765273836224,-0.0880431755285436,-0.15595405891826222,0.10702744285890753,0.025108982247909965,0.08884824609690949,0.004074980416017414,0.011031088711423637,0.066956546378178,-0.020687152421879622,0.06014069713136601,-0.022474503583054174,0.1427614311676356,-0.07227425419880112,-0.12374381347952637,-0.01660419268606586,0.13337923895618206,-0.20053425291051993,0.008002021570561457,-0.019517648656418023,0.060211464426042,-0.08768314448734846,0.0018975880147905355,0.06919760526556266],[-0.0012432568328570141,0.10859702225667503,0.002631476013396729,0.03408683776668405,0.2172124566272387,-0.03360753379821088,-0.11209983239797372,-0.04287270631697006,-0.0939645835281947,-0.11767095950418782,0.044835728611856696,0.04236053201981755,0.029339752269795037,0.21599142317899045,-0.022824334484813177,-0.016043050542771886,0.06490487160000276,-0.06635402437803868,0.02175450709635964,0.1256212089581106,0.02249134977392507,0.017841474048142833,-0.030591794845639245,0.060409633058785536,-0.020897829304241125,0.061155724229188316,-0.105036023772594,-0.18098270365411276,-0.007647493590432486,-0.10250496286642921,-0.13100928918820234,0.12803047109065344,-0.03604271306117176,0.14836876849001285,-0.007490004694531947,-0.12577361813405738,0.01943580595910501,-0.05400350184336664,-0.04061395706105893,0.005029017210334287,-0.0779358227596315,-0.14111959858020723,-0.06672800450946266,0.03625118251533133,0.013719975761666177,0.11436489241661718,-0.11583575780651605,0.0588019452228279,0.08265390529837668,-0.05441039942723884],[-0.10174482033899986,-0.11449309156240682,0.0268184754165722,0.10665929714693698,-0.12146367885794182,-0.10367786091076728,-0.02745418680326024,0.1732939032805291,-0.0400976304496146,-0.03253652246042609,-0.009499013089611246,-0.009029211928808966,-0.24326593551590417,0.01783457381999525,0.1021642182464292,-0.05126487384658864,-0.014618696192424046,-0.20002625324734816,0.09483932629202299,-0.0334617550814495,0.009027593398924758,0.14651295455286337,0.1497980793827758,-0.04642840194372752,-0.03384351027787008,0.08930994712554438,0.09368376268912235,-0.06895677903897578,-0.08555909166682385,-0.012379812937158811,-0.15745534172199838,0.06634846829600574,-0.057225050265384214,-0.07337588358362901,-0.017282012842918193,-0.09301120454148976,-0.06463790023765364,-0.0692593860215408,0.09823644359951691,0.021528068391727558,-0.10106322052199092,-0.07773613465583251,0.0473022808301592,0.06498786874964466,0.04430311328864312,0.02882475512119797,0.05093443075519401,-0.07906654465113093,-0.07475509307475542,-0.07981409736413946],[0.002298833878759503,0.01769767156287761,-0.07119078461267594,-0.10107340308916211,-0.14305963951974288,0.0083634821964509,-0.09390086449876715,0.02676688288142568,-0.10102175783418592,-0.31200820206659863,0.12411261262916645,-0.0898463028125212,-0.07013493627600914,-0.04890409731170464,0.23306711618414025,-0.0049174550755208615,-0.1694017635253022,-0.06421087726952668,0.07070799709239786,0.08046781232244873,-0.09533417607318803,0.05297921826759437,-0.06886968740535851,-0.0069537888433075686,0.013416535500779453,0.0735297972735163,0.16580767245745065,0.1974671350198603,0.06317329290987223,-0.04749374554154223,0.003226804657828739,-0.1302064656635991,-0.1642181709153355,0.14047072270734268,-0.14251622344862402,0.11897854465647265,-0.07394703331750897,0.13497635449627743,-0.06410633021786341,0.0025960329485963463,0.10742808491042664,-0.029109012507713236,-0.048574772083189596,-0.05353832318751409,0.06973480816050845,0.13226059615695687,-0.054103197300780295,-0.0013511235077837136,-0.004077300263117625,0.10591837550641883],[-0.16084078038080046,0.04300873052293262,0.058892927177845,-0.07711513204640422,-0.05347930045625922,-0.07281252742175538,-0.0045377811240962275,0.06169974477887468,0.037898574997352705,-0.020649984075623448,0.14161543291539852,0.0002285948210919743,0.023045169194538282,-0.04371196418004583,0.02652677735902044,-0.06655301357531124,0.2174609369065667,0.04538546379804953,0.021817261821988294,0.029688855793986505,-0.029052385229783085,0.051107572263995274,0.021048119031747692,-0.04375680962237385,0.07674513166636093,-0.04386399398358089,0.07933524035239069,-0.06286940476191558,0.14523637593664696,0.06589721899940308,0.11896477605287334,0.0023829952645585285,0.10358589971677734,0.10373669249172579,-0.04277849302794959,0.005193725220998761,0.1419577890795288,0.021884001301388956,0.010140878361383061,0.012896587960718336,-0.017847028028618546,0.023623732268057487,0.04795172251893294,0.05183265031542257,-0.03632006580323548,-0.09818265109065609,-0.07857092643519928,-0.07314131654312875,0.0511099264401144,-0.10815410723778689],[0.1786328805670267,0.02472852476414332,-0.04726909257365435,0.1471744831450094,0.17118646274322422,0.11993790990206638,0.06955671087057935,0.04059399634780972,0.11577725596386901,-0.147600437014145,0.0335916689215973,0.08921921782543993,0.011837395160011144,-0.06865314196637423,0.03015772713538692,0.09718567062388225,0.05048160391349948,0.04088091567140247,-0.12847605642502447,-0.0791527227403305,-0.0025390527831431822,-0.1343428287639796,0.027710921900025588,0.0253234370856997,-0.08704245863478341,0.11525472745434909,0.06810492659344428,0.09930141301140935,-0.08793110084178732,-0.08965632600675666,-0.011058844242248643,-0.08101587912453484,0.01269965509197107,0.17426336382062424,0.02210208699215266,-0.06311168625882937,0.11577483044292985,0.2751959226596118,0.07314887529328562,0.11295750835947516,-0.0987090792748653,0.005963663470112462,-0.026250281977300317,0.052742278902294056,0.05792015730505454,-0.0029286015184999876,0.09157173436847696,0.06088291991723548,0.06014619742762556,0.08267953360147631],[0.08002958820325443,0.1912037202422406,-0.1201383768086678,0.054602230746973256,0.10573347750504533,0.1282814340473732,-0.10536030361123447,-0.21887091880317594,0.05732066347287944,-0.055474718236137144,0.022098476558646565,0.010648874603382421,0.06463090856469383,0.07499145520397876,0.08563570090853967,-0.08569601573619216,-0.07433207553159481,0.06187194923316139,0.07442114256726516,-0.12773894761038923,0.02469929142432639,-0.012844079838288142,0.11320965628774898,0.02323350681080861,0.12306778803820344,-0.09011932868349397,0.02232609107916047,0.04811677534463079,-0.14263008362204446,-0.1652633522624374,0.06855905515137017,0.01744505531552549,0.10510102090983926,0.10410498000988996,0.05336189704484795,0.12709949859948608,0.042969955906008835,0.1301737823480899,-0.03562177686938118,-0.02176623647551319,-0.0035206195600830173,0.0632097220128883,0.054708651690888455,0.041251746838402034,0.21208453562687452,0.12015114181554368,0.09439214131663545,-0.0447790140793441,0.07365115120646522,0.16037772910852133],[-0.32260530628485784,-0.15041540611654935,-0.11281004126444971,0.0469861597831199,-0.07059128188686084,-0.21636972308603872,0.030914531711074805,0.03514534868334928,-0.03169084012296527,0.037880340706773666,-0.03919431608935481,0.03801313275315767,0.014417807466617492,-0.05514056605427109,-0.12575204415007235,-0.022576082719514143,0.08571744846591035,0.14826059274722458,0.024905002533874877,0.1764743349689695,-0.12353553778257349,0.06756666473251814,-0.04933331899718728,-0.011345465986507253,-0.048434209136660716,-0.1262954496275456,-0.001598191241804367,-0.1773945223463057,0.2106147071582256,-0.07976831401846635,0.11388167529745236,-0.07435795888702251,0.06739847471630503,-0.17108954349343558,-0.05804026985852589,-0.026051435274529054,0.11567263992716176,-0.10208694935908663,-0.09443555603205028,-0.060002843846976274,-0.13567011794348374,0.032732315818197535,-0.045899294113752,0.02754714889473954,0.051548188506479006,-0.030615870051526516,0.010972823751317296,-0.11426442186624056,-0.16759899902948824,-0.032125135514730535],[0.04588286735525271,0.12675007510818861,0.005516254535698816,-0.08587398065103402,0.01920238297952912,-0.04832235538906063,0.02214787134706242,0.07631619152609063,-0.12994856093011184,0.10500644246548121,-0.16040674303139846,0.02725010559789701,-0.08185968590964332,-0.11192745636255452,-0.08714146665852943,0.018678432124970668,-0.030665090587191673,0.025842567964430484,-0.09847963012782673,-0.07828570485269537,0.06536953741183654,0.058167009200405524,-0.20878021745061695,0.1856490781215637,0.003394540497158748,-0.14623379725597516,0.05362574782318188,-0.05544356908160833,-0.03482275828003241,0.062391599587688876,0.03667126709730933,0.17711615957317697,0.05258277153120599,0.170895744889566,0.042293207135957016,0.18796330477561057,-0.0911850980347452,-0.05794567697576901,-0.006061726494377001,-0.04304585077391127,-0.05757125002731704,-0.03272952591997696,0.047465372376173424,0.09067824030551593,-0.1457503175627007,0.013446559471655718,0.05726956673726776,0.12941829532953206,-0.02644812694594048,-0.1286937292455134],[0.042500551101074625,-0.10302210538249362,0.21354678056106513,0.11171233234266989,0.10532078328479527,-0.09371308676641445,0.052337483305364405,-0.1360779754916716,0.030566665232077052,0.04735937753585852,0.027088461418990566,0.08522982780409402,0.10386843456153183,-0.031119640847290363,0.03176953425935767,0.04710076015021049,-0.008378099578834926,0.01906158197482702,0.11079466039343921,-0.01203480361791879,-0.03831903884086234,-0.0058227506271834924,0.05469908229780558,0.06729477864762537,-0.06145264304376137,-0.014321529501027441,0.0047297085794316684,-0.09251245726551377,-0.0038348757514896914,-0.17563913078597512,-0.08118421289423798,0.06603127971127296,-0.005689059192488889,0.07699694367634649,-0.05955129621777937,-0.1917922050079044,-0.060793607385604354,0.0788421184699322,-0.10737042850656417,0.17912111060936886,0.1010766095983375,-0.026811731892099927,0.09463006327932974,0.05742180329260082,0.04103460149685495,-0.07260261022529625,-0.09004977608532208,-0.06891493695727843,-0.007488001029032514,-0.030173954443704232],[0.09110652969553076,-0.03678783716548298,-0.15672125788153926,-0.007464707449348861,-0.045887274782870864,-0.0630759998116744,0.06748336103833885,-0.03304364371356395,0.12167854310423343,-0.1701649909933322,0.06044421730222511,0.07757189278892934,0.09601346465634089,-0.16196957854255556,0.03778664019359529,0.03784580351739348,0.12675879884003718,0.006255272468676597,-0.06858841728011378,0.23635832247824773,-0.06516199326784025,-0.19150569750861887,0.012593997383310886,-0.08962978600171698,-0.09815079328621924,-0.025845631392100665,-0.051721792165620374,-0.02694886918030746,0.01877682639853425,0.04152418184790879,0.021405191917438993,-0.08951300063447717,0.16674883892858766,0.08596368181882666,-0.08737585203183812,0.16603399578279182,0.03146746225312623,-0.14640769118435093,-0.042882562257840456,-0.09549504490162014,-0.03919834853924095,0.07868206232347166,-0.024286561320971834,0.11512198643027893,-0.12036627296865283,-0.021742564313874974,-0.11651610597910786,-0.01638898724246944,0.1462072221941093,0.025162364900594765],[-0.05095967150749532,-0.051937714056782436,0.025477486358292913,-0.10384028290361552,-0.17116554487942526,-0.10334664076164499,-0.08833061587655111,0.02205771198870036,0.08688686385430038,-0.01860116488962102,0.06434785359332824,-0.08213051211648,-0.10035481187147297,0.036883351345201675,-0.004248029699548405,0.04339109185990521,-0.0020501973579167727,-0.297648909736999,-0.11530192927973236,-0.11982459841769977,0.08797036627887504,0.0676588891563653,0.010758775005089392,0.18853091197217056,-0.05584592376611089,-0.11301772566938612,0.07712658563436532,-0.009944191221202617,-0.022495464216810437,0.01967637471416177,0.026556594430063255,0.07010016930022109,-0.09255092060732936,0.088559388119607,0.015430448466735108,0.12210254647197748,-0.11337135852685933,-0.004255375541538257,-0.014941366513752169,-0.17047442222441467,0.05164061440016646,0.1146668242154219,-0.10118903083440214,-0.03597904374238847,0.006459104991182567,0.09506702145890147,-0.11981496771753675,-0.02675041818007111,0.028739176845866743,0.22552591842207045],[0.030312073831472424,-0.03964533522548048,-0.23250801586201753,-0.0644269396693809,0.002678453284718385,0.03109344857559721,-0.029663067911117322,-0.010528300221681795,-0.09194198710595063,0.03955912581982905,0.18541202895195075,-0.028705993725112483,-0.003399846487226514,-0.03206288582013167,-0.014638635540607589,-0.16106708849383203,0.02349418776982492,0.02615421189666446,0.03901688232445826,0.10553025351784408,0.10891922676341201,0.06938493621329653,-0.19849248766182545,0.07278196620874694,-0.03616077871092409,-0.015099235247216972,-0.015758301299775374,-0.021849876896673233,-0.06291518052354574,-0.05757218325275277,0.0376052335119862,0.10415335882252034,-0.12903774403812202,0.011316194173500955,-0.06718894591623792,-0.06754597217576987,-0.13260357067112952,-0.12423937046317643,0.10645567621269786,0.06683734808467698,-0.10842754399942742,-0.024715366114027113,-0.1251098708217226,-0.12699270927445938,-0.08454125149409596,0.2494022013002565,-0.015409165684460553,0.011283423720919832,0.1391319478657849,0.1315871627992971],[0.02381059355986707,0.16306974129555094,0.19590067831128494,0.13571987270373234,0.09513657309621322,0.11665551856832825,0.04161631668033789,-0.08029567074065876,-0.014937665962447229,0.048155093097504306,-0.15035093728970514,0.07788431514537422,0.107150737461113,0.06336296440172046,0.04241685998938546,-0.0219155196957962,-0.1957704400792127,0.06541303108053911,0.22988015640076825,0.018316758483859486,-0.028189989308112326,0.02677359345080378,0.0561824588956676,-0.04473284104650724,0.06966358923343327,0.052763071014756316,0.011196081324230452,0.09540031965494128,-0.010883323822779824,-0.028092866306728515,-0.06574882001778394,-0.07416387828436707,0.004739333637486964,-0.034465858108177594,0.03063792847802875,-0.07212516737054997,0.10263685410772129,0.012987452947410778,-0.177011056515333,0.08655137588618864,-0.0828294527382519,0.17838033694930638,-0.0176915369409715,-0.02906188202199643,-0.029968558553557265,-0.17871864384025632,0.1996220173433559,0.009635430904332012,0.076933259003092,0.1318002754730861],[-0.10706605052128505,0.023144539205803977,0.005216831386299473,0.14996202347538043,-0.09313261830800183,-0.009650757063756753,0.21783408465632584,-0.06621484641739794,0.011288932823229434,0.18815590958802103,-0.043366525824871875,0.05192675111173672,-0.07268068314029252,0.11243410041838876,0.053553860284473294,0.061696862539356696,-0.08100285974900004,-0.15547247411693085,0.02150037912693329,-0.07722022959878914,-0.06659688621361035,-0.07127969341011614,0.08659587791312563,-0.023987850168424966,-0.10325172135435512,-0.06902120506503819,0.022359091356267683,0.009082916516071203,0.06841148679469353,0.0978934752635014,0.011561740374926386,0.05255666980566996,0.015157633213975789,-0.040304102411705296,-0.14749750400133677,0.10141276413103663,0.05640483889907934,-0.0476102514243802,0.1338839033635733,-0.04927406121128647,0.05438154782773988,0.0006644327845527591,-0.05944303853328482,0.0011298999402364514,-0.02244098036654962,0.1209977124605438,0.10995219388609351,0.021893014874926543,0.0023128824099378983,-0.10497421799233564],[0.084404991654567,-0.07813520183619194,0.024475299026799634,0.02951339991674553,0.026630562810250606,0.08372864264969174,0.02116324192068856,-0.09693870992600294,-0.18405953655798465,-0.11342382519212232,-0.0815756851630986,-0.016646814985826448,-0.049043906426333474,-0.010506146678731496,0.16026953579200473,-0.03959522473804734,-0.1310480692916795,0.03395900720692384,0.08087838322619184,-0.17191523537858952,0.012406572193962732,-0.014552900120044794,-0.0797217713090973,0.16030887080875372,-0.084433630399334,-0.06593412734796475,0.11652258188273962,-0.019825067234028305,0.18263197565659287,0.04921796775680419,0.011363409881811119,-0.08634044728921522,-0.0541268969624713,-0.0827482406009974,0.060528364809672885,-0.00960331216163966,-0.06763086423667973,0.051130600476308734,0.3291132792088215,0.22593240423814692,-0.012711623539012874,0.07246536511005132,-0.09965989195633607,0.1291870731838496,-0.05549604283641179,0.07549241076601186,0.05629807991430117,-0.09333702263607023,-0.04460783723439601,-0.03749481762185172],[-0.003859736462689471,-0.028327753860309078,0.00667512876544861,-0.0005807656132672881,0.13931827285682646,-0.029713035445276224,-0.11066756535293648,0.026597919425442554,0.29192004075976147,0.1790034035824617,0.012159729316673796,-0.07456378271546216,0.147247142928121,-0.2838149785303763,-0.12983684950066382,0.12421038628981593,0.08993662956532267,-0.08366296087439448,-0.11413595093689778,0.14939749175699452,-0.08424139886619321,-0.0320310789928384,-0.17607430043939856,0.014108410622742262,-0.11642713317747108,-0.11027771148016907,-0.09574846971693114,0.1543335594098771,-0.12535894893436839,0.10579919461963541,0.013596935890013845,-0.09739280183657001,0.03730285187969433,0.012029417110399378,-0.14249099008925678,0.023456698885118414,-0.06313275318642816,-0.09231482417832727,-0.005219661669004099,0.05983591083548473,0.16888972218529782,0.042955906477877434,-0.16886775491516837,0.0880064819543904,-0.02318001054006464,-0.010089958269358962,-0.017998139386544598,0.017661322343925374,0.003624613499525614,-0.10193617440441118],[-0.11565105331616118,-0.02413896089531292,0.0868589437312987,0.07152007468289494,0.08604965894742518,0.11430810969186157,0.06032799934877491,0.08989096071254672,-0.0037903137724401917,-0.07250564416620421,-0.0625562363549278,0.10053410983533607,-0.0175434949670577,0.03055102728461546,-0.05631602080888189,-0.133332475359618,-0.012526513982296955,0.022806817070073825,-0.08567872422446808,-0.1238312338001724,-0.052190589963286106,0.02272362698651455,0.08382565546279662,0.04651333033273554,-0.08795371702289584,-0.12747661396773616,0.2322813706963435,-0.1327793153980264,0.05765332378964386,0.09482107355564975,-0.03200973850981442,0.07990723886956569,0.08722474200804724,-0.19842243344687768,-0.05153745863866889,-0.009745531680223109,0.11598439469196986,0.07688316917593555,0.07544450957618734,-0.01672430857249979,-0.05411204218625171,-0.1431003374512373,0.04096374477767912,-0.021610738049577284,0.025979162338323564,-0.09118637607845223,-0.010398479651858802,-0.17637012690178597,0.024455814594560976,0.1508840401563507],[0.012364969228551709,-0.10912629828476146,0.02648553150083895,-0.08653846945320182,0.07200238850088293,-0.029552389397516192,-0.03134907218987993,0.026674452482287732,-0.11563135843698497,0.019170425782016255,0.05147359840610147,-0.02691125016806744,0.07930579578558988,0.015991215968084747,-0.012959954256455204,0.035659582155783326,0.04850016313071023,-0.1361364566386837,-0.01348536970832805,-0.01371522875633632,0.1970058037016144,0.0037707634816501606,0.07116828678428538,-0.03781252536008769,0.14914719908775273,0.04351424456797937,-0.002018199410701425,0.06525844240692395,-0.04403886785514769,0.06733595784677304,0.10071229853789955,-0.0023244679519889705,0.16838870274306694,-0.06439275544441445,0.020610447148507467,0.058896916633443507,0.008832197148812296,0.01738414125535369,0.05881638242815693,-0.07459299374944356,-0.06310143691064635,0.10695578921329872,0.04606048086854893,-0.042531810850931634,-0.03280371659922796,0.006768707104383086,0.09589759601476644,-0.06906271568509305,-0.08106713832189395,0.0011095344309671375],[-0.16715366650263155,0.06697599186327291,0.17504961406750985,-0.07723503320836683,-0.11971841601214717,-0.14796390387000952,0.06371383645853665,-0.04014514778118925,0.05990290144061816,0.23812695864490566,-0.2953692342293615,0.0542931435084016,-0.04064693882049332,0.14043300545581144,-0.22786814047640472,0.07926627521676297,0.04903384429337364,0.05933368987751231,-0.026726881570932663,-0.006778731699043677,-0.019763316528260737,-0.15680631025867092,0.07237015840569445,0.12444444797764942,-0.06024629022456388,-0.1047962027891134,0.0521275395695671,0.12839755380781034,-0.008795460597224504,0.018087659016992698,-0.06543864654067429,0.10944845035162011,-0.024954399661290302,-0.049764893091180804,-0.09609649269531839,-0.164338966923096,-0.12607787563748818,-0.1892401709362191,0.036076547891395035,-0.19024421217302448,-0.0590045233453416,0.008818614183424115,-0.04211738532656273,0.033789350720856454,-0.07140091531212502,0.02707985835346463,0.03532946265493485,-0.02681035559388071,0.007502098306200052,-0.07733520768973723],[-0.08134321480422518,-0.028003244277007573,0.0565070997593471,-0.033599435340529504,-0.008355929561999261,0.028772755398432263,0.010730348298449464,0.09053709053895806,0.004161697049597249,-0.009703901278509924,-0.08586407229176035,-0.03064913037517472,-0.001748222249791603,-0.17907829304222717,-0.07259868922845128,0.006331629676285318,0.08632364885938046,-0.05396153866597207,-0.17412525042535465,0.03815919458799703,-0.03267854018432836,0.08233422121635721,0.038614226678931135,0.08117280620786126,0.11770447307343795,0.08408181552793431,0.14318313232491955,0.0645496229445827,-0.052939991277365483,0.08488350213884614,-0.02445616125138865,0.029350740409886403,0.023198199286739715,-0.04713598421577951,0.034109165371889336,0.016766859186543068,-0.009060286826589766,-0.1204228980178332,-0.17453801789150383,-0.06751406160923701,0.01676733000173095,0.1604541355097129,0.021969959066276912,0.19240860908524735,-0.19915685268222655,0.11532871873260699,-0.02420635614175801,-0.23118506979355113,0.008136862951417544,0.10830537951418484],[0.0950567118478498,-0.0013065208821897425,0.010474912972006853,0.07383688151114942,0.1757703812998354,-0.02183962076702142,0.07159058228116716,0.011249024898767224,0.016406675188817287,-0.08622401859654702,0.03710905352183805,-0.027942559881468716,0.02588581670259238,0.019512200917621174,0.10539018995546018,0.029468632836721506,-0.06287598355486115,0.09243666805991911,0.0988263387680133,0.0000381668750069411,-0.07563073834218645,0.030762075994868666,0.08413532787465478,0.07356923073224211,-0.1823582154325684,-0.06774166183946727,0.09036791304933753,-0.09226798171894555,-0.024990685753437512,-0.01955515336453224,-0.12550650567858748,0.10008368092221312,0.049499017911494594,-0.12737164392559017,0.10767891773151825,0.0696778810790838,-0.07953968999302845,-0.11552392871908286,-0.05984361071524444,0.05870367458132985,-0.04528638263312318,-0.020838208680599393,-0.1343677754662019,-0.04852696494465548,-0.03693076365992487,-0.005468043357275271,0.04627118677668333,-0.0681284250694515,0.02712315158099403,-0.17969667266202655],[0.09958664782587257,-0.062437836631875444,0.09186026168016936,-0.07547134823037027,0.09293573920671264,-0.1377193993730965,-0.1239828956911366,0.04967362521533593,-0.08287882895549051,0.0455441732865603,-0.07946756400503435,0.04451760636790447,-0.08813495163110216,-0.037454362540838206,0.010044886979173375,0.012457651640839403,0.012621081993298214,0.12084522055785302,0.054738488670332035,0.04975766750895326,-0.1115700332925543,-0.11137129190889258,0.044998084397631644,-0.09976139892028188,-0.02404426873282461,0.09915023861718625,-0.14371879765365903,-0.11787698384835764,0.041628217254893025,0.1254171467297587,-0.22959373434438138,-0.10880675379250887,0.17212179610376932,-0.0011705610866800317,0.03470812945454118,0.1511382123224555,-0.06456992164906597,0.012645994470427534,0.08320184249078198,0.016080135136498377,0.08720363436950529,0.09384296046176369,0.04961921404092766,0.03151980373029366,0.05940223272303579,0.03337186070205632,-0.14038941707333352,0.11522158124295447,-0.006008262888413669,0.02992165429978111],[-0.08148707457666676,-0.009354596839133538,-0.05162772355519685,0.026618007214446328,-0.07244168884589894,-0.014037136467374742,-0.09259839678832646,-0.019089503561519526,0.07160645891778122,0.12760408603310144,0.1909300279906228,0.03235283550194075,-0.21600775150086318,-0.06237369764226149,0.09662058111806841,0.030496532891609848,0.10003875210818919,-0.019753282318941287,0.05714859466068522,0.1930512803716387,-0.16099576929285025,0.03219589589317867,0.06698298394032662,-0.014686157374725926,0.06365738808771883,0.06038555457472542,0.006071163789029204,-0.048942943586267953,0.12143429472108921,0.0899015001660145,0.032777625422978414,0.09284424397679651,-0.10504323584505151,-0.0888380458206155,0.08223959422702015,-0.0785474914272119,-0.03745562078673509,0.03837615697883879,-0.14865107343253006,0.17534952395820755,0.03257120633132302,-0.05910565944900721,0.061762340127591873,0.0010788819457405972,-0.1804161001205597,0.013712860209245045,0.052712626033068796,0.051694884684876034,0.07922948303110143,-0.056934548128332325],[0.17157410164629844,0.12041712151537531,0.1507633290018152,-0.051749717431496076,-0.1178729827565425,0.046239764753573165,-0.08709291027369331,-0.12562971613043472,0.1094107065911492,0.052984411125624756,-0.0670579868808786,-0.008749654906176435,-0.17395324570463613,-0.019256139284698055,0.11004460892183604,0.037920571856181653,-0.04886998862332075,0.019531865132973416,0.060836890524968365,0.037005956946113756,-0.03810850039382663,-0.041230626910136126,-0.044804822435784195,0.05965121808538173,0.025407572259673016,-0.06700425987910558,0.06323330150164244,-0.02995690671431611,-0.018701674435493205,0.03594491894705951,-0.0022830606727551397,-0.05498054101337353,0.003958092539257982,0.010267199460081568,0.15766093702869402,0.0696564433985863,-0.11241264801921615,0.08203017716128022,0.1412176053407442,-0.1446882307573309,-0.04101457356909379,0.05863112996590823,0.1520145211830152,0.1034370943167483,0.10834748675302416,0.025031199196136382,-0.038841614513473455,-0.005042991725066226,0.18486318380537337,0.05520770814325235],[0.016165783140474448,0.07481771493811903,-0.00531156553684849,0.051177991141533485,-0.11331835831926605,-0.039015511842223016,0.09949681565954835,0.15368367170609507,0.016167072658455683,-0.07008747017483127,-0.07500563586015806,-0.1301644780437462,0.03404496568948187,-0.06719470476671355,0.11986586406508859,0.018735261027821706,-0.17562220374236043,-0.08518364109041537,-0.048046240605584586,0.07619981704070539,-0.03582042947563132,0.060983035369558306,0.09712693586167293,0.10544670026832789,0.009112920947315646,-0.07967606155481474,-0.007350297349833848,-0.031662006937640326,0.07850357875633565,-0.08720624780513347,-0.003611698084600788,0.051278437653607595,-0.07623372910339517,0.02912901858170567,0.12721671459356687,0.22995509918467985,-0.17862101854992346,-0.0012484959866879905,0.01734398098538239,0.0767751455913967,-0.1418972851997317,0.026031570639578297,-0.014559227615350043,-0.0599842471475775,0.12582535715310744,-0.1568509510213245,0.033274605780260876,-0.07755276070707862,