[{"levels":[{"inputs":[0,1,0,0,1,1,0,0,1,0,0,0,0,0,0,0,0,0,0,0,0,0,0,0,0,0,0,0,0,0,0,0,0,1,0,0,1,1,1,0,0,1,0,0,0,0,0,0],"outputs":[1,0,0,1,1,1,1,1,0,1,0,0,1,1,1,1,0,1,1,1],"biases":[-0.291551487122369,-0.3040651743568227,0.2999559920223657,-0.18078269979254502,-0.14319055471828546,0.038563928484406665,0.22489954779601695,0.023936424599036055,0.28978215175805355,0.11240874103404182,0.03472367346670584,0.09501772430349323,-0.08846967216879971,0.3927784586348211,-0.3597088906924371,-0.21013575819820773,0.4233912235361095,0.05363602486220412,-0.4492622745910618,0.41376375808126137],"weights":[[0.09967452188242465,0.13036522045603066,0.0003305101828953716,0.4697243517396108,0.2892356460221772,0.11665080833872762,-0.033920364670613434,-0.18367194576259838,-0.05041501491140038,0.2887394092918408,-0.016189958662991062,-0.044191200012704546,-0.2049898399580548,-0.3045801023852989,-0.2528236269766186,-0.15038619868142317,0.17638012884456242,0.006507069387457619,0.3906690739361497,0.1277277385611422],[0.35845178475458367,-0.05685491175681581,-0.09390594451576151,0.29830528635287845,0.018093705228604373,-0.015459549533719419,0.042339255665988756,0.2987034284978516,-0.1277320017787202,0.0635855363231344,0.30115169303537836,0.029999659879552276,0.18652983147885388,-0.05300904706085685,-0.019017758956182212,0.21249824315322074,0.11928648783097745,0.12123889740113386,0.25783828179282897,0.16150164023298358],[-0.22957109079090202,0.05158980075826719,0.03419614900328033,0.2256109723214007,0.13541406747095516,0.07798307384690069,0.044770389356222906,0.19980542738604334,-0.45165223839415947,-0.2762824191062927,0.0774618417786112,0.420644348962598,0.05462885861359712,-0.24378153672435365,-0.004584655677467131,-0.0850550102722949,-0.24911607315206505,0.10609796678248565,-0.14165784122068353,-0.21973156436417743],[0.19688497280687536,-0.14735502940637818,0.09753106221608054,-0.3345463166092298,-0.11004702419736961,0.051408964022478076,-0.062403206451842,0.13710894498894652,-0.176936898188676,-0.2755337917527164,-0.005242381125283607,0.4079635446995425,0.0798589889103706,-0.17993223826677096,0.22755821074664778,0.00840608672346252,-0.07400533971164586,0.06312520798846166,0.2882834925247365,-0.09895159836901135],[0.01463743177077148,-0.11276338450415196,-0.24837281970793137,0.366744401974458,0.18002226278977704,0.043251121305127656,0.4468358592958781,0.13687680620853632,-0.027038996402507003,0.13251173492274726,-0.2667056783931676,-0.28464066991445913,-0.15997374013211207,0.5612884373261011,0.2601539590233815,0.3564645151448899,-0.29277285294854893,-0.12838918069273098,-0.4447482100031657,0.07164449433577902],[-0.4046790399483597,-0.018556474074436002,0.15690044377697715,0.40658500185138935,0.009282300751437822,0.11234440168196612,-0.07418647583291216,0.08962811965396231,0.03311163238076256,0.26284254440084776,-0.018550986673378567,0.05179382590852741,-0.011191542565807733,0.24383634558780706,-0.1692489837027097,-0.49415946054219284,-0.5012436468573986,0.19903359645849317,0.08470416430499625,0.16173504733630362],[-0.16107642245975923,-0.13621510353833735,-0.020538158988459482,0.2652727124506686,0.11114406955920086,-0.028438925456327813,-0.29286699941678496,-0.22271678421048824,-0.21421587913513918,-0.19018901021888762,-0.23049070469405714,-0.04651620153572779,0.22174617722839854,0.11836799237068385,-0.2425340435852218,-0.2733726400322427,0.20971642385004768,-0.10613387480895414,-0.03526304660239224,-0.04268332435664839],[0.18220230413196248,0.09166770969824423,-0.1853694295265811,-0.07864152950906597,-0.28016032324615475,0.06714052432988073,0.07475971821344057,0.2824163237890068,-0.10568790980599685,0.22446460105931176,-0.3295310208181458,0.1848136879299795,0.030809692253171733,0.21595778053784678,0.13765164686528203,0.10774020513199278,-0.441313499047863,0.31733530084447503,0.2689513411227369,0.25426842397872484],[-0.07543649810635078,0.012376760840350387,-0.36171550938508473,-0.050791720812279104,-0.19562017387325192,0.1579384482237272,0.18567643543420087,-0.17390555095389784,0.07809340589394095,0.35863388270928176,-0.03008029149853017,0.39082653553554003,0.003882641427280259,0.2356319987596769,-0.3641863117911689,0.028287059971584982,-0.17611446172572703,0.3256763106647798,0.02658335029831696,0.13000182293581145],[-0.15907325432773728,0.05234910910116827,0.074650636575066,0.05279953211806523,0.05113071904392863,0.17545931548894966,-0.23888773418726889,-0.21473270457259375,0.09422923319532647,0.0691443237346519,0.16088498151735575,0.3009443762895937,-0.05846152898484555,0.06453676174140713,-0.17606969911998885,0.09565562152412026,-0.15951174788084055,-0.21689884300572582,0.28307164204094915,-0.3974166575192154],[-0.052683677596630174,-0.4415818878621539,-0.16434140118836327,0.05932008539077835,0.0029601508743494487,-0.12506142985545013,0.394622011912368,-0.03922475620772094,0.06083223699814902,-0.155776880022709,-0.37890541280118306,0.13039064963834923,0.21735852703793693,-0.08233252549345431,0.044876225639622735,0.17082234663503695,0.3880294434686068,0.165072533384684,-0.16927482143197736,-0.35365614531596334],[-0.39986692654513223,0.12882484484105988,-0.43939084250798566,0.15417443936810946,0.14354603061005272,0.4335688930933758,-0.10318303515572952,-0.045009049093985454,-0.3560161754267205,-0.057900834823040814,-0.15703128475006112,-0.434400490371171,-0.16780718969551006,-0.31010775137001534,0.40427867100410175,-0.010898578132358727,0.40083898923729355,0.012796000913137054,-0.1530919484490984,-0.24284466086753675],[-0.13104211335471538,-0.21467766146468603,-0.17160365600611477,-0.01676028142743713,0.29268663795570726,0.1165234345747111,0.3295064090364197,0.15624018522355587,0.01815557916669905,-0.04546814658719038,0.3744032933070143,0.25739081464863034,-0.08544384020183543,0.1650971752129049,-0.1315844978687267,-0.034134967613452666,0.26395688562969094,0.3614842288053405,-0.23994573282945253,0.03140096614125859],[0.2081628355415066,0.1533993817785547,0.16739835641258766,-0.11109521210629184,0.08044225672083971,0.29210955059942717,-0.022667208085181564,0.05131658602395893,0.09306631782918423,0.04637159935781282,-0.1221870745837878,0.16027662033084383,-0.02153957016747471,-0.07916889297893777,-0.14543811520920674,0.01782902154032484,0.13051605646602504,-0.02806505979892157,0.04796033570791708,-0.19544101634024416],[-0.0503881797541722,0.35650269961418357,0.3183156455251135,0.2981719232480722,0.04151560510388483,-0.24399297419411298,0.12097633062982081,-0.14758005416605074,-0.13507537312681572,0.37008319430777603,-0.25292170612194964,0.033432731826563145,-0.22274171819794197,0.26034518710470783,0.08509317841025422,0.06148351465154189,-0.0563244925272963,0.3496448731772992,0.0815146422040372,0.20785131024353726],[-0.17326675513775602,-0.42596304224840753,0.2635381659878104,0.14536514183786464,0.12927505168986306,-0.045626628204814834,0.28792024145011447,-0.3694518846247797,0.06655563383749459,0.16925454488165362,0.08274846423209486,-0.3110345907792248,0.2723051655455966,-0.08142336255264337,0.2568980698872604,0.24855640376001825,-0.3777349665736214,0.04139701469502527,-0.002579904056553589,-0.13747528909392726],[0.3130022454515337,0.24108346547348278,0.16873878974371592,0.11152727980543584,0.5397616904952033,-0.5266076331879265,-0.08759993800437373,0.27642051270417456,0.005686146908748468,0.31585739402972923,-0.10307422707019542,0.0030853469315104687,0.1338909426338551,0.12344364200089927,0.28291201439676505,0.18630006828173362,0.25960079960557364,0.09451259707861567,0.2655894142978523,-0.21054839198329772],[0.009962289166493221,0.01737079920093551,0.29973964524400515,-0.26104494567186726,0.10718396154325166,-0.04727911596794521,0.30378233679943567,-0.12376579322508328,-0.018419400833666777,0.24265879080034786,0.19333115657892072,0.14155863517890266,-0.02248137185951654,0.005686242426112792,-0.24639800085052088,0.03552991786761231,-0.14069768248840503,0.31204310956171777,-0.03411659999455076,-0.0560178505888555],[0.014523243160153798,-0.057752260137736516,-0.38565305196802785,0.0061705531833975424,-0.33562300057140876,-0.013693589507824844,-0.159996222131277,0.321692342985205,0.3159255252542074,-0.10857575698370996,-0.06782096114608616,-0.18839679601855547,0.29470536997453434,-0.23069973256763926,0.4577658337198406,0.1106427428407373,0.5066822188640884,0.0843880188482282,-0.31354401553645384,-0.08949683757083365],[0.10788216540513984,-0.1529785113820268,-0.21025837996750896,-0.12518572191017752,0.16415788550896485,0.13301350844919557,-0.03844778187267739,-0.2967045645994553,0.19343991947527542,0.268810914089098,0.13661654227360365,0.12768692451429148,-0.2047901602455605,0.10392181159551175,-0.17118265276607886,-0.27838979196506675,0.23875546378670665,-0.28559480431367223,-0.3174849470387943,-0.024970189352780725],[-0.3577165963537358,-0.3239355258503963,0.12679859214001668,0.20069810470549931,-0.17930828091933843,-0.07481740701356457,0.18599903119809016,0.05323074945235068,-0.04738616827013689,-0.11218821557840003,0.3925243217229219,0.29685330167361745,0.19477179353145013,0.004680462634935809,-0.2013226600617316,-0.07269615385141431,-0.08172486485570302,-0.03071902067186938,-0.2496113094195676,-0.42346772166413865],[-0.222449888295784,0.2990901049976685,-0.29980074852079713,-0.1239189113769604,-0.40112984697637216,0.03279996925872355,-0.0003410326848470868,-0.029263472265593393,-0.11981100109575363,-0.2734937713745329,-0.25768645188999784,0.12442759734637475,-0.1391708293938071,0.13895481868925302,-0.20011801276439684,-0.24322094615235174,-0.07319718365331995,0.10876332609713762,-0.23376236591267657,-0.25753490961728126],[0.3301928836008965,0.061745792438208214,-0.5843072213945888,0.20590034490645326,0.05512971505911035,-0.31537704451446047,0.03962303012033214,-0.2278600983959065,-0.47176841131291947,-0.07731395649619913,0.2548252271911176,0.26073752976860476,0.004436164837073986,0.0625448984060698,0.1384409077130697,-0.3360285430356573,-0.21445707031358355,-0.05349258989845748,-0.24347083440174702,-0.060268631158195585],[-0.054275493596043584,-0.18698793585871787,-0.3783177498632195,0.33411234671707246,0.08629349896210059,0.164282248074861,0.01611433014326691,0.0487410561121998,-0.05085054770229022,-0.4071238484765455,0.14808729663135278,-0.04047930602996509,0.16517504357817805,0.2210234857149201,-0.0027999295055813195,-0.3720800556368918,0.11471216239528122,0.18421472604065614,-0.010442665885143643,0.2227200216814696],[0.15366572367518347,-0.2506830787316904,-0.1360862318740553,0.17155638276983134,-0.06871465677096464,0.13957741549307853,0.018721733337629748,0.004617820755270008,-0.2432651792170477,-0.10366654866129488,-0.10036593004127353,-0.339343669405188,0.39299409120270107,-0.0573154346607215,-0.006666678603792428,0.23167669339930053,-0.06868292394559528,0.11579956203028963,-0.009875785558637773,-0.08436638190876476],[-0.22576491931959103,0.21692527326772196,0.06431318370243568,0.23334808626160292,0.2833863066913427,0.1553244309549371,0.1517320889249005,0.11826125735378434,-0.1154657031259893,0.08676742271659477,0.17777776772065507,0.22678307918711674,-0.19282935131153953,-0.02119876498046891,-0.15370885294737963,0.16065313537321946,-0.09116156933253294,0.21172596383473555,0.2808165552215702,0.02072239658210767],[-0.2887304300666559,0.04474391102621427,-0.10699680648005014,-0.33155943927568043,0.05196703819759843,-0.1909340207238761,-0.13320804155309882,-0.002888598434258538,0.05595546011911312,0.15084855615326037,0.2961026501237459,0.24176967107809783,0.26300003057364263,-0.0937967540305864,-0.04028341530718982,0.3552599767888398,0.3300424920665952,0.06027155559775246,-0.2787062700829421,-0.15089228777441197],[0.06921823843418165,0.26204577214276736,0.29513961688604595,-0.2712585956635867,0.1814187289263463,0.10366655510211342,-0.4738856558850273,-0.21567858561744563,0.30609555545046635,-0.06624394237998643,0.1802591410290659,0.17633261904033867,0.048929677941562444,0.07702056487247269,-0.3612869044548789,-0.27135982255496394,0.1883129221159101,0.3812458550290966,-0.10926691989852881,-0.00024299417497419817],[-0.13586938033207172,-0.01179941255940907,0.10302964283229193,-0.02773577310070241,-0.09045257814985572,-0.03747433735609737,-0.13142113530295418,-0.09355278945187609,-0.10197262017222078,-0.6530930549316274,0.0556070009888644,0.366673043012621,0.4799890522478106,-0.09922566821472636,-0.2664563544596641,0.07725079748550992,0.08415901824445032,-0.29648769478847997,0.24372772774413917,0.06564210957991345],[-0.07639681424922096,0.23263660277026443,-0.3454726725846732,0.04661218230746894,-0.38164191712083595,-0.06709222148996612,0.20094708247085036,-0.01818954115802568,0.24941465009985733,0.13947629815565393,0.05979530427653845,-0.00578351630785473,-0.22508629208994269,-0.03810876541634791,0.15235138006405755,0.047084163158825146,0.2963224113304338,0.21370037426170527,0.025942816786640503,0.08008481549204804],[-0.10077289273897803,0.41123007938371403,-0.13938373085022826,-0.14126294164526826,0.13689293211550907,0.08173996051665999,0.15616511051105628,0.11245074992769663,0.10760260805657379,-0.4048527804921893,0.09887245414422692,0.2871794960885542,-0.00744453181471455,0.10557020971187718,-0.2480607070175903,-0.40805121370878794,0.25047685553095056,-0.28494217963783025,-0.08217585657345436,0.40002223649119484],[-0.09774931298787472,0.13103711462116224,0.35421718870978336,0.05177314691236303,-0.050428699356843215,0.16457269569071145,-0.3586307136673155,0.2056670389757435,0.08638589840605371,-0.0032298713499057663,0.11765779556653802,0.05106045507996243,-0.00398676006791715,-0.44365596631823145,0.02396657365295629,-0.10104391983840658,-0.16249799147054153,-0.3641614897655211,-0.05124599099300816,-0.06266876360662688],[0.45000482713706025,-0.22329299248490822,-0.0977746538250009,-0.16170643680842614,-0.1587568618020458,0.007696737504423255,-0.14538520628631696,0.03149706059735091,-0.1363362408694357,-0.020163738473994934,-0.35057600161971336,-0.027116449620127228,0.055878280831288096,0.24755988138552265,-0.2563498061324293,-0.036995719013867445,-0.3335573072389319,-0.0920939989618908,0.1444024998316583,-0.0956163378253467],[0.08107040943422975,0.13181029389849425,-0.2339036715871408,0.295313984070289,0.04537482066442286,-0.05131631755344776,-0.3018285657961428,0.3262965289252643,-0.060057124385212934,-0.25197511140757317,-0.17858975289212708,-0.1816386044462408,0.1999440928877663,0.24592648923503085,-0.38039849736959475,0.13014363161309803,-0.0648967002433391,0.2530605787706685,-0.01737140487110301,0.02854487638904768],[-0.23718695708153198,-0.03231069231787676,0.05314590506913072,0.17518573507528806,0.1523752088830473,0.1009624514545374,-0.12423426778017804,-0.17324112879349296,-0.41052483157889536,-0.12846976274216304,-0.20955344137495246,-0.20213224639466698,-0.12287333407993709,0.17782784895759823,-0.08543878539878455,-0.04264883954158302,-0.037503915482762495,0.15199171049764315,0.3439443966623915,0.26302392621866066],[0.07322341978132492,-0.060347825773108446,-0.2512711577061783,-0.23308820228258056,-0.04943325964995493,0.15503753116007313,-0.11412486972379365,-0.22281836019178397,0.321287526565883,0.4070371983796308,0.1088824034693483,0.10973259770476096,-0.2752828748279231,0.19496494007613138,0.3718953798188491,0.04462451179165858,-0.5064027452199327,0.006884072778783001,-0.07297715759339551,-0.27056183118192967],[-0.16656800948362366,-0.4877813093138699,-0.22667209510132955,-0.19228970251069516,0.14847532834300461,-0.14192768156386476,0.15848182621389345,-0.12361715865284795,0.16948540679405197,-0.31927192104431373,0.029988540795738112,0.19618356927230135,0.3614051659616997,-0.31295489249595776,0.12578673448240751,0.06990798068066033,-0.08239921831578709,-0.5801560988146068,0.1508972542472008,0.24602105595033702],[-0.1942216649248969,-0.21275534959416578,0.034807701431137816,0.5561918052480579,-0.08942407930114055,-0.14224744854444857,0.249116943075394,0.0851423649269145,-0.36182434804577585,0.12643472825767818,0.1259736311770661,-0.34201495311824676,0.14171893677750808,0.02383195061816304,0.20154536357580521,0.09874533961881898,0.11841743485282424,0.08015666618181475,0.07896543476841256,0.009091994684243848],[-0.0244366854629939,-0.596911629279155,0.5118837659613086,0.4160032915040935,-0.045427544579008425,0.05571224485890111,0.29986201101164356,-0.05912080049549009,-0.16906139775974427,0.15948639732179237,0.03524892585478992,0.04204464733974658,-0.12030158481292302,-0.039903466423971114,0.20727532315787056,0.33291226838960464,0.04245792503897769,0.04952757327454936,0.32667025468449173,0.3621700265447996],[0.04751332431007056,0.24171461402223546,-0.03360982435109029,-0.3566740150986271,-0.13452244128927746,0.026167146567302763,0.2250746581651502,0.188301353272509,-0.11038894316788345,0.19258129046661474,0.4106317882722431,-0.1649982486612715,-0.16903798351131616,0.07864185403713796,-0.08380800428273472,-0.3974126457005487,-0.24519683281297622,-0.286032622782036,-0.17133190985612454,-0.4837158087964247],[0.11828016306127909,-0.08314592599462628,-0.22824380103413033,-0.08515557202064644,-0.23729104395610606,-0.05074009454600051,-0.06330073485243387,0.1613519409802097,-0.10579543617656197,0.07054259399232748,0.19010552055699598,-0.136727481228644,0.31989962141224615,0.22954458059058153,0.0245823705824178,0.07529266111463236,-0.0866268100441043,-0.14824466984128776,-0.0594304241169516,-0.3207761648590527],[0.1685445074940884,0.24982269671594626,-0.19234814260076985,0.194755436569708,0.11884325585424632,0.4213579390622282,0.4066249466789644,0.11009881013533712,0.3888654845332409,-0.15989579562010944,-0.13753112180953875,-0.06691840835320609,-0.30240755006727615,0.2066812295456072,0.14226638626677296,0.2288875793684192,-0.19204582605060644,0.3660764892591317,-0.2385140660828226,0.1660859771375255],[-0.0685952210095846,0.05973585983346541,0.19765828258142315,0.2647211349447982,-0.15802215254501,0.09442701354366043,0.12199749770790219,0.10458304570874088,0.09645605413031783,0.12676180324878356,-0.21961996383319382,-0.037943264348994976,-0.168940183089075,-0.39154328029724494,-0.23297310418383205,0.0023078305075041466,-0.19448130409347428,-0.044754353304237104,0.09969784537263668,-0.32791072516649467],[-0.4982596020978514,0.08966415526212379,-0.07878866666758844,0.05108927608838795,-0.0674338335522543,-0.0014221677919598052,0.07055952454324221,-0.3521729512960563,-0.4263397385477416,0.08400829296587217,0.20514837270555883,0.25357071960516875,-0.09396418737942662,-0.26557755709549846,-0.1412430696932147,0.07969145096851328,0.16366049389555565,-0.021236876733524812,-0.4965827196162843,-0.13447949308132306],[-0.14217754417320816,-0.213040460794254,0.2631894033518223,0.09359109005242688,0.25129898798592243,0.28650680834232745,-0.35650104456189335,-0.1527170091913106,-0.5109579659573268,0.030639215922938556,-0.04216787546797163,-0.11543194187529139,-0.13890294068636982,0.015884724605297967,-0.1148069622048606,-0.06809345431354291,-0.038655128825933666,0.22213484815974727,-0.3467525839170129,-0.22053694705904625],[0.11145096882411143,-0.02115523335662242,-0.3536320101247268,-0.08583716467735415,-0.3145386098451056,0.30529374375140855,0.016995158457686482,0.20342128738789345,-0.003907591424777701,0.05606900420807903,-0.22773921923600154,-0.19937463476089826,-0.18100762848642626,-0.03632976106110927,0.2183991297579303,0.4334972696010384,-0.3803233446036258,-0.19234520528529286,0.1790983331649566,-0.152848825550082],[-0.28057026736031115,0.1252636899127482,-0.11172643731266152,0.0705557350278116,-0.1389983114116234,-0.2854616252611569,-0.14130255643484302,0.20739959949713138,0.10373936310467236,-0.15665014258561727,0.24783723176871938,-0.10004580141255226,-0.05962385200938186,0.483496732640734,0.11110637888537878,-0.1450551682737346,-0.0522473555259305,0.24952680433367477,0.35796519698231216,-0.059069319407237086],[0.3701585065033508,-0.242046094764022,0.40192051663239103,0.3062293359691223,0.0963753111123502,-0.20668970967388645,-0.031091803794688455,-0.3233767880969571,0.011517672045214263,-0.039811583363787095,0.28174031193106147,-0.09669670931468466,0.08619095242469432,-0.042072808091359826,-0.032181772884235654,-0.02247353866395424,0.04214814304071535,0.17789408017217573,-0.11362677928610629,-0.12115959338557755]]},{"inputs":[1,0,0,1,1,1,1,1,0,1,0,0,1,1,1,1,0,1,1,1],"outputs":[1,1,1],"biases":[-0.025219972052110934,0.10403837095892303,-0.38656545095781714],"weights":[[-0.18878896715508703,0.13128457254952275,0.18628108605199784],[0.002641326802141908,0.1173921776267523,-0.07658285429731561],[-0.01088837209356086,-0.04214678853809907,0.11273270497392174],[-0.2426143233140315,-0.2612587412921946,0.28682141377886333],[0.3560966677495636,-0.31383668942768983,-0.12372336923542662],[-0.22477185621641282,0.291965447332872,0.10008313781155047],[0.030623070567523517,0.12211228820977132,-0.2408024243162005],[0.2630556545573376,0.15939665161872726,-0.18121781382462884],[0.05166673365687835,-0.038065200068927496,0.1335291258789847],[0.37912692250037444,0.1343756009127736,-0.2199604521532555],[0.1118434668686619,0.046018432670285936,0.08832290719484315],[0.313248541535321,-0.030758105869590713,-0.06666284033169273],[-0.23124974160269107,0.15830261331703477,0.041162307605288856],[0.11073069502644423,-0.08051335514094837,-0.2609223828676429],[0.32461150001786404,0.04557404448311059,0.34911412328125446],[0.23994092351904095,0.016325882434255146,-0.09802041421843108],[-0.19416049660404125,-0.19751813332626644,0.11195995611322546],[-0.14221265394683744,0.23711861024489683,0.18379219736814667],[-0.03804617102947075,0.10586601815954966,0.1428810206428373],[-0.1483524099379081,0.24640549042069304,-0.44634616156291135]]}]},0]split[{"levels":[{"inputs":[0,0,0,0,0,0,0,0,0,0,0,0,0,0,0,0,0,0,0,0,0,0,0,0,0,0,0,0,0,0,0,0,0,0,1,0,0,0,0,0,0,0,1,1,0,0,0,0,0,1,1,1,1,0,0,0,0,0,1,0,1,1,0,0,0,0,0,0,0,1,0,0,0,0,0,0,0,0,0,0,0],"outputs":[0,1,0,0,1,0,1,1,1,1,0,0,0,1,0,1,0,0,0,1,0,0,1,0,0,0,0,0,1,1,1,0,1,1,1,1,0,1,0,0],"biases":[-0.012229246782084258,0.1945928918165991,-0.18572451576333815,0.5236209156730778,0.16899851975278024,-0.31020989440181224,-0.18344527654403975,-0.3130187629898347,-0.16120945861223995,0.13264412289721622,-0.053180762540705626,-0.021496126960109274,0.3891091459924708,-0.4098615424841016,0.22033531216131058,0.16600191591621458,-0.09691709391800923,-0.10672965818598182,0.12705815570426368,0.0873609699425344,-0.07326250638312005,0.09673942160810393,-0.28008257707852147,0.3139219722329826,0.13443649676043284,0.3450726801105329,0.035344613286999796,0.4725872905745203,0.24632584070046604,0.21802389279479606,-0.29742743922992193,0.2447133728856124,-0.175397327134536,-0.2813830705361141,-0.01476808755136555,-0.20417193610287054,0.08481577827757894,-0.31852635840971466,0.09180021185685744,-0.11301476557778004],"weights":[[0.23519321152729972,0.06164299269029627,0.21984389575637808,0.20664698781993285,-0.2531882297593083,-0.08543858764954687,-0.02443225704915944,0.4201288058349565,-0.2801177850917615,-0.13096733502201294,0.2514898730349061,0.3629290442855371,0.38015601044027447,0.01770996639215261,0.06160444170622764,-0.12980785925720478,0.020525364477329444,-0.23229636341991433,0.1259236782878135,0.6400207053118377,0.29463702779801904,0.2843285091147756,-0.36720823903615185,0.388100312190209,-0.08458335204738343,0.26695741290634606,0.13467447280010053,0.10488310123860245,-0.19168638772507288,0.2489603516489421,-0.18867834874815612,-0.11379156233796289,0.010890518583126868,-0.19856052152185377,0.2757038303553474,-0.41750600456521314,-0.18907458744863506,-0.518143447199202,-0.12916919110894842,-0.11015787142185092],[0.266935012800814,-0.18211368158415744,-0.04447244241361448,-0.13781177530654046,0.08688524647849062,0.029251258005909636,-0.15454646392615307,-0.10835068508409401,0.26564874426253215,-0.09288986247020217,0.3998681123568567,0.04062502121231998,0.32653686457442405,0.3179959344248494,0.4230586181046028,-0.06935606181260134,0.1617449310688957,-0.07460235129356269,-0.07333423658093331,0.5083694556141064,-0.19224365442407096,0.18083298739147796,0.03317694740114627,0.15911562941068783,0.16261098011488073,-0.2538595756876913,-0.24533251225885533,0.235493079493261,-0.2589270856257327,0.30701493783537925,0.1621085746659399,-0.16741769660425354,0.03740818320341316,0.3449307064988725,0.12040618635575243,0.38250911963157175,-0.06203496192894592,0.16678219311251158,0.04505973406139052,-0.3394932144281878],[-0.06870560165231065,-0.3985552182381823,-0.06898603695090905,-0.0010347319352139728,0.11518367656271061,-0.10185762988393399,-0.19058718558864216,0.0724239733897172,0.07980904752472422,0.194487190348605,-0.17718910847953753,-0.02435845031983791,-0.02123579700091567,-0.24386282225619665,0.0796279578011759,-0.19631876599633552,-0.1028609076206326,0.1312817741645749,-0.20099308253124099,-0.1114816527555601,0.17279329657762735,0.1768417268466455,-0.10014426203329183,-0.4720806721551846,-0.29206765303616405,-0.0015557504650856868,-0.14146978384419073,-0.20776483461603373,-0.03458871976746028,-0.40072061096639777,0.0052208254647876096,-0.4740484032229567,-0.32171368286026897,0.1585227145391283,-0.026076154903756477,-0.04646589412079773,0.020271321174631957,-0.014330472315972287,-0.27709441662883816,0.23144794414496686],[-0.004643294607725085,0.22536693016333764,0.21891603403635296,-0.20102007019505957,0.045963984986891165,-0.27520844182197846,0.004233208557097301,-0.20483463782644673,0.25765574352868303,-0.22085138626478854,-0.1745675846778988,-0.03779664168886132,-0.20313432695361627,0.05743430325749235,0.15548241200710036,0.1724346940898983,-0.3530573132250172,-0.30311376403027457,0.4126370811872724,-0.14734342149029175,0.21921796444385044,-0.22429395286476755,-0.0668546248609467,0.17274482589593212,0.05897977344156669,-0.18403128630730292,0.450065300271113,0.32134769282020803,-0.11012475442404884,0.18689107463492383,0.21065909034793528,-0.26894567064268,-0.24288959418095635,0.033311930587993865,-0.015263552345987585,-0.10008732846267213,0.027904128523014916,-0.047437523522304015,-0.3866503231484325,0.5089121594977029],[-0.4471035753523004,0.22176447182177422,-0.24115496248404544,0.3810988298719805,0.15020895243951438,0.11052835932636212,-0.030247343905325602,0.4333836883249122,0.14074638717879434,-0.3279199180462378,-0.19161667898841325,-0.2504054423711923,0.17628812109195663,-0.1343896084528025,0.2402051581799451,0.027053031215630075,-0.09333598860088577,0.22167612734109277,-0.12879777647356305,-0.18077016154935172,-0.016822548696655032,-0.07838429477721093,-0.03544484833368258,-0.43653496812329917,0.4207496455647357,-0.21421568569611066,-0.06717306271939992,-0.1063423782743105,0.4089838149881621,0.04074948020852784,-0.11960752717623192,0.22055794065915452,0.019245742789581466,0.01484965493693513,-0.17641124385096468,-0.06438541763239358,-0.12597503220354367,0.26752397672102435,0.050520428902962405,-0.04249878833405257],[0.1186270131369985,0.17898185700471855,0.09942324723819126,0.000012267839442053896,0.08894697169089891,-0.07000732523435993,0.059390266836992556,-0.09795239195879862,-0.16562283806813094,-0.1109369380270302,-0.3890541858631474,0.08476571259355703,0.18938880799706856,-0.13429128860521283,0.1304012270511708,0.21218239440468253,-0.14882983326674545,-0.3463969151851159,0.0012856981551314373,-0.18949151884248877,0.25579237234250124,0.18826830022354923,0.3630399996585901,0.18115117686711366,0.051960667962091894,0.3642989435825989,-0.18098388533119297,0.18908141114058374,0.15137791121178995,0.12199210599988915,-0.1937161853694634,-0.10518549018282003,0.09875321472825993,0.27426710856099873,-0.5130872015243197,0.28808507795114957,0.16374182692761696,0.260847801288037,-0.17669239877238793,-0.17266968682203057],[-0.5876328936036979,-0.392443722297069,0.5165262887554806,-0.18940647536035338,0.027731426414201704,0.12426815759398893,0.03253325958162126,-0.355502214532766,0.5000484793836668,0.13369126904303574,0.10325860687845007,-0.37344660859611933,-0.28718350301636214,-0.23499729044823697,-0.35015680808681743,0.24824762196354327,0.1210107843430698,0.07934395457040934,0.14085185760790192,-0.06871874493103883,-0.15273677450264794,0.09352588078666765,-0.5816682400082761,-0.09299925213409423,0.09577515220135682,0.3806974067908313,-0.02149379211860683,-0.10054544922256975,0.12628485476531082,0.002820718991599247,0.14866195478988697,-0.3766125180420401,0.28116586950167616,-0.08745917620324743,0.11756210339889223,0.27146646871645397,0.16613858168245263,0.16058806426472497,-0.17792167087646693,0.5709483066042084],[0.37705818376284606,-0.0974167578339776,0.23093321256874516,-0.14760404697478907,0.2435918014995799,-0.1472098013077717,-0.3039088943265314,-0.002956651285352968,0.005193353587535789,-0.1908122880798837,0.14509408334423735,-0.01474929134369659,-0.37051424589631854,-0.0858528258305809,-0.03229729639396013,-0.03322121448398503,0.30146470230337274,0.028711288358920527,-0.2475402365211456,0.13732270523326756,0.2626772149641589,0.041858832403846066,-0.02238289532273746,0.11452457929928306,0.043559272871404986,0.01814065278583807,-0.3823309477627136,-0.21472958276693307,-0.037083661967893894,0.4081554146902321,0.427937315644886,0.2029257640009392,0.08152262731926481,-0.019266338166592845,-0.17638373003321342,-0.03356391137850029,-0.26929025822714514,0.03747678385468784,0.20598460407390617,0.05378643119941673],[0.0567234823500516,-0.02711888568943667,0.14832564900869624,-0.06582966828050646,-0.3913573869266,0.13987458173500816,0.08183450531702334,0.0029768290657160856,0.18753845825775728,0.19544617831779215,0.2498373213607546,0.0583907854120273,0.07385957838393183,0.056540651226336724,0.22868757816159446,0.06258590430073926,0.10594621422518269,0.17064698570221848,-0.04985253091952169,0.10998595988398807,-0.1257419198197945,-0.3121875267555724,0.126500102314537,-0.2397589055367455,0.14069718943534412,-0.11268215316366725,0.03637268677028632,-0.03238931618193383,0.2893695450923913,-0.025533434691658558,-0.14377848918841873,-0.1038177688091945,-0.02116385082149902,0.2903517662703459,0.22893503727919978,-0.031924217265178634,-0.18213104736969066,-0.1195218021784844,-0.18758617255251553,-0.5701200458675084],[0.22175128241748313,-0.07896519564084653,0.08031347071098126,-0.09379853628897439,-0.02200895300577002,0.3014078915819798,0.25514619245561243,-0.07207876135116621,-0.05849593080618205,0.20942264266026822,0.34881441332126817,0.17931703602376325,0.1223190520444788,-0.23981735689724837,0.13970685512843017,-0.05922198965410033,-0.22877710610377325,0.39248488788270053,-0.04928681786999253,-0.07338022532642874,-0.20224506953111415,0.3463427499952968,0.2705285010709858,0.4521949540570085,-0.44624606435294456,0.18027214162657812,0.06904525826279148,0.3538451401757513,0.11845370033625018,-0.19939455800126143,0.11097365085628894,-0.19823143478872982,-0.4155171983208721,0.28761949773632445,0.22537331095363258,0.12585330767308592,0.09626540300593836,0.19819792301799305,0.3072838178006996,-0.13602871519680498],[-0.026254455047867803,0.14676237786133767,-0.36370089744361545,0.18684587706966224,0.021303064337678923,-0.24762549905784903,-0.030907757957108734,0.22224900633383204,-0.26491859572456383,0.25253489235902826,-0.2550869980977859,-0.1174015615045361,-0.21473583673007324,0.18260413126068073,-0.23422436212966816,-0.17704806103753928,-0.11092417908826047,0.3769935390789948,-0.08511448386751264,-0.3332892245119285,-0.08362048054443327,-0.18932481229612536,-0.1607709507052988,-0.21600513753787318,-0.2249785508817925,-0.13013141877234763,0.15585990638455202,-0.09230414536889603,-0.24173913421139348,0.21982944054864653,0.18132492137715345,-0.035182141974474335,-0.3417113355519676,-0.17184497903306828,0.0633680005468395,0.2277439625189464,-0.3647489727652419,0.5781669629901183,-0.12653975773513437,-0.11455572908499104],[-0.5933067792926607,-0.018371257757074794,-0.35404682591422104,0.006096333643883636,-0.04713821987158562,0.5833417326038831,0.3560700275755737,0.25295995074439837,-0.10820656878834997,-0.306401446733628,-0.07219611908512516,-0.23241800419985928,0.35013149258696763,-0.25430965139959905,-0.13117950447222093,0.31983431134817425,0.04290822305616787,-0.09003799397737251,0.08844782171967573,-0.09147223113040648,0.12030247524396262,0.15604610538064556,0.21672868346982654,0.11358118061839595,0.25927974396269027,0.36744918180612995,-0.024088143433763476,-0.2931233655985732,0.21811769452941587,-0.2821879284532544,-0.09455025487352417,0.09571238244713666,0.12183444719433142,-0.1156390386399227,0.3136210770106816,0.28133456470874807,0.04584770956873539,-0.002960939285220149,-0.341917700570871,-0.16554316714582107],[-0.2004507918881637,0.10790544971036667,0.15949359095873278,0.11402351404794617,-0.03644316355388094,-0.020111553346767945,-0.11718317794651939,-0.16464117396340322,-0.08570969068322942,-0.12042886526089347,0.19671273171000714,-0.1307037266568477,0.1245320213520627,0.35317531305479166,-0.286560289400311,0.17803494748756843,0.37834262155449777,-0.21688818278991917,0.036523754274377485,-0.20515946609363564,-0.0012970757979543085,0.06986783531084093,-0.02798741834458942,0.20257473944692922,-0.31673460534540004,-0.25650430002109365,-0.1506832832077658,-0.1635750100657748,-0.07047440641114858,0.1237145246360321,-0.03357035204190807,-0.3082387463185653,-0.27307880592240136,0.14361018003334064,-0.4080468903786343,-0.1605053918889839,-0.04665791776959141,-0.17366313726671848,0.2781114825136073,0.17456673384943042],[-0.13915300504930841,0.05663792875575824,0.32571049569688304,-0.009561443089700028,-0.05313067755344303,-0.042585384230257775,0.40059736432471704,-0.03502870917967865,-0.06937258312375404,0.17897436279257828,0.29697998074786003,0.15139532322003263,0.3392560284686882,0.6969657030188434,0.10867739010280553,0.13500787231867423,0.3571122999316664,0.155215578118,-0.19161711235592133,-0.09435322374571821,-0.40204290115838115,0.38559252044674636,-0.10435520606744068,0.01982946290139398,0.09822998007217221,-0.0291354194759805,0.002849973546749207,-0.08944602538874669,0.43632296763424716,-0.09333826791732613,0.3467504633574896,-0.48819003821206153,-0.17048100459358928,-0.2069458502923209,-0.21433582762277748,0.023157069825734927,0.07500718212110315,-0.23988715715940984,-0.16506002767746794,0.36441031682706865],[-0.1523025229581466,0.3689750401463275,0.27160764864847664,-0.21320813182211568,0.1320438919134092,0.22342324808966302,-0.3637403152898764,0.18054405646244234,0.17547809534300493,0.09075445642352804,-0.003320079083253713,0.40421572235676295,-0.22633123587519915,-0.055293139223721754,0.351139367647633,-0.3025055015809506,-0.013860212908331643,-0.20489217836495602,-0.09171563637121725,-0.16508195429611727,-0.005544178785600387,0.3542406237163951,-0.48733896814730426,-0.07570876393842202,0.012600952426216061,-0.2939824244880904,-0.1769866890885,0.06583368419576602,-0.11233149513104063,0.09296393964255247,-0.012440516335366358,-0.3040732978529008,0.4318447424281462,0.1834685841379678,0.08679332183954899,-0.38405601307011117,0.17148681030220708,0.19434558246025796,-0.06519164146881479,-0.07994820822524105],[0.21235513595152672,0.22000246927011044,-0.3011955308158146,0.07117436258552548,0.26257291088953477,-0.36184009362562797,-0.32379468467726175,0.04993875001864556,-0.13028453023838826,0.02576305750124798,0.3321219911329121,0.5329086736906674,-0.008275883325411876,0.07290758842763678,-0.19935863640339496,0.3131515801420023,0.053336088040344565,0.0895040641172121,-0.1081653738269864,0.08840811054228251,-0.3350475585904401,0.13174165355531003,-0.3136266071666659,0.16502859957342764,0.053163245251556246,-0.061970726793124514,0.2365973001792669,-0.018136825289679498,0.43997688755428566,0.05125699601542534,0.1778660085141559,0.006398303036657338,-0.49012948791368705,-0.11510650404161302,-0.2054991550300598,-0.22438414403449297,-0.1367276985321434,-0.621131606125565,-0.26716824066647005,-0.00990965344666414],[0.08810837366630234,0.08945324596141414,0.12647004330023176,-0.20291264369913248,-0.044257031058461016,0.09591334106854743,-0.45975893300871346,0.19213944487734708,-0.07145740012867752,-0.00556932116803123,0.06130208297171752,-0.09984432201641033,0.20430531334302987,-0.2982810226295314,0.09003208123992307,-0.008060013692518318,0.25078567305193283,-0.09843113922440452,0.10096414744173382,0.2528261463415268,0.1411823632272856,0.15955207565437035,0.2855923544509599,-0.0539581647288937,0.08100880726443845,-0.2086048672445934,0.02000344499732215,-0.08209532665698593,-0.030502154735201792,-0.3683879610296867,0.22330933312039172,0.15888911815333978,0.1409673987373602,-0.2045092366468242,0.41075782161407104,0.3388308505854165,-0.3187138714014536,0.08710337081779725,-0.1192727362248055,0.11504080808768674],[-0.1586836068128698,0.14315963989754926,-0.39736057629634863,-0.1492508824520757,0.1131881120500634,0.30236917585131334,0.10448356044240033,0.3132647061430285,0.22586242114301197,-0.05765860685915406,-0.16992881893705009,0.16198418749836752,0.0885289730012887,0.35487652807801695,-0.16580546665407153,0.023806958506813636,0.1518661635135678,0.11303219036085621,0.2798393259078768,-0.1859948543794977,-0.35898554103600483,-0.19166601450795256,0.10469314840728228,0.018913142846908954,-0.25513749416887616,0.26963519757478255,0.1368141791012965,0.4092810423785846,0.10556492167971943,-0.12568618545105506,-0.2731248853736862,0.3299349898217663,0.22643899804362258,0.025171385107495087,0.2843406195152793,0.25287320655046513,-0.04989346542040704,0.20971807672669912,0.3062425450208172,-0.1475596599500419],[0.163938160107713,-0.30733827462734653,0.25670306595744247,0.2530047644923721,-0.037366959083434514,-0.3468051907752285,-0.2147542532271822,-0.11214738202587518,-0.051996617419518526,0.20069786167492618,0.24522629625447928,-0.367426169725315,0.0880085688127647,0.10220806281379233,0.15176058869395231,-0.07392116797064627,0.05577956529278691,0.26187511209269865,0.47740717820922696,-0.29730466649478227,-0.18338433180796687,0.03132578705573483,-0.5165223613840652,-0.28917125497928103,-0.06064772202913726,0.10084124905504223,0.15867526386665987,-0.19331352127450274,0.14789871445721423,0.2130123117854696,0.27797888919842717,-0.0675552040826903,0.3208868058258489,0.3556471880832216,0.1228350942894052,-0.013989760965730513,0.12923507683184085,-0.18156244071831734,-0.2852231829716462,0.2523582041050958],[0.039793832290893574,0.08152552524311794,-0.22811132147305394,-0.11120554172384853,0.29074376720092115,-0.4228283718747514,0.4245956949098849,-0.02610073323753398,-0.5756721730516635,0.19946461444687846,0.0045744761789141,0.32413386473643063,-0.08370670085605164,0.012471756859121774,-0.30364014888431584,0.3837549126917771,0.012090074196644873,-0.029485246005240995,-0.12647094084877653,0.06700224000702662,0.2383978181755175,0.11432958605915736,0.286011337137417,-0.1921238469339323,0.32424153704106873,-0.3442575056939391,0.4581759668980153,-0.05749802879737087,0.18051165621069593,0.2174213441866461,0.24635246068188205,0.2202726097150689,0.012799281421181752,0.16612385071123684,-0.14221654223284969,-0.06284256551700515,-0.022084721861619055,-0.3069313545880874,0.09811653503804188,-0.3570337387691406],[-0.12081774511692041,0.14907654615473379,0.20077707458081664,-0.2434400368121703,-0.0403971834777454,-0.04536885160242929,-0.15741011038262778,-0.2529045909538021,-0.10993161778822497,-0.025800817916464075,0.2945977014549924,-0.3337709123128119,0.2262322099740472,-0.28327729489445785,0.3641991405945593,0.2029838328915704,-0.08819492027919325,0.38376232048301706,-0.01580750440188751,-0.1618888291953045,-0.03438948580634012,0.3286705012222151,0.19378754380079294,0.3038814356543399,0.1828988475449002,0.03321945849594177,0.2648971636004067,0.04232902541115732,0.13495904999143044,-0.22358441416516378,-0.2626463393911656,-0.28949805368687787,0.07140530257115146,-0.08366484023645393,0.29941033409923823,-0.29006716888076123,0.08322805134384798,-0.2593645169152727,0.5563795210209412,-0.13561768714476855],[0.127139214982381,-0.4266325518768686,-0.08537632590060415,-0.10833568619224754,0.13973623284640305,-0.005008217587027547,0.25659607932640544,0.23561518259205488,0.14397408312561866,-0.21944025913219667,0.33406377088263073,-0.09883655849940198,-0.020741174098319187,-0.025663523627150353,-0.08331175371483764,0.08673125802109503,-0.0567752947870544,-0.4077410386059759,0.15766513131943297,0.009095719777853173,0.18651087994265123,-0.08046146041405702,-0.09986183937334248,-0.10816491838328089,-0.4681937202901249,-0.11484628322432774,0.01924123922392136,0.37199642401478944,-0.36860148308664675,0.2892135343666303,-0.2297515250811128,-0.17663302704735184,-0.2443908820604747,0.2843146563522971,-0.2753606979577314,-0.2007539835373723,0.10290748605544353,0.40057134997262683,0.07734594711510907,-0.16343471559007472],[0.20721474012620117,-0.2671890304756192,0.29761705064072413,-0.2297027141525529,0.1560702766383162,0.18884893258693397,-0.032309579789247506,-0.03397095829355724,0.06866413897605822,0.2799795998048783,0.020545598742224336,-0.035244418284997636,0.15613441518077514,-0.09640658647974287,0.0896214207491422,-0.17470384792994714,0.11818866651100624,-0.26325834468839326,0.13421474956640708,0.30541812472570506,-0.04820736267987957,0.0887242846183858,-0.2215833600162132,-0.1986809636323002,-0.16764086031772601,-0.012729881624001904,-0.030790319574611646,0.20030508714604356,0.13787818642922073,-0.3427390467060728,-0.2884700810043865,-0.013752360022526028,0.2518656314305362,-0.15738019275162488,-0.05138057364600292,0.05660703909256051,0.1441145396693304,-0.10109919263031084,-0.011142955986304715,0.22065926233695765],[0.015193409149130366,-0.003956661191273025,0.18346095495167225,0.4764458183814849,-0.11866625353298152,0.012938246553741262,-0.03502642386622079,-0.31482978075599666,0.1470215888753246,0.08821627959558175,-0.360065978603907,0.11639381439634558,0.49100395022337784,-0.12507608885221105,0.3172189058085643,-0.11334577426121939,0.029173984153271437,-0.0763712058749269,-0.044232672115681174,-0.10817801916630443,0.42236065424513924,0.053894560048186824,0.006367741583959946,0.26039867352625884,0.4284015571710281,0.03643705077901371,-0.16513127968560798,-0.07646507390816515,0.1378389865549388,-0.20285418757988638,0.17742356519424074,0.011541650253377347,-0.10134447963482854,-0.1338282882893335,0.12225896731277577,-0.3563819712684005,0.0036724783960956076,0.34395235391001533,0.21339201744012937,-0.12005004964703647],[0.06933984432104195,-0.19051038279731053,0.3349633259688953,0.4647343766073011,0.04535979620399905,-0.055082438898304255,-0.223569065873148,-0.010013890835939399,-0.2867856479927131,0.06509526345076161,0.2855598118374101,0.04245230611969911,-0.23748764543372097,-0.09537873320065045,-0.03815567038387918,0.29722400394990206,-0.10322650304902053,-0.3255974904436692,-0.2328880460358454,-0.25867448128405246,0.31140014988578113,0.45821306860906064,0.6143738549641975,-0.22078590355201438,-0.28568054115166935,-0.21553962278077707,0.2891546800249949,-0.19639840449212842,-0.35104119966421765,-0.06350518543275202,0.09828007388515281,0.03655994013052162,0.05842730485274686,-0.14973091457981474,0.32674439386196724,-0.5521833485530214,0.15018040400721477,-0.21035954980097055,-0.24018644151234136,0.07761529871393738],[0.2395083196654393,0.37747056309859706,0.06751362881666384,-0.3101527516069811,0.3913414633070957,0.04027170695509005,0.04062293599856728,0.060912696680389705,-0.008034189914776224,0.40628861433493346,-0.21650821910008028,-0.21871788287624666,-0.14148094435581487,0.09739166576672732,0.12642064344822632,-0.1853187686713187,-0.038766554072347414,0.05768885215930469,-0.08840139020786965,0.3742188470133978,0.03939174596719877,0.19288640674241722,0.20034415428807367,0.2618082846083081,-0.3323298495839563,0.06908611843867796,-0.060759843003347136,0.22534080672033374,-0.16534090887642927,-0.28531981741734325,-0.08603348477145756,0.14750622033353053,-0.03893279920107198,-0.4058420059040553,-0.043158323647069174,-0.0713015206515076,-0.15008765389364132,0.15635792831969578,0.10072463779113923,-0.16361213345720851],[0.08044736571133637,0.202497313804994,-0.1116279485052587,0.17280821599796825,-0.3837922734143948,-0.2576369320104507,-0.06423198760721513,0.2393895768717702,0.08388124114032658,-0.0016636760080982749,-0.10383546740765968,0.31599496779822045,0.15255070128544107,0.3431822805673634,0.22551367080917362,0.20881325605093953,-0.2644622656214847,-0.03599766298198423,0.5485091419468003,0.07929801746516185,-0.21938539989279285,-0.18357374489295844,0.26672819475537657,0.25749122012569975,-0.2377855447048143,-0.540778275400281,0.25422510008836385,-0.36308869035791547,-0.13937147225554158,0.3078617637466171,-0.014818346036129984,-0.10973936677475563,0.1544547889243788,-0.0019592050905481023,-0.15262250074990866,-0.0701941232264221,-0.24584066641717045,-0.11808265421148692,0.049190657761499744,0.24034129740855187],[-0.18475092331885454,-0.09861302544181225,0.05279099861351255,-0.4213049000665812,0.35159044964433195,-0.05987988548077322,0.3594059154922675,-0.06128579013073676,0.2421212053325329,-0.290915372464278,-0.05348870160357945,0.2827783500578634,0.33019703415755686,0.3824009318949139,0.03546570353974549,-0.30543476331264713,0.12291355656112839,-0.3243128435925029,0.37449760364361817,0.36809389769265716,0.105485924882331,0.05590998361013703,0.05555947379304542,0.04342058175883731,0.0980480139788919,-0.044012927035866845,-0.2168577940254943,0.28443831214091647,-0.13477563840203316,-0.15444923617278888,-0.08772291495227325,-0.1329255228034432,0.17779544525347413,0.1954125101137081,0.01779548010732243,-0.17673533547370063,0.21229668435277882,0.028737908149088692,-0.098284899679945,0.08723075864369748],[0.3277354046342331,0.4156653865590931,0.04262370507991361,-0.010842626735605529,0.16448706794856802,-0.027850612088466703,0.33763056726913154,0.2154835158360052,-0.2309861528507608,-0.40722166476333616,0.16549690122750407,-0.06939982562015512,0.3694097948877607,0.18316267122417512,-0.15043180330585876,0.1386710111997878,-0.01915009160760986,-0.16825591705181786,-0.042502514553224624,0.1558239645486615,-0.027683353586869824,0.07936808812022389,-0.17771312714179968,0.09488159127807187,0.18267656848997982,0.040666385730221855,-0.252380169482129,0.16653147863157852,-0.15771465525663753,-0.08160889874591908,0.03757476236334396,-0.16917265600118045,0.17104820875139448,0.3595517341083507,-0.15587346357134274,-0.16872496681683236,0.19013210516681156,-0.09367790688424818,0.5709311905537906,-0.06315713256655942],[0.09440721565404542,0.13707623983370815,0.2663893266124421,0.1326731334733366,-0.08448056928412162,0.01542608896519232,-0.028396951596155517,-0.2508284820249821,0.335416008573487,0.1779649589858105,-0.2339984524249171,0.14117465875033652,0.10146685874343427,-0.001067929288484315,-0.23919397610216153,-0.14073702911909497,0.2801549483863315,-0.4587061447992524,0.15504000333260853,-0.33220141741944964,0.20366406957505698,-0.12525144619903952,-0.13365152872516817,0.012901587348034649,0.21392063702929628,0.18617650610186443,-0.07327962671535786,0.1560441420464776,-0.02136354336582787,0.29572333207077184,-0.32718705063072306,0.24145898444319092,-0.16857832991600674,-0.3211819333372937,-0.34276135369992045,-0.162644713993858,0.06153436935173889,0.4205955430276806,-0.1454604333716841,0.2587392944218012],[0.3087038554738323,0.26953411779051895,-0.08874784501539408,-0.06558815902270973,-0.048954655141498354,0.08202488615725437,0.03270967329369143,-0.21052613114277854,0.2358968426634383,0.033301929381696044,-0.3140884993995955,0.19586622280643023,0.27963345173552995,-0.030342455710274364,0.08578076419234226,-0.04625329248137139,0.04941454347833461,-0.028446598017387303,-0.13344037602185208,-0.47561659161117714,0.45667812868920077,0.11183452132629129,0.005218752847233166,0.4257718990354193,0.3990028613256146,0.08174507531387966,-0.04877044635394839,0.05879507371687605,-0.2419806732714454,-0.07896666969048546,0.3089707978194855,0.28838777308619923,-0.33843066379540643,0.29390216322926765,0.36571393620446324,-0.34891660473804237,-0.37510000636848334,0.05821493456645714,-0.2792068107312307,0.3414301767950725],[0.012765035240922096,0.5299040660022996,0.07893765670499417,0.021934766904061043,-0.37284802164958863,0.455525625189092,-0.1359851043942259,-0.39033870313272423,0.31344139104893676,-0.12549958435692443,-0.23161933085516886,-0.2739511300556925,-0.0708402399066379,0.12128779050261064,-0.05571331444158564,0.3729369745721908,0.06618954758369659,-0.10188340405735063,-0.24265497331718916,0.5111388329357125,-0.08386059585662675,-0.34263052188567555,-0.2587733764683613,-0.21416848855820605,0.25814788376736686,0.2756231091326388,-0.2358970586438123,0.20183274510722918,0.04334724453855039,-0.17021887715197173,-0.012812061584946965,0.07212506513250905,-0.2249571816610651,0.16857289709156553,-0.35987400355018395,-0.06023098221768872,0.07105662425242362,-0.24318002126699723,0.3438787066785245,0.25654482992233457],[0.14863441245212733,0.011283464197747617,0.2885007026308369,-0.09778516217489386,0.27864850220499393,0.42984411487887886,-0.03240132023041717,0.11827658423679926,-0.1942863038572888,-0.0823068358977533,0.04143465446685207,-0.009947224465723437,0.299120346794779,0.05299728277645946,0.10504231942415837,0.013310251408550161,-0.509029967108099,0.17269285131849377,0.31005938325477767,0.3670479820684141,0.25927961605276517,0.32110426605588716,-0.010466986408522783,0.04437723847630417,0.029300044292815852,0.3167038073672656,-0.10903495125279361,0.2767345589930689,-0.1211997088841022,0.3076760630987528,-0.08180858043705286,0.16322185712658427,-0.03249725598427583,0.049976111125624556,-0.23137213158678502,0.37818671803162873,-0.09874749842199071,0.32630965721943295,-0.004559429445290961,-0.02425533037670742],[0.1220950235963725,-0.10231138595622968,-0.026387384846523254,-0.26089671914527157,0.12019641102998677,0.018858667691067962,0.20858042362256596,-0.13220740553498356,0.05025473832346303,-0.30487923200500955,-0.1832266563925331,0.24482024706910255,-0.0047787108549803,0.23183554121056432,-0.17425611601108104,-0.07380903174007106,-0.3002432544161697,0.391827253708786,0.09090561717891744,-0.3851123105369765,-0.02535785866722498,-0.1509196226203091,0.29428003467635044,-0.3001102186327314,-0.3470129479447156,0.13869485933846845,0.07076370953034876,-0.14516392127252997,0.12283771494172387,0.22452405378463167,-0.24734510300421192,-0.049844616140794995,0.3905725344963429,-0.22726862415810534,0.11462591454939719,0.1301866681352659,0.01121801672449041,0.03127768610153761,-0.05237511156627117,0.5010458118431734],[0.034957425821341814,0.050375317723609744,0.11835160801759137,-0.020660877584094045,-0.1000202729293905,0.26382900889009797,0.35142881795366987,-0.206470738885142,0.309054806750932,0.11482155862588463,0.09046348574641272,0.19065291592212125,-0.13638075825628543,0.03372792972202826,-0.1497889803659025,0.26521858739556303,0.07878248081134605,0.22766957056113976,-0.14349704206847524,0.00018560089388658385,-0.03988396585973136,-0.06436423839730382,0.024747609176956453,0.02117723531366994,-0.13798888356318464,0.2920700844944019,-0.05526324823620732,-0.16056600104252092,-0.1422861243095188,-0.12367157840220863,0.36801802636712144,-0.000021211518000885388,-0.1230688147728133,0.007322875452102473,0.056839967198179187,-0.24615491435512105,-0.47542775309444013,0.06367289438389862,0.2693958872597954,0.019743163011156237],[0.07503250189959942,0.12903454660340535,-0.11492949342425693,-0.2506047658153948,-0.04280438592545602,-0.34289807975573583,-0.1116748518128895,0.09542061922558541,0.18752851376500085,0.1535755310076191,0.4779268350071368,-0.00960514037692968,-0.11230152964275375,0.06730920290611442,-0.2090896385304174,-0.1254948122037473,0.08969140176445307,0.3659188199303812,0.40589425443154403,0.21237075230277747,-0.16434028800927428,0.036621174772926646,0.19978564376887345,-0.36977241040748754,0.08439584578132767,-0.3319293045638786,-0.14635124163980015,-0.10900058042711053,-0.19183577769420052,0.1246003580328351,0.2735008502308764,-0.2137329586609698,-0.24458262255459529,-0.08895399306637405,0.12276552464967777,-0.23520712889573359,-0.16107133817575991,0.2564710231673322,-0.27253328068887217,-0.18272557274696544],[0.3553311161837367,-0.014725777347202984,-0.09619432632823541,0.28986497919912374,0.2978838974680028,-0.18335008859145532,0.33032022528698113,0.6375650454690736,-0.3513994026738877,-0.16379794351554422,-0.25763474464793756,-0.17377969179014563,-0.04131244897164443,-0.05001448029257119,-0.033141716907140684,0.25972079458119873,-0.13673484287452098,-0.17633273321331008,0.3753091493611213,0.13808287318228307,-0.17715086904107125,0.23146213672566085,-0.0264977525968339,0.2773594262627104,0.018710185365058273,0.24909516713221502,-0.12389744532310634,-0.050489617665071373,0.055863031751748116,0.18676311319354186,0.36714719135320917,0.28817083206004407,-0.022413777831053625,-0.16636220951926187,-0.14192283237811937,-0.09648583619594486,-0.00889489230041213,-0.3399779186871603,-0.18941315456863192,-0.021811738254391505],[0.2330235412147824,0.5050214835887754,0.15225988752183317,-0.39070212187057674,-0.21715059062575925,-0.04761489997037033,-0.15374287657146962,-0.004806142887743586,-0.22136142962804864,-0.09994397873151903,-0.08205520147922443,0.16615645539287482,0.18638746275815235,0.2569383370456753,0.1670506873005526,0.37069514493398137,-0.2004169818597815,0.1756114458571324,-0.08067972566866033,-0.05453188733873629,-0.32958304395411814,0.04467415239386319,0.1268145923596019,0.2592233056089161,0.13008568930604864,-0.08725301180918085,0.21808350975293248,0.03597983618259172,0.01425943945647172,-0.022047608369308636,0.20300252542658748,-0.34797874940996076,-0.03160201470212953,-0.005551880690469323,0.177623130185506,0.023825850452567895,0.11249290239557024,-0.007255764784754204,0.39902206763527215,0.06573983670291442],[-0.08196311587654427,0.1663882516447318,-0.08581836075207364,-0.19333459173651074,0.1614516103401095,-0.08735396540683252,0.5265178974037191,0.08025125092617211,0.5553605601184306,0.3903728224541584,0.22235857811550136,-0.06019474679983772,-0.11781835674709779,0.009980654296315616,-0.046646405470996716,-0.1830996926547266,-0.11869877061194818,-0.29181240462884506,0.2357966436740068,-0.3796862725899715,0.23537553538651002,-0.20793155720895143,-0.20680427373573163,0.23896139870606903,-0.024229695151963812,0.1356266804105282,0.11936234019108742,0.07956239572791693,-0.0823472976287179,-0.4027852623085865,-0.22692046866837678,-0.06052453204809649,0.2559623613621938,0.09419609217806738,-0.171770975638813,0.23241943635358095,0.010370075177209559,0.1463459026870532,-0.2794588808667113,0.028613517874988836],[0.13940404468526546,0.022969152091054434,0.26733582402935124,0.015142426982609758,0.11675348273063066,-0.27600479676074025,-0.2166527436085268,-0.1846591537746322,-0.06187266497031409,0.0172256820229301,-0.03468110502585897,0.2764020109974876,0.10127399934989852,-0.21172598606122572,-0.07224898021277805,0.08789162495129242,-0.4177020701727426,-0.17039620612607276,-0.17943338271422166,0.07365674364503759,0.25998529964939504,-0.280598351596153,-0.14206361120601596,0.195546433622134,-0.12478376796790253,-0.3317883178821488,0.08364323741938365,-0.3306444911381342,0.08282031632802506,0.000541905249944033,-0.12575134506617236,0.13717734005176627,0.3734507154339913,-0.3552064271020408,0.10519747040683564,-0.16691736910096924,0.34802856829172224,-0.04558531190448355,0.1564404486785247,-0.0836909957537362],[0.4480379079205068,0.06883770303894365,0.22943787107467345,0.17952069426650447,0.5259163021229413,-0.33755955981963215,0.10213212604570496,0.07388205366805024,0.2475098285140627,0.0892161268247795,-0.15224124372025888,-0.08345946218178185,0.09060249115731228,0.12056241204756225,-0.21916588877466647,-0.3434968897689472,0.26653204460219065,-0.10434388781313107,-0.10280941722909492,-0.10787995519623093,0.18850972309270686,0.18244699145394994,-0.04340840418327899,0.2457462420677275,-0.25009664055625047,0.35495840024126946,-0.1624918184625714,0.3355406440990517,-0.10515320339257583,-0.005898518712244005,0.15998846567880104,-0.41379801321029575,0.06330092564768944,0.42179886548479323,0.07710679541067086,-0.31069710495598624,0.20712013143075414,0.3237205034254649,0.10052772497837563,-0.4300516741779135],[-0.029741515465641494,-0.1996654932946485,-0.4788826557475643,0.18687535086095725,0.35216456936305407,0.11914469398405103,0.12454703134115393,-0.17180455429517047,-0.4112822181480445,-0.21730974678961623,0.10518135159938591,0.21825876836968222,0.39865547367022314,0.10228798621568772,-0.07267058198882986,-0.5576535247158454,-0.1256222787336895,-0.05932276749827756,0.38224122322787757,-0.3283012260889085,0.2017356124950363,0.08233594696625687,-0.24381173467005773,0.0900196581898619,-0.04384538406845017,0.030560526360691204,0.19727281870961524,0.262188489291607,-0.2618485840787081,-0.3390010791659516,-0.28710690511372133,-0.11659432561985539,0.17625581286624192,0.4334001287776918,-0.0610671237593238,0.18982866586108632,-0.13031566723300964,0.16855517041042617,0.2436988342321966,-0.03088441050725601],[-0.008066350764198676,0.2595946658795959,0.21669994402188553,0.1911927196091168,0.22561705038348176,0.056878602916049514,0.5460511356144745,-0.10268665240995473,0.1849363872058556,0.42284758877188244,-0.14710260117383273,-0.23461588865137284,0.07715495957993827,0.05661808485840909,0.28912211365188767,0.09274106922725203,-0.3341352965016209,0.2638464776908231,0.11449353953920247,-0.09086379017231783,0.1066566214615248,-0.13366704680362226,-0.10549525400209873,0.20090339868016444,-0.288759664436058,-0.19086162421477512,-0.13620599369279013,0.10324286626901574,0.25554491583191313,-0.06555196687263015,0.005906646716026143,-0.27518897624383754,-0.3295548538205478,-0.030571726544758815,-0.09562039125605956,0.11281828072739966,-0.053458442678618115,0.08715387473564745,0.19990194326886954,0.1754998117499686],[-0.26096341199726003,-0.17742560855623507,0.01998817525115898,-0.11616142102547211,-0.010147212731544675,0.1627031407202027,-0.08095710777295659,0.2832753912034569,-0.010093021003009794,0.2955310039958998,-0.0667592766042032,0.035361982823716415,0.08691899942426051,-0.20816041614177327,0.5003831863476432,-0.10948476054196526,-0.10784284527759463,-0.1606376599547528,0.041025620646464644,0.0004138651168834606,0.03259091696824537,-0.25510587810423113,-0.1922440534082528,0.2942414321028403,0.16020013644356135,-0.2826682103248837,0.24340041342505866,-0.0933247977785882,-0.01453704831911204,0.07428321863596987,-0.04624025269258658,-0.1780132946173384,-0.03217387632706803,-0.40898183747693106,0.27076401143823137,0.29589071288673036,0.2009808534158296,0.16689056381979742,-0.020550953928530916,-0.07352897280822443],[0.045905560170137555,0.07823254004127413,-0.11300799264568828,0.11114539213592822,0.3231098177193985,-0.024815193865062923,-0.17162858439302764,0.2319448219777978,0.20322341784589731,-0.2029477864443947,0.28477778560773087,-0.08071018628981569,0.30419144061174896,0.3315969007193851,-0.22005656432770865,0.40052184266977164,0.07775891951737288,0.11180165547832921,-0.19533865456557103,-0.1824238393996366,0.24564707208903316,0.3120062379424985,-0.040926199256541756,-0.17765264107615525,-0.4089140036644259,0.01873514722392261,-0.23866908169777595,-0.25197782116193346,0.062233326740519915,-0.06765144538736248,0.14765355715558529,-0.2669352017559302,0.3688168480724603,-0.4153448442924425,0.3573499656901209,-0.11812920236093388,-0.17320407912157187,0.13873768385388305,0.18895505543352042,0.12871010458373083],[-0.03929401793148152,0.24031946396163573,0.1839500388022745,-0.19223517722540162,-0.15177638579837735,0.11568607718629653,-0.05120556386099606,0.1366076514982652,0.26622853601761964,0.16055403381292907,0.053293728866615514,0.2528870197780019,-0.31811195139126985,0.05656268930738656,0.2049135525271801,-0.038373665982958216,-0.31849484044884807,-0.20941979145792267,-0.20083283997161372,-0.04417706278763289,-0.06924084553574447,-0.28131233883749296,-0.32676737100178144,-0.015037913912014755,0.28165680178541974,-0.2035866440647519,-0.03309155034358714,-0.07556681355940265,-0.06116399499042679,-0.5705570925967027,0.08132624717306075,0.06668139428476813,-0.0028444896592068614,0.20085931629038528,-0.37129887402382655,-0.09504398820658708,0.26062957729293085,-0.5803936329885557,-0.1795172956180234,-0.0015057918472893284],[0.24031555328822773,0.18479180034624382,0.10441308664613591,0.04902812778427336,0.21011343620649103,0.030836491736627107,-0.30830246401118777,-0.09250102754544542,-0.0880511589194882,0.006571245835445064,0.22150169877237672,-0.2591190171791864,-0.08839827664726232,-0.14350894761474015,0.32922446089943525,0.2552955654838299,0.22246981148987388,-0.1420216191240378,0.1152559745579743,-0.09865486357888581,-0.2412409541193186,-0.1631791768033934,0.02505716805969782,0.02252831669052563,-0.01826950221519169,0.18775027439123687,0.06583813025584515,0.18438717093076068,-0.2591627162517742,0.13535064293602211,-0.04029604968538081,0.09382991392681485,-0.08637663322701877,0.34472410777873475,0.09513702150861668,0.015551452618869921,0.13679615913195486,-0.07592020176325551,0.29308328389736693,0.23838129724049975],[0.011700802002658661,0.37793278678247677,-0.43427683847430276,-0.11390006896168807,-0.2482189609408257,0.1015243683545777,0.1922669534547192,-0.2802261870224721,-0.17284489179804075,0.0035364196212704924,0.11318058490690838,-0.17566606137516375,-0.14927303048611656,-0.37520523311387965,0.04578942293630832,0.03184579806925181,0.226872453081041,-0.08542933893780966,-0.03159689264112747,0.16193954125122773,0.0916252251385587,-0.20223924558606401,-0.15409754190955594,-0.305358067902018,-0.10484088759186568,0.3997402279171857,0.2796126531638206,-0.16583490617093938,0.11041995999694218,-0.15872529223730758,-0.22628538519801378,-0.1253213064766171,-0.26017798153483834,-0.28103661969483035,-0.046290883619045375,0.2222076892266257,-0.08960988289777244,-0.12043096948556287,0.15713655969944026,0.11660979325370019],[-0.23999974109035443,-0.019456688275659377,0.29423988849253246,0.22441865654711285,-0.12458215398316536,-0.24932288980445716,0.11596209359958248,-0.0320368661855029,0.08627281978433615,-0.035243739028032406,0.220423871993669,0.16639835499170058,0.03766858196375611,0.004994539652260821,-0.33228728034483035,-0.047388129077670704,-0.08425486698402129,0.16860474712703793,-0.10461696357528427,-0.14744800432921046,0.08508242914163902,-0.30038393968259813,0.15677184061944743,-0.015951742798708035,0.0462978692772722,-0.19301949961839227,-0.1284088249610324,-0.30017539090259937,0.18250564266709743,0.15691643231697816,0.06788758014439422,-0.28961156883883393,-0.20630104612546013,-0.10838662163852286,0.22732418085071904,-0.15290854427639813,0.15943363607517463,0.08613140520789986,-0.6879710683361566,-0.16938475832047412],[-0.07572250178177348,-0.12062810277749964,-0.037839662269830404,-0.1550585317195956,-0.08311764481136685,-0.36852059864189257,0.10345348581124827,0.14521808595382737,0.06972700667977133,0.13479327597093543,-0.21925211377174472,-0.03423648947450722,-0.03609192851260262,0.2593762199988333,0.16320194877213862,0.23130416148957406,0.030697954939513217,-0.06957009897867938,0.18953587074601605,-0.30770180801744884,-0.4420324200627161,-0.561746964604487,0.31424391770806825,0.1036337353360898,0.2363081417822745,-0.3680465045000856,-0.11252959520964702,-0.09946647853202206,0.22595713970468145,0.3325895458673153,0.10865007269885335,0.26268567416548977,0.13427680092871233,-0.02763590994383959,0.043936816704504,0.0525147337743591,-0.37704529660298725,0.1585459548680415,0.07829061521375996,-0.06806214039910533],[0.15727455120642053,0.23076944383092485,-0.357575827174618,0.2631154448289283,0.1808606082509447,-0.48394315401535415,0.13899735003667602,-0.2814245348323283,-0.06934236653888509,-0.19719975684201796,0.02843234225717596,-0.035468487294814166,-0.017364719125753686,-0.14824192340400966,-0.2530559330699571,-0.19772248373053464,-0.17004304281964844,-0.19175833674567405,-0.17497443057455564,0.09151553369381187,-0.3441190831342976,-0.20005224037201857,0.3688730185259731,0.2008067201833036,-0.17224940078476816,-0.1304305372055063,0.07745717182029715,-0.0000512254253086028,-0.06954579434384772,0.5566059278859957,-0.02432974840188651,-0.010366100666867967,0.37036824689744696,0.17848615826881722,0.11752519357401157,0.25861279037535534,0.19698034589513175,-0.2369814076231654,-0.04307448122953307,-0.2703181007130706],[0.19509853700054663,-0.12665256853819182,0.04157754864752283,0.2815581293035086,-0.007385815062335099,0.25973325730062014,-0.2821820266867057,0.0834623183334006,-0.13426490061164909,-0.0405804404396298,-0.11344680956882491,-0.40762329171120565,-0.09324785514693362,0.09702803264138266,-0.09884768310255432,0.16379116150249753,-0.2218258120461274,-0.08439288973063955,0.07921218347188858,-0.2509349548965977,0.40549057801818383,0.2500514829595885,0.11455758611953276,-0.175710191351177,0.05605537486220134,-0.22593333563477438,0.20642214604673706,0.42568252034550963,0.38569500137697044,0.19104148215739408,-0.19466793522291692,-0.09096931772372494,0.09757504033093833,0.2632769947150355,-0.21363409852785326,0.058216186180653495,0.07129858360383247,0.20130655226609068,0.3013748024947409,0.07698173775314104],[-0.2115228224202793,0.03432058319810491,-0.46931235797701476,-0.013147060323950986,-0.006347927459856018,-0.40985994359640887,0.07205842133835202,-0.060734760508872346,0.19839694743310143,0.08316275858669087,0.14857664041788943,-0.1926826907181769,-0.2575029069788769,0.30586120874002676,0.41548728617114417,0.16175992434635245,-0.08055634998836775,-0.0012536824639804434,-0.48426242580090195,0.5628033477932683,-0.022220455788458437,-0.3477750000862224,-0.15908678963253778,-0.24529800877031926,-0.03262924278373945,-0.007646032302211503,0.11771290390112123,-0.41288395000769984,-0.3260642156598999,-0.031095974289945205,0.01259427842028571,-0.07274184288041852,-0.15325621774835946,0.32090590689535275,-0.2876746370486241,0.012267305786969274,0.09547461797523754,-0.2024003630605913,-0.3660972913327778,-0.12663156552048688],[0.1437045375207756,-0.18447969248481144,0.13340820265284586,-0.02760148073408937,0.05322361936703221,-0.050709614297329196,0.18394448743827735,-0.2079801890869849,0.06299182072496888,0.22533720304043894,0.17526358134465458,-0.2916165348889254,0.2980475284025615,-0.10402239779764852,-0.303300504731456,0.1394050969128263,0.08124239367471948,-0.19710413254759784,-0.11599521975310158,-0.17593643438899698,0.16595027407584767,0.014652261473465295,0.35470326345856074,0.20462436163841746,-0.17022108426483182,-0.11185371383131096,-0.03240781178402172,0.17151374437935663,-0.15853906038575838,-0.3891814831789082,-0.23933803611561627,-0.11873471891049081,0.32157574390653215,-0.0756135710438931,0.0684423919228335,-0.11947389061734992,-0.3586370614369035,0.2843274648207648,-0.2322459475139595,0.3631785880573231],[0.14593497722091386,-0.18057036225871184,0.029564928497022552,-0.516541186183077,-0.3237257933031813,-0.0096569992429274,0.15256389005400328,-0.047967795078451975,0.009772374040900894,-0.45095668304546677,0.006251656280608919,0.10239227743881149,0.33193561177222075,0.33636152611868375,0.3042213464630984,-0.09723939442863952,0.002627833184761952,0.4778077837403223,-0.35250379266207615,-0.11203839526285014,0.05067894435607856,0.05134652805774953,-0.3077850770514631,-0.03363870912200258,0.14795261894131562,-0.12705293684671987,0.2502713950644567,-0.010494868996004436,-0.1665108631803832,0.10248608386571403,0.5236252826851644,-0.049172446158533084,0.08938010631368229,0.1848829382609029,0.12596434588907965,-0.07733301136531207,-0.17709248234206743,0.13635863555398542,-0.12412528062731931,0.31973972369681264],[0.43189075482101885,0.004381853412758624,-0.019017335625384376,-0.12868923714041675,-0.06771626557352423,0.039761142725723814,0.059045428508133546,0.13623004518041631,-0.28570314077744186,0.2816585699140094,0.12427766427154877,0.15998236490846818,0.40022119021342173,-0.42871105253486624,0.07362651939046069,-0.08432673787769256,-0.38023321860781356,0.006026971361163591,-0.09529152580204012,-0.05502618125149286,-0.13287444346145394,-0.4408646923265784,0.30234684116892985,-0.32671105241696063,-0.048559843201450736,0.04224455091331314,0.11153909220314483,-0.30788134947393236,-0.011354755677386183,0.2407919635928722,0.1406226801579451,-0.19551110467570862,0.11243995008197016,-0.058067718658646905,-0.369521738371657,0.27108108781759277,-0.2870802190458932,0.04025702369582301,0.34832720523072935,0.22553575081289423],[-0.2684389697350397,-0.2047134800160556,0.07237235067734629,0.06562182895952756,0.07757537506412365,0.13073733011173888,-0.008579044718728814,-0.033379163792996436,-0.09419162005313325,0.35443452606215753,0.14397250863931357,0.21183736229003802,0.0703799981649387,-0.04198746116211449,0.4310597733761574,-0.24409233098338992,0.3294148649169734,-0.4112554065864695,-0.18851760036022297,0.21282933324425068,0.19400464193506312,0.20641451675388872,0.2546412159606846,0.45890074655851765,-0.6235582772091083,-0.16382035761534694,0.021013116752573974,-0.08199615390170822,-0.04065519229229918,-0.11472269021330064,-0.2811807834156873,0.20843297775734546,0.3368066184367013,-0.009992242148485958,-0.11997720086000263,0.035122298652347284,-0.42633015957679926,-0.01267021654724848,0.3060601431109101,-0.07159310785010875],[-0.0926447868128894,0.4780061312767837,0.20236965458766742,-0.3005398562541333,0.05098056293829065,0.07928793723169257,-0.03699272441489021,0.15542385691871485,0.012997324385220943,-0.0915105689892888,0.42080255832443203,0.44460673093939046,-0.15101041269356077,0.0352527410174768,-0.026756666680191457,0.09765209104761874,0.03647116538698025,0.22253782849677453,-0.33794016076001177,0.002793975686822159,0.026181421898667623,-0.09034847337297047,-0.36507909275400274,0.016410667345913232,-0.15880587809872504,-0.03903801077765992,0.1356566034730926,0.09507869994642548,0.11809313800510618,-0.10231092581974996,0.12456731738221223,-0.15838480088787643,0.015027140118112181,0.29263474249401134,-0.2515204210906965,0.4288013668998182,0.11110874059129308,-0.336101166784027,0.22481915054231966,-0.24392985227375974],[-0.2662200854047987,0.32243751359554074,-0.04340407260310125,-0.21432103678710676,-0.30440212616271267,-0.31523339755839175,-0.5907382252338704,0.09729061512492501,0.3798957734982079,-0.18166287166694103,-0.1543786694415516,-0.2146944905178152,-0.10395593330520346,0.2904975141266656,-0.29817292276211166,-0.09528217209170017,0.017225485417806857,-0.11625338657900752,-0.27192467585376423,0.3900237579301301,0.1804249832392576,0.20108439646620802,0.23787402656254908,-0.3004605866529248,-0.3399547629974921,-0.2077524484121639,0.3191808118560545,0.1632674207239305,0.09430484930457389,0.2913144993588216,0.2737750961425216,0.13523684519790344,-0.0864366066041903,-0.18831707217730226,0.12961960437330663,-0.12483372634032108,0.07127854062790873,0.09893287233094594,-0.14950969567329267,0.06828089951267438],[0.11012492751860274,-0.0693306563624411,0.07031423975674689,0.3594602806015011,-0.1592126928084747,0.04665136384348825,0.0743608533047388,0.024037321558306596,0.04282269212274942,0.35875749633644244,-0.11035651043013828,0.11953964057637656,-0.22205912144761333,-0.48769479665064297,0.146539092343289,0.033145491311458164,0.03156889780417285,-0.18801793013882398,0.10279591733764244,-0.03371433401660351,0.16800611290571474,-0.26281871331160545,0.5194752351225056,0.12302623795688691,0.16442914713943305,0.13291579494096295,-0.049007264124681205,0.3856915977689158,-0.04421400949128548,0.14896139400878317,0.12949492869489143,0.10320543598471076,0.10191393566335251,0.2648665166839759,0.39837619708632366,-0.19379674284291187,-0.05603172424364988,-0.04759147202869557,-0.19234240908396827,-0.4835571101886982],[0.0723901997162682,0.24184089980230655,0.3093188775720761,0.2805386821588306,0.20850576139204569,-0.19198386098766915,0.27582825693968316,0.2093531942043807,-0.008759017483214629,0.17496530764422272,-0.1567877491545491,-0.12197309789544614,-0.3290819268592713,0.005367560625889264,-0.25175467792723627,0.012572808429602456,0.08057693712539679,-0.30237418475333294,0.05214824462935025,-0.06355101446906208,-0.03597695259094677,0.047102677489015865,-0.4548251632409659,0.030123911349170696,0.4672887659503202,-0.3248752660921519,-0.5285624079698255,0.1983185190896351,0.31653410322706405,-0.3047031523396438,0.31164410373273066,-0.3135418544688108,-0.20943597595944563,0.15182150428344873,0.31693396945370234,-0.029774887028866964,0.2105749723965785,-0.30110212047186025,-0.0004455748133229912,-0.3352738899847281],[-0.054323670899667414,0.29511515418860484,-0.24507668555418166,-0.07970625573139528,-0.05291004010425859,-0.2333567328742699,-0.04165890833962721,-0.0822326083218465,-0.15316269326828413,-0.33771364846831814,-0.09961667136751468,-0.07886914326320066,0.003991692223083279,-0.1444022417619138,-0.04719949432420972,-0.03224069516787163,-0.07016996928904237,-0.2465255068154993,-0.18217167108319193,-0.3305324426096147,-0.31337034090891314,-0.040017021952791665,-0.3130902667693605,0.10587219021870836,0.13575754067671164,-0.33113335332391786,-0.17320135441795015,0.1030717534304892,0.24847647759332092,0.034444488379915386,-0.090712930633434,0.2240949088374946,0.3768217180508863,-0.08800564759960676,0.22523142804826077,0.08529368676855884,-0.38192228030490705,0.12757669436706992,-0.058471769803227214,-0.21488220344443815],[0.14148314519386818,-0.25619967169830843,-0.5956273647686244,0.24157283650608422,0.40470597040502626,-0.050751827393496055,-0.017422115797896265,0.0791495243494012,0.18436141154055105,0.09169274219680673,0.17532358721551947,-0.010236749916623433,0.05214805369550901,-0.049957106136417906,-0.005100916398558822,0.1166658677805445,-0.37630161226461933,-0.04971418934664967,0.42984482154708065,-0.022605931016470793,0.09661424125246719,-0.20628431058432184,-0.2753486417362842,0.20065209516173788,0.11592023613895014,-0.07959295819304965,0.004369451129466739,0.21867152755692737,-0.32642487078582855,0.2544703630396319,-0.037603097240449496,-0.2944453803663837,-0.07689907351588393,-0.064784338345537,-0.2784871228265764,0.18293805894095774,0.2705750064089068,0.23590410304052506,-0.2528708502776941,-0.13650216506188412],[0.34703699452060055,0.07096238512443487,0.07856735746522492,-0.3341685617427912,-0.28728476534935,-0.253314556857934,0.07066539559887774,-0.34145975846228255,-0.1221815021212116,-0.3031154384760577,-0.05575010675962262,0.11829245985569359,0.08294472185658947,0.13601869692721302,0.09521703238409228,0.2796098454556691,-0.15196327975536772,0.29673540135723925,0.3357321184546565,-0.11208692091441491,-0.329502240378538,-0.5787059826018288,-0.5560748070157221,0.055191487009995065,0.04774488866737861,0.13247399526311043,-0.009964323583699364,-0.07341242528532035,0.02580762241379775,-0.14652963672366234,0.3037502007017381,0.10928517178431274,-0.05902587821447397,0.18634466429446656,0.139309525718918,-0.22575103803567725,-0.046752517000287805,-0.1560796985566088,-0.3666829546322221,-0.26804667264991516],[0.06608862993002995,-0.24508863144417847,-0.30805918241523955,-0.23797541314254073,0.042559825981981034,0.34572779492533157,-0.44457289886123996,0.1646802446448519,-0.2342766255142273,0.27802157421922635,0.21832521666441745,-0.03057981629539868,-0.4539028012589184,0.2557527020598929,0.07219943957504779,0.23351166172612114,-0.4542835753914236,-0.19977605219068972,-0.016783478653374206,-0.030711844853698295,-0.10181632196034851,-0.11350849397333224,-0.12794653874291573,-0.3514463214201814,-0.08297324891980862,0.1457639583160788,-0.41909810865072156,-0.15709440090496773,0.20576817828955973,-0.020324273491643285,0.11025381724256972,-0.032565005068766806,-0.05375547433906956,0.009983435368312005,0.17481486933448406,-0.06581298827678823,0.03566725827966685,0.1535597714918728,0.10375041812019864,-0.23591522321913538],[0.11818261173567363,0.05580564188897631,-0.3362621621162883,-0.15240036510806093,0.01952292961108018,-0.25262459472496657,0.05053691263621343,0.46740515310723946,0.02984100875359197,0.06301654581123689,-0.010499610536109372,0.031691433610658515,0.0342384863545465,-0.3565420634986658,0.46844808705247265,0.20032430422911385,-0.05775752295474146,-0.06195095788494617,0.21699156012160867,-0.19673494709229472,0.42612806919115087,0.031082337769120505,-0.09566453013425016,0.3608752729009144,-0.12260054487105973,0.213765928386987,-0.11772836860869063,-0.12235783963799858,-0.2643602823449739,-0.23553111421109887,0.03648664770401394,0.3256078786912804,0.1745336401845829,-0.12300424851121955,-0.1886936505390583,0.005996707758628622,0.0010238200771603978,0.2922486247142494,-0.35807720476309707,-0.32471353983979395],[-0.029590926174125814,-0.2049529287713911,0.11259591551869201,0.2026131119345289,0.020125781033908066,0.04507899445640068,0.263171425248251,0.04028077937018759,-0.06423454776979737,0.05092430533563547,-0.29031251051658125,-0.5294256552657355,-0.2909215406663715,0.012435877467683931,0.2825929637293468,-0.11916282740675456,-0.32326810460922945,-0.2734703813316728,-0.48367209859372795,-0.3361668625262666,0.09494991465277937,0.28419059820566067,-0.10095950761522807,-0.34502108375199914,0.30936196568042024,-0.0032614390659253256,0.35116373339059526,-0.29828576550156527,0.13813492157338947,0.006332168540308665,-0.1464230975602345,-0.17496266796880824,-0.007865923818379916,0.17617259266618585,0.26378606598379595,-0.06443936249408579,-0.47268178207873307,0.26982003306685515,0.16435650848526037,-0.059220968624759895],[0.10295191472930512,-0.31595119750744444,-0.22599097626168868,-0.0005150996569995847,0.3267232820559075,0.1658956569722197,0.054743704555993235,-0.15798016795068937,0.06249432792481956,-0.04118259055619473,-0.2639297493239026,0.17773377486854955,0.43681956405195926,0.3014240250321268,-0.3166331983440601,0.2643133959998688,0.3069530097450567,-0.16935541774404794,0.05582438548285695,-0.3467806356855524,0.1491139797451064,-0.20907057481805796,0.12152314849265368,-0.027551951309910144,-0.059620590884794,-0.11158518662670194,0.046693168744038005,0.06807359962218318,0.19138049527319412,-0.297535077980378,0.040887875658853656,0.26060198936617,0.09893251865030046,0.39857839201847295,-0.22950843639018614,0.03700855541780512,0.2758021638800522,-0.315113842349277,0.3649702451222679,-0.13352539264291674],[0.0463128541875915,0.36587033438361305,-0.461353031792207,0.544621528124501,-0.03073352290850595,-0.2176761021665346,0.04016957622108501,0.13601768953489468,0.4569471514689455,-0.396903705973364,0.0706657523334295,0.25495870400429604,0.20893579772827642,-0.09800788586943301,-0.15915970432689738,-0.04664386144882776,0.13380913273280376,-0.19579887431031118,-0.3718144432488646,0.2794304175066096,-0.17286314995942087,-0.11855037322579876,0.24338850944511975,-0.10246254512292163,0.21527603216452468,0.11573216226092964,0.12702295808379632,-0.20140624572358817,0.2649539271858057,0.18803174180517862,0.21487323723093604,0.2000492794247012,-0.020073449303297103,-0.28890543240766076,-0.30868547045399236,-0.06351365399077841,-0.2895526082202261,-0.13964983042909834,-0.17515063120714117,0.3128291691052476],[0.07004899329784714,0.09476383935373212,0.23606134344939222,0.03323194834650639,0.5639226021697388,-0.014724209075530403,-0.24430910091530575,0.35748395003830236,0.14263454556775462,0.07287196830682721,0.2648132802557063,-0.017586430100467752,-0.011088225121607231,-0.15150173716754897,-0.4338468481957465,0.1619567390648547,0.0849271606506806,0.34152576793218403,-0.0403076389068098,0.2766528336004966,0.1964600307222527,-0.25015687639471484,-0.020097504035730743,0.03998008152615287,-0.0025821943304002865,0.41760344820115763,-0.08249788643937161,0.1297166090889983,-0.26266703053095797,0.20576519859455983,-0.03924212547754238,0.26715344966377275,-0.02273938968948396,-0.17287181363904291,-0.09674782587368747,-0.3413132708339379,0.22154616659443316,0.21603618625941406,-0.22351365211452368,0.2521520896388601],[0.2700468765102691,0.01624612645739748,0.0636421420990767,-0.012142126584585813,0.023690365625281595,-0.3545577893904791,-0.12644225473866855,0.03733005217709201,0.42549706231411666,0.07350598822099813,0.44143338480083294,0.05643658355644626,0.02460864371057281,-0.07417751787086363,-0.038373362812744616,-0.17592690515964748,0.30179315996913736,-0.02361675813381317,-0.09955742929750333,0.10190620703702614,0.019191979394224318,0.13092969425031933,-0.04901243925969567,-0.20397360118929245,-0.1130867517820508,-0.1682990835669917,0.048154268469337735,-0.10757530046093922,0.08618570812185888,0.1541139005634118,-0.15838528193201018,-0.27930498627320377,0.4014563571812945,-0.06738839128019225,0.07004561671943751,-0.30215376744541467,-0.032348698430425815,-0.15132050680881426,0.1134909885061994,0.32175339073454456],[0.1569178411901565,0.09956534980836422,-0.22455584516915927,0.09256424167661256,-0.04330406954103752,0.11698545141679328,0.5043656651586859,0.1383715552863251,0.13679599759238723,-0.037251813404684364,0.2119777408175767,0.20791703400711758,-0.011642725150766087,0.20116054934593725,0.2298079498986059,0.07279555319466724,-0.10232507664149576,-0.008100282511659243,0.16167131571148036,-0.33466907936458123,0.05899321953749429,0.33697582191451325,-0.1331717738839169,-0.0009024319799352393,-0.04289664929720144,0.26928868430236697,0.07211518679595752,0.07873295025467972,-0.01917145546204832,0.06227253035865335,0.18857544672671658,0.06167578015344291,0.17704913099373737,0.2508722754091213,0.012128041726626529,-0.0829109090989254,0.13649655615558637,0.2057133957160418,0.017702793015248824,0.09827772575137694],[0.15689097662130053,0.39131831787780386,-0.1659514066853025,-0.038566794505524804,-0.3043205023639576,0.058618718882369164,0.22710191085504153,-0.08597507331312514,0.02237278621597248,-0.14977884250240994,0.20825718110437239,0.12621228949421603,-0.4389254006337088,0.3299613602216912,-0.21441604338290443,0.301587778732194,-0.23524452577152866,-0.3092975864680505,-0.24953940546801806,0.3585377436993865,0.09477437408416932,0.30797851941095333,-0.2619572030648788,0.18707811955351816,-0.08367396389332463,-0.047101208888869844,0.48207205595538305,0.1327012665947228,-0.15601699781458742,0.3457670650856278,-0.036639299570866674,0.21161656035866044,-0.004011802961582767,0.06487078279698005,-0.2618441814317295,0.12486487559115095,0.05572043049202241,-0.024746923661391168,-0.11115906369208794,-0.5586154023523491],[0.18512044011089157,-0.07257155331772325,-0.02026314686278638,0.06097514642096408,0.27836563609344184,-0.5195422463122743,0.05930640035739615,0.35787182730995803,0.16369810708298632,-0.014734824581550954,0.5607535314157612,0.038519172426741105,-0.18025661212699157,-0.178457782250511,-0.2963625485810696,-0.47028321496049325,0.34396730561722166,-0.23717738775452,-0.09909706998464755,-0.23561044610717116,0.018812027011384423,0.16783711992480008,0.0650984812124325,0.008200826264728525,-0.11838379395925389,0.042184053868790705,0.23071473376302196,0.24648360349863438,0.03384375827747527,0.1251465925718182,-0.2503167137653597,-0.371529754236967,-0.2732145904183762,-0.2342989966868691,0.049872235993978276,-0.05964308095311327,0.0672159269141075,0.20777555640434056,-0.3332295566835053,0.17721593529350044],[-0.12625437063444353,-0.39464127094566515,-0.42929971416073576,0.17049757396402448,-0.32546158748751924,0.21003916836603487,-0.08372361124084482,-0.28658106087295643,0.08179820860570831,-0.04975580765018636,-0.2435493897766775,-0.30426919213604076,0.280260883746715,0.12221899270893104,-0.42744166068386297,-0.07446640212280584,-0.05791916011302778,-0.054405170902523434,0.16961078089490517,0.03294412210517758,-0.23146940943691274,0.3255520377044249,-0.08396907906987776,-0.24534644774849762,0.2478504900627625,-0.06112595730552651,-0.17644274684730543,-0.2874621225874568,0.18959968511953196,0.07604567014210406,-0.12332325400547298,0.20262542483616763,-0.028301713764067093,-0.03127341724757496,0.17591454389115652,0.1963350036638608,0.32145484712997635,-0.14543681520418508,0.11538983381606865,-0.06731290896509048],[-0.04094308656547774,-0.43085161315445775,0.30622514808936224,-0.01301084483052918,-0.11269407779320684,-0.33307734705370007,-0.25161945723007517,0.08019411620516452,0.0767365836057618,0.19537835598902153,-0.24578500000590392,-0.11237391641488878,-0.0552376846787129,0.3396376002505632,-0.06065279680656392,0.06033611299014979,0.04553062880723083,-0.018191828890707057,0.15431609124449086,-0.3021434167834622,-0.3957751509373184,0.11437868285926672,0.05470228070357715,-0.16921949846553683,-0.24420634139997205,0.38896242248739116,0.30357212492763297,0.3590964534313765,-0.035414473488190254,0.034578137096285044,0.029932063673718937,0.0412017242935631,0.19942065920954652,0.1997379597472506,0.03755554604627458,-0.01721519937237631,0.09554459059063708,-0.15184578803752552,-0.14547034610878468,0.015081625819909683],[-0.03733504179617314,-0.2345189254507134,0.009849057644457593,-0.03309522414394486,-0.09001938376555618,-0.2554603321899937,0.22436551560799892,-0.5332356444984968,0.16831652647969542,-0.12040818656464042,0.168236952339461,-0.23929826430740875,0.1897500366439177,-0.2394482145033579,0.10743881846690756,-0.1175967476576944,0.27631075533636695,0.18306018848998587,-0.3747892008302315,-0.02002465860745184,0.09700944540712186,-0.06623535920673293,-0.24655047477788702,-0.18152845832571612,-0.17211295328334467,-0.13289162208777586,0.031846495992692896,0.26144981570943115,0.10392462143528315,0.07871421635715847,0.027401457671218432,-0.07566102970177496,0.44818160710840405,-0.28445313834316943,0.1422268105475905,0.24524831024464572,-0.5909697836489235,0.24649756785371746,0.01685381757673285,0.2808871872347237],[0.15262638534934114,0.15810632641331468,-0.004524365763654486,-0.022165552796698018,0.4506285853237,-0.07696188219628451,-0.4354148579861955,-0.20649609993831514,0.1928507490777447,0.20962292609076166,0.018359511455714905,-0.35825791962810116,0.2858116926668785,-0.18334410265610507,-0.3186173549510678,0.08082394934318848,0.335743119510737,0.09896379490745544,-0.030709866651117135,0.02137385852279837,-0.05866417496054013,0.2960096173097021,-0.1541554174274684,0.11683322405693218,-0.21061673002610753,0.13064305327660913,-0.07607248941437554,-0.1796130574237413,0.21625268833987313,-0.10440370541750353,0.12595488569004593,-0.03157546227577185,-0.11766700013795003,0.04896380858268336,-0.07036236616035851,0.08826762888102864,0.12437706664143522,0.045368568829354555,0.14461572799316014,0.3161488697108869],[0.16880373372661342,-0.1123653573768585,0.14137018940200824,-0.18535595784081865,0.06916715713419753,-0.1519007454383209,-0.2732741344784714,-0.0031574384213902476,-0.02226322566563338,0.5023716756084355,-0.053181030431548926,-0.015283507872393132,-0.272064722570612,-0.3647121585850596,-0.09766868623447125,-0.26601386963045204,0.2250620608878449,0.22902930371975072,-0.45398019061609207,0.28261024599236606,-0.10481417725376879,-0.32600545912723367,0.12135780715193885,0.08948810246920602,0.26613389102293306,-0.2136754574844275,-0.2317695576566294,0.052262243862189375,0.19800775642372767,-0.12466150923124586,0.012478788117060949,-0.2738440934132109,-0.10940479866418587,0.2649599178505087,-0.1786866520813286,0.14630057829536014,-0.4973968283659519,0.42931620709333684,-0.3919536259177409,0.33504605986525043],[0.42501526347183205,0.1961120099686941,0.32012323853237024,-0.034967717174078525,-0.1455778748996047,-0.037475843379713825,-0.041322421179114374,0.009142256116340064,-0.1423433704253268,-0.554888214982172,-0.2065720331098893,-0.09978717893106706,-0.17897431592828722,0.10132998043728673,0.1564687652788212,-0.09316519357702369,0.17409517396128088,-0.007759198453041238,-0.2329966055832292,-0.06546097980896254,-0.16259770574621646,0.013190813313855687,0.11784044948393868,-0.1541384458908886,-0.060513177685932854,-0.20901694004484297,0.013173455359316855,-0.11865537129050502,0.25764114959229545,0.2359341501540529,-0.1946077963475772,-0.051251187069366544,0.11553495968749464,0.41733102962814994,0.17040996769836148,0.14403225470568476,-0.09624855681037287,-0.253892399060145,0.2964926546277111,-0.041356349890904864],[0.24451480641398554,-0.04139001708974516,-0.07615126810757182,0.25947573711809313,-0.003716572013714059,0.20981301824409437,0.3201807916722842,-0.06318479147671208,0.30252893996055186,0.08877329175489607,-0.13548782587317357,-0.2077671139201566,0.2715345398107709,-0.19175637179518693,0.022328806497611375,0.309259997721551,-0.10347985516366721,0.07587569976759445,-0.03289022972668762,-0.052774600275043826,-0.05635108092664841,0.28658901007678117,-0.4210493394239944,0.04257246983324609,0.1880084101369858,0.15906978395673618,0.2898174014598589,0.5813175134276098,0.2967214191222851,0.17936215083768403,-0.03655791178227624,0.3392970066311424,0.08583408284239721,0.4740216156414043,-0.2956752389923665,-0.2189490960677664,0.07793451472193884,0.008290260109643233,-0.25760372965404016,-0.14565094601583323]]},{"inputs":[0,1,0,0,1,0,1,1,1,1,0,0,0,1,0,1,0,0,0,1,0,0,1,0,0,0,0,0,1,1,1,0,1,1,1,1,0,1,0,0],"outputs":[1,0,0,0,1,1,0,1,1,1,1,1,0,0,0,1,0,1],"biases":[-0.5252916272911152,0.0903615235386199,0.07991328296444117,0.012314212847174287,-0.0037130125750820184,0.33779818288749797,-0.08355197130148673,-0.21412874735563986,0.02795380371209072,-0.008081188844334702,0.15338432591074808,-0.000778552308625835,-0.05674194640281177,-0.08312012225179496,0.07793302188295392,0.33788824181273286,0.3286035727954235,0.40962943617349623],"weights":[[0.016689195386987377,0.0424399144497347,-0.12392436811809633,0.2207289846336869,-0.30812400232287285,-0.28018187836327907,-0.3148680688436411,0.043446684596724613,0.2676033559236764,-0.42375196139233184,-0.41377547246330226,0.2580185912716706,0.42775870653720305,0.361191163322546,0.0816615541124644,0.5450649968107941,0.038378029762409255,0.3654212097122437],[0.037546062515379675,0.03648896288520853,0.22664212126781097,-0.36865013512077566,-0.37037253520223357,-0.054500353756119724,-0.24833659192824686,-0.1918493487017935,0.23165773398699907,-0.05773845495493096,0.09541274873106201,0.25210588803801254,0.1411962696086428,-0.09069417147646862,-0.11544029296258022,0.25221737610452,-0.01499705208517671,0.19831343554114345],[0.08101138746520976,-0.0729594449840656,-0.18928350661209106,0.04016023788607195,-0.08963992233098535,-0.3834007456246034,0.2231791183147186,0.02082544617362811,0.2315359642529409,0.027016307202627488,0.21104373969158033,-0.1312924377045322,0.42727665537956244,-0.019989778889686206,0.31972030009737823,0.23135597549068548,0.062097857963349046,-0.08730806005074676],[0.4014762416581912,0.33546501943966006,0.38267319530619315,-0.22922784510343547,0.36424032177689186,0.04250088933837498,-0.34769088466030035,-0.102971199073635,0.33051304312565616,-0.18860973615672785,0.39070199420950025,0.17162193397903874,0.2687221580451017,-0.0768126961074751,-0.01119594343843594,-0.029181784275987388,-0.24218120725149395,-0.021146767611569542],[-0.03547991365558469,-0.2076430340537878,-0.10926571001740892,0.319033774265256,0.27197666132417314,-0.17351495451459845,0.11618439127740421,0.14899149641306064,-0.23470111325991586,0.089788557034085,0.09328004238274532,-0.3858542018534986,-0.29761630633863967,-0.2541588938033248,0.3674253863819641,0.2745760376326427,-0.18534180079071605,0.4657293629564436],[0.3223682355137832,0.11519265230889456,0.0705855670841671,-0.37768413864377953,0.2915943029375987,0.08378372618217511,-0.10330163556030375,0.24154210140634258,0.21798351249317655,-0.02606662855177294,0.06498617420558869,-0.19964266312249956,0.19004316774087532,-0.006102406591437681,0.2236846364253479,-0.10486262449862326,-0.21862424814194295,0.15202633058859655],[0.384906575492052,-0.02527494888803261,-0.0397757971224329,-0.17508216420776485,0.1976153716142924,-0.2942098648296546,-0.0791876862882421,-0.12517028033764294,-0.05549984484616026,-0.03233109577049481,-0.06891386093650362,0.2987207703942706,0.0236290770903842,0.15978697853588036,-0.030704261316332707,0.4304774637806851,-0.17338012640617673,0.19636900639157176],[-0.08939029111289765,0.06453492413938842,0.04151124599199536,-0.06095841697709484,0.05074099252343517,-0.16526497981779703,0.14089917654801343,-0.12120079561077915,-0.06686329482184844,0.2918965736736558,0.36268801214726365,-0.007397448500494314,0.1690805657810513,-0.4037154002633278,-0.010695508612437503,0.25470254043843693,0.1559661715968579,0.21856059876970954],[0.29055876150569415,0.062282963845760084,0.079797010216421,0.3319337918115726,0.15736490835654193,0.4208216554438349,-0.22967483659334742,0.27248632291362407,0.2194287929247436,-0.10559055429745501,0.4403652435501796,-0.050345527984170274,-0.15557366349993035,-0.08579304372151988,-0.03662680318679801,0.04185424523469114,-0.13940966398966365,0.042729475122317895],[0.08906809108289987,-0.01777154815253458,-0.3815667385800323,0.0750020518298177,0.3058685787550792,0.1400607919210694,-0.14339999302456918,-0.07513818143666717,-0.01971489071376739,0.18662827568513587,-0.11957674522990386,-0.4079151666172885,0.04322305421776591,0.21236793661389258,-0.23795752194334416,-0.36085227681867094,0.4678378711752209,-0.16705742836816867],[-0.012626375307413867,0.09390854757979561,-0.011664100861380339,0.11122644963360856,-0.058891090469413515,0.09177866685212771,0.04124183582220616,-0.07910898686855125,-0.08792996763431249,0.24839098133554038,-0.20624807532699935,0.1294732032577492,0.036560445355494,-0.20169438095105896,-0.10006842833235464,0.14641271833569927,-0.20274648216693492,0.06100402821092725],[0.15982547312907772,-0.10938465148107243,-0.09797176045586053,0.13280812321491856,0.18300492853718203,-0.1616444943165447,-0.12022521549700009,0.038507379774262995,0.09912154019813901,0.3207933048850463,-0.18231309541568932,-0.005743101127965902,-0.37502258722003246,-0.13442844612201893,-0.1174562716049431,-0.09834339941211456,0.18979508630284297,-0.14368180644598078],[0.08608478529651042,0.3549150778931173,0.07276730109737867,-0.06941950859674471,-0.5300570220131205,0.10296300824641166,-0.1377021870769572,0.18165347933233084,0.18217451103631577,-0.12537670179927843,0.024788197929712208,0.05791961342307336,0.05802069713026198,-0.021426423280341056,-0.029851185765391752,-0.2498489013840882,0.16817927142111275,0.20297698934647013],[0.06651798058989394,0.06809312438085724,0.08522951630894228,-0.009015621251741518,0.03186182803431592,-0.12590477677186118,0.029755903648765,0.2679024680637752,-0.11237400739449922,-0.03267564205261886,0.43157196278969057,-0.15364514953551986,-0.2824715598071146,0.40522865567188915,-0.12263773650849266,-0.0752051077631852,-0.02187493676592761,0.1229684976909547],[-0.10411380603122611,-0.47018080365992976,0.10238222244714287,0.06476612073107484,0.3457552094174646,-0.055326302630062725,0.24385352540625999,-0.26521280083306764,0.014164927628971202,0.37295530926883114,0.2364859291787056,0.2444357596093402,-0.22116895524697028,-0.13900116504995125,-0.2188561576564959,-0.38386827791573247,0.2811426048928967,-0.033812903188711274],[0.16677782825378215,0.1635793638701637,-0.3086526672594354,-0.16563258517357382,-0.14689247115591547,0.27325216730488744,0.053545565480003735,0.40438691047672715,-0.15843072187356483,-0.05525607160572715,0.20480886745208324,-0.03450755164094911,-0.1874712483804146,-0.07112520684687335,0.18463181508337462,-0.010500065173759787,0.1235365442065437,0.03086547911577911],[0.14818373926273845,0.06508916381981741,0.00934156082612464,-0.1393235099039073,0.23277600901591877,-0.11198335845330398,0.005096464432248593,0.13276984769334424,-0.02090741054579806,-0.34387072020874115,-0.01396497394868701,-0.02669588529976416,0.07401019048251152,0.10914412654698341,0.24743522934044127,-0.15777939872870017,-0.25567414505122577,-0.19510900789956584],[0.08021444048624052,0.5228274484804295,0.1382568052941408,-0.07705683212479085,-0.054706209343844694,0.009138277373469894,0.23518882462718035,0.37227402365309425,-0.07850273957877453,0.11386127490233912,-0.3814625358300762,0.2934002375878286,0.010270778805560765,-0.23140289078871357,-0.008979205600730643,-0.014004011414654516,0.014475550642422244,-0.02271817082531777],[-0.20968243230681544,-0.1695924312582397,0.19463084006441647,-0.35434859927568635,-0.029829327643123627,-0.45424644168985007,-0.03599304775207025,0.43940894464456204,0.05514138784947048,-0.24064373958248067,-0.026532362999235476,-0.03739350694951593,0.11444192255845767,0.022647106181950205,0.03491750083967085,-0.07824724447712017,0.0723174654610651,0.28097871218236836],[-0.10866158419301652,-0.2390758853676826,-0.08779647729230655,-0.06126703392564453,0.13484139555716693,0.0770463477136771,-0.065505535952949,-0.022185312196772333,0.07889465823277243,0.09971627126886473,-0.04623017523908843,0.24943485513608038,-0.2321487897389032,-0.3091504664458283,0.1431275599645958,-0.08730855295332601,-0.24536987716227038,0.09108195827880516],[-0.13662590129881108,-0.08726993128386318,-0.11405183922454792,0.24547542235263323,0.05732270920639093,0.28594936426549333,0.29012576822675973,-0.13311092376340658,-0.22596900725483993,0.024627484788300402,0.07480335554438508,0.07803513052239158,-0.24778410095774356,-0.29908697589639227,0.01882200362433492,0.06878743485818095,0.22408886853312807,-0.065073213051242],[0.19654630528845785,0.027737330182117048,-0.22893712681194772,-0.040460419231718704,0.49012837305694257,-0.262605637312936,-0.11948905806145829,-0.1562358627071852,0.13683109968699045,0.40582350724645594,0.32877473676408864,-0.11332506077533167,-0.285653702210489,-0.3184054201271501,0.11070727713519941,-0.09091535024145014,0.4156244400030347,-0.3026212788307998],[-0.32990430246563623,-0.18157795359660112,-0.2669374146300215,0.19113978498578377,0.3528180176968454,-0.19819802387220684,0.624253532194665,-0.21083427311717662,-0.04154256668150594,0.24296405928031947,0.03887472045039689,-0.15297715523868083,-0.15722320827904507,-0.21556130835401877,-0.18267995107725618,-0.09481631725079209,-0.03480829831420157,0.10587261686706875],[0.2554802052188464,-0.0655272656664947,0.187072489971247,-0.11868583561450094,0.005303687449237197,0.043006630669406895,-0.4634560106931632,-0.11837025309772951,-0.24354425235291888,-0.07570096212519004,-0.3666230162946511,0.0767900070824408,0.24861757242045146,0.18340961503746897,0.0861903002434424,0.03259206452461112,-0.09275377163976913,0.10506352305157679],[-0.015782296612973257,0.026320241911697018,-0.17978680233877264,0.4140045490738931,-0.35056179007196075,-0.2178585039443131,0.2199282315244905,-0.19490771761325276,-0.20557367380428068,-0.4098459431732724,-0.27194757597549246,-0.45265753327412594,0.146873341056468,0.06622681702038113,-0.019131083153060724,0.09183168205911565,-0.1220330054915913,-0.11025238908929773],[0.12050935439712211,-0.1997438858463956,-0.027486367907483017,0.5751195727564864,-0.27834870188947913,0.1480640380416191,0.28203497865371374,-0.13011551356262502,0.08632514990533571,0.2711667305601998,-0.030138780399141182,-0.03768953932164232,0.4702233250347607,0.0370496483835831,0.013704902632875757,-0.15811211901420452,-0.18848629856660526,-0.3024992735927837],[0.0051871723223781,-0.01663506260995154,0.08337646767056822,-0.11806453260689503,0.016590565425018543,0.003845648409431468,0.01623587365179857,0.185677926928827,-0.12158474137079696,-0.3953634365279841,-0.0231052130892202,-0.10957762879624572,-0.18622767220419156,-0.1694253671530299,-0.4659744206760046,0.06660025877374509,-0.10613007652259368,0.030803090277068512],[-0.19393286293426837,-0.2024992245995576,0.24244053270582572,0.20377489372669974,0.08312465891897128,0.005214044817113676,0.07566717741414461,-0.19164656189645468,-0.011988668968531714,-0.014083317174569177,0.3275233398842068,0.41791028723861723,-0.06460222870310547,0.24507025747234007,-0.1967761358574345,-0.3355084247150676,-0.028341085751472983,-0.18738057445163492],[0.06765569884582986,-0.409832747293181,-0.1641890310656271,-0.009529634839812562,-0.43622644060346405,-0.15506756962807755,-0.051500439355040034,0.06784871540657074,-0.21886275434794633,0.16590002344592855,-0.1841495975216743,-0.10100120385935751,-0.2895589939675328,-0.22972057509628852,0.2496268860772911,-0.25433884860119993,0.2293100614518788,0.43209600552613336],[0.043719380221092397,-0.4394903235143024,0.16475419686911869,-0.5232081171992993,0.03286841772724419,