iterations log:
680
ai:
[{"levels":[{"inputs":[1,0,0,0,0,1,0,0,0,0,0,0,0,0,0,0,0,1,0,0,1,1,0,0,0,0,0,0,0,0,0,0,0,1,0,0,1,1,0,0,0,1,0,0,0,0,0,0],"outputs":[1,1,1,1,0,1,0,0,0,0,0,0,0,1,1,0,0,0,1,0],"biases":[-0.16450100037748003,0.2982524744634752,-0.3169206517319571,0.0643529187622749,-0.25434360160421987,-0.19294926008667823,-0.2284832821911139,-0.01892601968019758,-0.1272977454254899,0.10999004024231836,-0.4481296158188246,-0.4178506408583093,-0.23753247988584886,0.25601168902161153,-0.34591466815782806,0.4455096313200725,0.040507936966692665,0.40925165037708017,0.33056170658927037,-0.018635776397736628],"weights":[[-0.0727020282649661,0.29090099495707467,0.4374291756360157,0.466087277436797,0.23839838686617026,0.10959493536794643,0.3604002698510651,0.15937774138196628,0.2940844629513365,-0.1626510696157853,0.08487669276317328,0.3399570620810518,-0.16563017051626974,-0.1999146779032011,-0.29428994701764644,-0.10833272212655091,0.2696913391206044,0.13279836885667304,0.33885820216898505,-0.06529289065059615],[-0.2745743742824499,0.44089095084444385,0.06799501529337233,0.42722651954106616,-0.5716484786929257,0.18238809621995572,0.0134339332645535,-0.0332595844363818,0.1447448024344642,-0.009870269210834032,-0.44210634145720396,0.1416395962647369,-0.23658190399420523,0.1444081330637612,0.27231355263480067,-0.3412804936631308,-0.31990907962095727,-0.14364083091077193,0.41439197278515394,-0.10931203196104691],[-0.20674041465717746,0.10651374952835299,0.41768550756287065,-0.03926960559924908,-0.020650141924995306,0.04584817750268885,0.019746740798113588,0.03201860304818016,0.15630647286981414,0.10209056572669119,0.041799281291729634,0.17279699192751058,0.29824291558059635,-0.3670684710671048,-0.12738540288874697,0.04938998371187864,-0.14679128744569017,0.05191864835792184,-0.2530229418316631,0.028794096045844653],[-0.024903689769595824,0.2459519123514964,0.2457068527973812,0.060176082258197955,-0.024428979387266278,0.1312994633989139,0.285230601189178,0.049995111290586466,0.0012313245328714473,-0.22145291828364974,0.23458066158360233,-0.15527822814325257,0.38777145956381986,0.11066446996352627,0.3062483988641742,-0.37558477192132667,0.0891159752080313,-0.11822106636114324,-0.14830136003571312,0.18746708870059797],[-0.18712231027099996,-0.0059049131761683415,0.29612330116453056,0.5356572605526915,-0.20568732549964014,-0.3330126551840655,0.022267072671517063,0.08884539061767885,0.13978582225687758,0.0191492211281189,0.14358203006851755,0.26527299020740985,0.18140222213845986,-0.15503078751394828,-0.25720810221684764,0.1100265474853772,-0.09519863047882893,0.14282617150530583,0.057969035726468054,-0.03397903546003925],[0.23279073891423274,0.29078170611001875,-0.2961495288969075,0.09100067299749331,-0.11309478648830973,0.01020354753220773,-0.057537167169969046,0.07293375415897072,0.023686433298168386,0.08755727289103724,-0.2118298208095839,-0.2674757337863934,-0.18561505400158193,0.02231468237974791,0.1551697332324687,-0.39281689643801837,-0.31594261174326765,0.19221612769316127,0.11275189862034317,0.17356670980184574],[-0.22014352635244322,0.06900528790675867,-0.12774105267588798,-0.21821692260644202,0.017330456565068625,0.14762409616114797,0.07115629167460966,-0.10298865671944285,-0.10227406884029678,0.1430118790040102,0.04554447154077301,0.03502404705347363,0.2841886227154011,-0.06195656843953048,-0.09913459552846152,0.16105720930177134,0.05091739065961989,0.19490371109379048,0.025715595093054544,-0.21910968397057087],[0.1182213546452755,0.3077095936407539,0.25716421126548533,-0.45345157462945374,0.1046672940189034,0.3157792586081335,-0.10554855134498377,0.4749087290963862,-0.27617611890029814,0.03259735515091909,0.04340190969975044,0.49000170926351944,-0.17016159614200654,-0.08372633872936502,0.1693574783216313,-0.37564524183557735,-0.03958786595379296,-0.3082898042183029,-0.31456150347274986,0.011817997316257045],[-0.23676564567661257,-0.3358624546916002,-0.09357873842303205,-0.16111451450181188,-0.1645537473105733,0.23429447671604037,-0.4564461463641444,0.03141672977127851,-0.5069560084390304,0.16160478678338108,-0.24139580838250413,-0.21367366117767034,-0.07849119779835634,-0.39907656995255436,-0.20935233781953372,-0.3573226839957133,0.2779061690608968,-0.4384333353863583,-0.03025764823018784,0.4383081221613142],[-0.04012018952842309,0.03583649300008955,-0.3897457692489705,0.09445775403266629,-0.24499558381945993,0.2466677528084811,-0.4020176077705212,0.017600395106548233,0.02608456715679866,0.22225129017235806,-0.09531462321614197,0.15854763678951617,0.20496853405187931,0.1918522123267729,0.08898335715276748,-0.4555694306210126,-0.4260563776943325,0.3437558231692697,0.2549497423365308,0.17664318620938746],[0.37518047867687687,-0.18059738037856482,0.08967285258916986,-0.02625823952756484,0.3443926798601902,-0.29198179069721414,0.15945593316688877,0.029550562810159373,0.4467353500725907,-0.1368955946103399,0.4431901200448803,-0.22077730405233634,-0.21873600059793816,-0.19489587917005474,-0.08764029981542872,0.12556098772356886,0.2159065355051002,-0.036292011917660016,-0.00999453444560272,0.1494470662287044],[0.004955919745019174,0.07226166840291816,-0.006095585040737081,-0.02961524701083597,0.00892001079889665,0.5346814620048177,0.30995127687398355,-0.09189014497976061,-0.24721280665792736,-0.40452503130845335,0.2805307420212564,-0.19244717042508652,-0.13210956213976327,0.2948287446764038,-0.004570226661585602,-0.33339457863717503,-0.31127166272555157,0.16623177475081602,-0.24511960073688152,-0.0738497093959472],[-0.23888843136847265,-0.26368463319664687,-0.1901948863145643,-0.2208060590347106,-0.1867171139486859,-0.49290277313507447,-0.17367207625977826,-0.37475386449481185,0.04407023738855184,0.3555146223380512,-0.2590875580807941,-0.13392111570284038,0.4102402558862598,0.01603807804532252,-0.024583033784383285,-0.1470637108449119,-0.1489049240971876,0.3362337746935884,-0.4293753245891944,-0.4532373350015909],[0.10563852291534975,-0.17462744395643295,0.27483403701703424,-0.41960685063708025,0.05660810576531268,0.2512670722545749,-0.292373508782941,-0.08462267195916295,0.07006735596944763,-0.01854285070244946,0.07740968024872044,0.4540681193399811,-0.2198136447694464,-0.31044077972993733,0.17228117072218627,-0.28363578369051856,0.3883715216682616,-0.2883844525409702,0.21036234670718237,0.0015741485906924507],[-0.3025071014265266,-0.09564419015558381,0.3577288215554437,0.04408099755181534,0.010984332968661609,0.2611978195384695,0.24698454993538047,-0.32648169970488966,-0.1115107444266784,-0.19260385439940958,0.28237614479643025,-0.14359103432348236,-0.17975578172908435,-0.12907345991047822,0.16414847164793106,0.016611961568325645,-0.2030439892939787,0.05307852537185559,0.17451758881012208,0.1668909409981263],[-0.4503563006800487,-0.1897743203852921,-0.09236631516332622,0.20886010054871124,0.32166366285713327,-0.4766190407998557,0.3481278732031872,-0.39608199229166696,-0.021551445956226885,-0.06127124748320874,-0.15086597546066166,0.09143649388555723,-0.016350217470178008,-0.06835171352440589,0.1995433093611547,-0.276956050283387,0.282441575624301,0.056825939140085296,-0.11066431110118202,-0.12247598475555918],[0.11575413459090664,0.09718288510095946,-0.4512087688380092,-0.08660852333812194,0.1964017378709592,-0.0928987989120558,0.024000417571938618,0.12456426203379561,0.35283478722904366,-0.1480891339746898,-0.03572974350429668,-0.6394242814214239,-0.00232791873337429,-0.4112639797736315,0.330112141219549,0.023434815746803755,-0.32515063812723866,0.0935768149984727,-0.24969968029932127,0.04772221854381344],[0.002234819534852703,-0.07169582171603217,0.2547727839842057,0.09446316425633045,-0.00924110931201079,-0.02099171114620829,0.125032723662664,-0.32768794105019206,-0.2623942980908375,-0.07781497682990104,0.11963626682591891,-0.04846834337129023,-0.12309339794963861,0.00015886325038461102,0.2121552940292594,-0.2866277913025064,0.025899976186853635,-0.4589837267748876,0.1376172660137354,-0.24614034503817128],[0.11572780860332221,0.019595417763272505,0.2646954618355828,-0.4593061875367921,-0.2866732046141128,0.12326201423966973,-0.21436990097477387,0.14704068900746453,0.30599684712468606,-0.32308559141181714,-0.18398742965097004,-0.03206803322743218,0.010319636050090009,-0.008699358693852521,-0.11494148181289107,-0.3171891352686099,0.22678211444979854,-0.08744941111493582,-0.18154034878693553,0.3365368258613229],[-0.3580422238058093,0.19566067061095102,-0.05564237158152766,-0.21146669011692082,-0.13671346300391346,-0.14057674963891265,0.0776913134434418,0.08634285443620127,-0.10561996918775668,0.015804521068824906,0.11426980686318017,0.1550635924834654,0.14207446437180668,-0.3630951107640066,-0.2242839736775333,-0.04093009491183394,0.07979142705477699,-0.15303241487247865,-0.473516063852274,0.39937614867040294],[0.143455796396435,0.248567642089351,-0.18598515227883156,-0.2342515266532513,-0.10059033237292356,-0.06905973027202691,-0.37782942134866865,0.2734553382585108,0.1643771053438332,0.02147340203315068,-0.2567096454372595,-0.06775867098484754,-0.2782963178167456,0.10661585619519487,-0.30757720324580434,-0.22739006755138463,-0.5970329155941557,-0.25170126413474125,-0.2693719298633418,-0.09948635402502998],[0.24776679915247973,0.019904094032767494,0.012572176668878804,0.2459072537313464,-0.28449542468377836,0.18144043375192198,-0.5039771416583914,-0.044858747480821394,-0.23220105397902716,-0.15852293633507436,0.005570624046474709,-0.18054476004342332,-0.07002067886543832,0.13769457630535972,0.13614948200567967,0.27896336259303306,0.3845452149120809,-0.4384813473561664,0.22999214385622385,-0.19817778894866822],[-0.24237891557633434,0.15302483990015103,0.06787917626613033,0.24898955422368113,0.37123400954371527,-0.5890282597912246,0.17491040577608646,-0.2632640538058779,0.3006284606571473,-0.1011806301263743,0.14806396626962448,0.21281311732434613,-0.07012950034352829,0.25378148035789233,-0.03093438152551635,0.10707518449150494,-0.15775150046941183,-0.1489652267487135,0.48449769935017484,0.1023145765030968],[0.16125390470319292,0.10054949021542178,0.31444541735207415,-0.15828830556040138,0.24289860310238315,-0.3325283833893059,-0.4409961046656665,0.03343383539122341,-0.1621759527775236,0.030751095718291904,-0.4101375722014563,-0.21957337000448612,-0.10421043136519759,-0.21740802810613555,-0.22098290692945027,0.05716038098805282,-0.1469634657580482,-0.048508676599611944,-0.24769269569321442,-0.06937584640072589],[-0.24378263274258283,0.36771185397192874,-0.38772737624232184,0.0002573383576508492,0.3568038070788763,0.053222514172791585,0.35428790978755775,0.01419890292670195,0.09579462364702526,0.2739058744880614,0.47374275139517635,0.2065193711535151,0.017905952541674264,-0.11422930340132395,-0.09948889241055606,0.2871654446794044,0.19390752228444086,0.12744931448167596,-0.49163497448526783,-0.0668756508967534],[-0.06120628801481798,0.18961175990975113,-0.0627546093799031,-0.06281625931081339,-0.061663183640058156,-0.04111912200769277,0.2581653219923126,0.053116622484863985,-0.011422926435836853,0.17832425282801012,0.30358062875348524,0.16871870344568157,-0.4922772986634645,0.013155351242545382,-0.1355493357303604,0.5212789368062757,0.0545177635943529,0.03602265434406021,-0.1469188661358996,-0.22884537795377077],[0.21870958271994656,-0.03789307308167447,-0.08371507853529059,-0.20956187892382333,-0.05864003666919587,-0.1039270641491955,-0.007367740882914642,0.3808471914647603,-0.35599511521960575,-0.4681819625239409,0.11563922539665761,-0.12730438107930805,0.07162524621468307,0.352959171489541,-0.43323141573176094,-0.0015505455411911062,-0.06542588509217587,0.4047461754483027,-0.2491357015575868,-0.23770708929756157],[0.25109418575363895,0.5159272949382222,0.46582556583279444,0.37659358407212856,0.045960207453243,-0.2669359489099026,-0.36803431706490003,-0.3275209843271757,0.31814955409509077,-0.11756510197557009,-0.4416127014412943,0.24469534697782108,0.2802963551535672,0.046591616883663034,0.28188894697467304,0.03772479223528795,0.12664040031136345,-0.4342961027037131,0.03166962769114026,0.039961244959882486],[-0.09353135735997176,-0.02631302302510566,0.45416291964015276,0.04862095900078388,-0.029359332985706088,-0.05022179399599385,-0.36027521278058505,-0.4540619825391212,-0.30934008888289816,0.04086980285347003,0.3376768239336248,0.1135294383946518,0.3775089752019795,0.21533478613371726,-0.009827515541480966,0.5830707761809152,0.2686314296986743,-0.12366709363709014,-0.12482732029840765,-0.18713564771603874],[-0.029297265559471763,-0.013327825539022495,-0.013866087473256343,0.1718934652931193,0.1602514353742195,0.058534401824825666,-0.3738771012241622,-0.08269091449334422,-0.45123607234309443,-0.47476167303879546,0.014490094656971098,-0.24970545907160824,-0.18013669764936027,-0.3364839472471392,-0.48745544925306056,-0.3594338952611341,0.07889594978776013,-0.09806827149008618,0.2611978303818447,-0.12016754993369644],[0.5380311757788281,0.25407685603719726,-0.18582591514490318,-0.03105972091684861,-0.06777614043764899,0.3939870307866562,0.024300562481244653,-0.32441321450525545,-0.037824863346736126,0.1942054981708719,-0.050017756759151155,0.18729793084042512,0.2036036252476048,0.23977123379169835,-0.4065400434511737,0.11129240722617859,-0.17120095913261388,-0.45126634017264633,0.13269988049105425,0.20902107216549015],[-0.19557675004051456,-0.33920211719337856,-0.317828796584371,0.390214168218997,-0.45062418621957584,0.06758632382431962,-0.12486539733840268,-0.12126365516365084,-0.13426358474807162,0.170931062040592,0.11807064007815155,-0.11164010588626752,0.5818184645307045,0.057331059137679476,0.045382293161583834,-0.0466107467176651,0.33775182893129974,-0.22492359813084226,-0.33442688000239873,0.19078341832727097],[-0.09503629121195795,-0.2407008889336371,0.06919215242386961,0.40088349091817754,-0.15306366249852357,-0.1481790389598306,0.19023335334570002,0.3405432252187147,-0.3390477870631405,0.3560441413385794,-0.3638680857771444,-0.5575818346927998,-0.18793001198733614,-0.36170120326820404,0.16125829347458626,0.3107061893694839,-0.23026159170789134,0.5057119161305983,-0.03821853560141388,-0.026971344712496948],[-0.06803532260842753,0.05603021982333613,0.18511220611071583,-0.5075941472967123,0.15222959867916697,-0.045361401517173244,-0.06156648216111578,0.25531039333709293,-0.4247285579352016,0.22666882781361858,-0.1950161139985539,-0.02103429674193888,0.2415643839126557,0.40675704391705514,-0.0874019764235251,0.0687590011213518,0.05451022415925974,-0.4571982114924452,-0.46795749151077976,-0.026290358694688154],[0.10357436413871365,0.09995557220383382,0.128111159891675,0.3183249226546982,0.053272429489166134,-0.24508171645212662,0.09028761660266982,-0.07728646283824207,-0.11423583232558689,-0.320373609860919,0.40320569181710625,-0.01883539313253041,0.09269723765975696,-0.32285706088064214,0.45568301219043716,-0.35371283021624733,-0.16730779587730465,-0.38236336301190343,-0.11922412214947062,0.40027943741105937],[0.2352730555365494,-0.4299231167692693,-0.33107299604583695,0.09356217840262585,-0.12071028260242009,0.15457769289891787,0.0670767676417515,-0.41260056060362416,0.05124364490008305,0.0814192216238037,0.08925040328254172,0.17863620815121112,0.05875430440456955,0.595527355651728,0.15196339053509544,0.4190249721043627,-0.08014323608230327,-0.10662450824122637,-0.009917323523395472,-0.14585387136464306],[0.05048440891647568,-0.11692566127843454,0.06471203361741532,0.2128257850306737,-0.3683975658652231,-0.2870581495595363,-0.032825924575214965,-0.737852493701268,-0.19868574026794425,0.04771458837111969,-0.32260730363466056,-0.32402367982880365,-0.16023486333560302,-0.13497499727610926,-0.11860252374887187,0.15051491519269053,0.08182190306608228,0.16823169502851198,-0.1998998196104896,-0.44975989684422946],[0.12609891656091682,-0.018277871782990222,0.2661057583045615,-0.01749662942502757,0.058393658921890024,-0.03114395212657295,0.16954924628063534,0.04884963167494455,0.20350575197075532,0.04827068887074673,0.07444067811379121,0.3093143370071123,-0.0670843691347425,0.2835430162361402,0.20812583983267252,-0.15932111477422917,-0.04249597140076665,-0.18039705345149043,0.12515492087098207,0.06199588864695932],[-0.1095820072918259,0.166194563529664,0.14512953713339957,0.2026642909443557,0.3381823453402186,0.0034566871800850163,-0.05029075349888351,0.5166090329731705,-0.5700773540819193,-0.6403621704639778,0.16676457410983558,-0.43254733805410106,-0.19715873294128308,0.5483005341474075,0.05264382720030387,0.18082042573320425,0.16782683697020387,-0.10136520372092217,0.25277112338220653,0.17546996017865105],[0.11328280900197993,-0.06776740169197432,0.10542979330683566,0.05965245064422814,-0.18307405476428393,0.059184440872657215,-0.526078004488171,0.10378317172726682,0.37085118602420697,0.2707903884338943,0.19931385942523383,0.48664672950903537,-0.24131847219531466,0.06859750246237845,0.508471838235513,-0.34836846615571315,0.2465436467956281,0.1414049168870039,0.34626255326760064,0.38926955977319255],[-0.01438375812687022,-0.20043735165599663,0.29290283668208505,0.09344612920833062,-0.05002142585759908,-0.10273008339340295,0.17577765395256503,0.22488553844765327,-0.19900763418333212,-0.3285064800813565,0.20284459486917913,-0.08253683143951558,-0.18318782927443011,-0.3428842409756939,0.2741006577877839,0.16569643244524845,-0.02506020776951179,-0.09890158741777841,0.01814190908393737,-0.3246479976614254],[-0.1056688295880093,-0.016100821643085794,-0.013033417456976448,0.2807832887134126,0.10825850761202667,0.33044980133663143,0.09042252626651326,-0.14702708729821362,-0.4605586244167117,-0.3093558529406527,-0.04758897369282772,-0.21877530290010858,-0.29560904797049653,0.33194441047017914,0.16033540282875064,0.28245784437236954,-0.09372804175388035,0.5478776789319432,0.41533164832859615,0.011295373486194155],[0.2529054539230711,0.23199553814274804,-0.032980726468473276,-0.08094847051834939,-0.46529542837381277,0.21575078285555344,0.2614996856209746,0.014261907178810151,0.01158867762258961,0.03235773894781123,-0.09211884715621879,-0.0677590220603616,0.01656066418739334,0.46059311984660073,0.13612719851823346,-0.24750231284819446,-0.40503245876694494,0.048054273467850364,-0.08113961539485504,-0.5931982694808954],[0.2934881645896559,0.0763724491076633,0.2512891730486623,0.26588607357728467,-0.14862547037612261,-0.1452342646160647,-0.28706035847943245,-0.18887589493584608,0.29560469093752384,-0.19416369989987375,0.10822737245978768,-0.26742155424375824,-0.334985080406596,0.2900172296851389,0.32135840695718765,0.07688452919045649,-0.4174864220420794,0.09664794280585315,0.037955006512382386,0.4009970301828545],[0.5347153686483501,-0.04433991448075794,-0.25615844573417734,-0.13903266595998162,0.24848317986636806,-0.2565223195270926,0.2841442550205118,0.3924156926499816,-0.04982571284672038,0.02881916597304318,-0.035668904871663354,0.022401946867304234,-0.061589546972219356,-0.007773221058718804,-0.4815448502299106,0.062045876551640226,-0.2439116633779688,-0.15150929621437734,0.25933286885011464,-0.054550425488745946],[-0.20828408820219002,-0.3449193678206075,0.2654500238323693,0.3530507393310891,-0.37353858301722065,-0.14348692304903163,0.2479199791406006,0.09789713525952082,0.12800655491946547,-0.050446815297757616,-0.4010133597437878,0.2192507718421443,-0.05112980185883287,-0.19481401523991174,0.2336075603888417,-0.027825536324430508,-0.1662799650722065,-0.2819445288151462,-0.26106022037292126,0.20199576954637485],[0.20662691486804366,-0.47019708315537156,-0.35335623584059406,0.24804810681951012,-0.04366797654015324,-0.21909199688598227,-0.14713963278242215,0.036929406992641856,-0.2061933667716678,-0.3609798265759584,0.282586326153937,-0.1788156371856525,0.39975638994359114,-0.2689690492032748,-0.5793961477080293,-0.28104051691553866,-0.17661603660705016,0.21761010824507887,0.3441095465074299,0.13287658440682],[0.3950903308941079,0.1325210377311016,0.1684444200577127,-0.16717978713205234,-0.07943960105384962,0.19541560329096497,-0.2741383909852996,0.10635131054548384,-0.25125074303850864,-0.06112715284421358,0.28119439543483693,0.02853276054704701,0.007013576633905255,0.31309805008502467,-0.18346282663695151,-0.24014199729323124,0.29564438405155447,0.27977082536794473,-0.11394238121846664,0.10247708953583481]]},{"inputs":[1,1,1,1,0,1,0,0,0,0,0,0,0,1,1,0,0,0,1,0],"outputs":[0.18403361386048228,0.804933208045578,0.7326147812892753],"biases":[0.171390407550564,0.200261763874922,0.6054862923958684],"weights":[[0.07723145051934865,0.4302875229616915,-0.486844569360122],[-0.05431860519556836,0.25002970610445263,0.373842045478427],[-0.1682615001933233,0.2525603468860378,0.16657092026224626],[-0.3586977697592063,0.022353794008758587,0.3551729063428975],[0.30322991912701036,0.35152530300173157,0.14139148842473256],[0.056875104770740925,-0.34748040556098503,0.2132314154915543],[-0.1494854012269329,-0.2255743268937198,0.005713601023260073],[0.1909901482616388,-0.29479819442196975,0.12977952343806937],[-0.2585008098967374,0.5289447999365826,0.22678230958361778],[-0.11268687558486912,-0.1804551431097165,-0.08732225946200026],[0.1390950578304403,0.05019020797558005,-0.6113339588235512],[-0.03806324125573614,0.11929673599891774,-0.22092771753249563],[0.1804190533487101,-0.09439220835410245,0.29764907028599563],[0.18798398842879072,-0.18986146570796786,0.23521207010308307],[0.3024227216902471,0.11049785634335874,0.4087150908086549],[-0.1445974951318889,-0.08431849639434356,0.3128696530636572],[-0.475847121364704,0.1093253617672396,0.19056864929330994],[0.20490812552198326,-0.526537790131074,0.13363275595226715],[0.14079822359945282,0.2765458530102316,-0.5332850978374658],[-0.25826119347996945,-0.46948058857007613,0.1385656517887202]]}]},-110]split[{"levels":[{"inputs":[0,0,0,0,0,0,0,0,0,0,0,0,0,0,0,0,0,0,0,0,0,0,0,0,0,0,0,0,0,0,0,0,0,0,0,0,0,0,0,0,0,0,0,0,0,0,0,0,0,0,0,0,0,0,0,0,0,0,0,0,0,0,0,0,0,0,0,0,0,0,0,0,0,0,0,0,0,0,0,0,0,0,1,0,0,1,1,0,0,0,0,0,0,0,0,0,0],"outputs":[1,0,0,1,0,1,0,1,1,1,1,0,0,0,1,1,1,0,1,0,0,0,1,1,0,1,1,0,1,0,0,0,1,0,0,1,0,1,0,0,1,1,0,0,0,0,0,1,0,1],"biases":[-0.4909587671045122,0.3246360326750915,-0.12456431482459138,-0.1905645184938176,0.021923517113151256,-0.11825972701957149,-0.17955180625880846,-0.27691965553173675,-0.10607431626959318,-0.2786580519331459,-0.37303324174721586,0.4144383491230081,0.16954560522564854,0.04136116832119724,-0.3025638561528009,-0.39092751699838013,0.20481849449721223,0.28628803044613726,0.09481684995286091,-0.054826849760339275,0.19796640484444444,0.19492968273180825,0.17578939849862152,-0.45369818205966916,-0.02760215176567765,-0.17864868075301923,-0.09706173161602613,0.1746220529290523,0.011781664409803216,0.18490644611177146,-0.20806278954405608,0.36269589341459857,-0.14820780613923396,-0.18581428188592664,0.43257888025041225,-0.12261188956191844,0.05698764646937321,0.31261366645316785,0.10150857148217987,0.052643608029052325,-0.48466737927995296,0.036086315600749375,0.10778270027170417,0.2558259570880306,0.00246034894789654,0.049408340131497336,0.5401341064156211,-0.1692755245782743,0.18916347150269883,-0.08054431766985429],"weights":[[0.2749113145176527,0.44285675454044954,-0.37148935147307377,0.22886299677655342,0.08825828824978336,0.10841909426610519,-0.2107606235230623,0.1776430072844216,0.05004547815727785,-0.012487618636124617,-0.31584035412667427,-0.5251029271382389,0.18313694003184958,-0.2327380182830911,0.000023514842380945034,-0.3461807445092733,0.19426026631567778,-0.1669564629474004,-0.15908272504800253,-0.05970009577514293,-0.21343599259078114,-0.030207323519000698,-0.33873775562397596,0.2703869146919114,0.290041718611543,0.044820094896279195,0.2509090844313629,0.25772300280785687,-0.008358661020659464,-0.031117844401546593,0.3339459484039446,0.3018141311277559,0.11023792517503228,-0.1730934257856085,0.31155914946538277,0.02114061929684212,-0.06838640382307844,-0.3973497799649949,0.16345816870579932,0.2711192300294707,0.20644832981486905,0.3495384009168889,-0.013781920207954663,-0.3905742022161064,-0.08236671423964737,-0.09015973381435727,0.31444739896137974,0.09727379964875327,0.06103075269913161,-0.18917668316609365],[-0.4098037164581604,0.3120538902640827,-0.29726487036853844,0.07557248112332982,-0.17881734376884345,0.008747903805234006,-0.04272504019367191,-0.05334816979658269,-0.40329555871069217,-0.06334080125756103,0.17511489223800134,-0.3395576095619469,0.06288706928037321,0.27432614917361614,0.46525463083184504,0.14772390976065203,0.1829804694627224,0.2879578332533064,-0.1301495130293623,0.2581384966848578,-0.09506952046656267,0.07366823744513651,-0.19106295660780453,0.008643500733353265,0.15748780837026216,-0.4419545504116657,0.08725580825041895,0.0000502502442333852,-0.21618709019517168,0.02781363787951638,0.16159229975057698,-0.4075614232648491,0.20889582923619027,-0.4295330399322086,-0.17493742861177833,-0.15791936436225115,-0.05187369049309487,0.10165898120609772,-0.4117650780929694,0.23781504412040547,-0.07961307071226797,-0.23912082774945892,-0.012167227688409832,0.32352345286760426,0.016865492789291187,-0.010805147119294062,-0.17561529039278428,0.09165356730630254,0.19457798782739819,-0.09113245190426825],[0.07135550987973721,0.06479012786161358,0.2760787870280722,0.2056325081268609,-0.36061048114966865,-0.21315433990160326,-0.03296328315857919,0.2506853521553527,-0.32873452554866706,0.1062952714055906,0.06646531279841347,0.426952030757178,-0.12440002295912223,-0.511097655101806,-0.2436489442513292,-0.05681616974612932,-0.021780699508907805,0.07382279739083884,-0.06045345026163898,-0.0398914317477187,-0.22823190427566986,-0.012050769020647265,-0.0645175478292355,0.40635598476767076,0.0747098533502595,-0.28186659597444735,0.16376254513796892,-0.06119744558155246,-0.28280450697788123,0.19200432092773245,-0.16005545334279322,-0.35883063461220666,0.41988384478937035,0.2712264570646895,0.01804757031293295,-0.10027615823891574,-0.2565470250699557,-0.3203574773126446,-0.24802121566487761,0.10295110980133733,0.23451647294306532,-0.2772240373201845,0.2331436522205592,-0.23721658824101796,0.07177418898621445,0.07496862755035413,0.03708802745774442,-0.40873410380899233,-0.29726830734090254,-0.18371026909808436],[-0.37238300405778874,0.12344667527977624,0.2156424463109286,-0.4824154078320658,0.31868115153536003,-0.1840151909052573,-0.0361604055448822,0.23222992224301517,-0.14986873509287907,0.1890065274344327,-0.030517362174661777,-0.34427676137587904,-0.0925391344356754,0.3477608162926983,-0.1875392034185754,0.09235036641083291,-0.28145351774543687,0.2116376548062195,0.10363703943414623,-0.2945483014832503,-0.17283816302564847,-0.046802793417091426,-0.04840359496349779,0.3367003191131281,-0.16462243270789578,-0.20770400789332777,-0.08878490244220687,0.15446897102836826,-0.21442071625662215,-0.2007171167897125,0.0607018762944187,-0.3837497698486281,0.025077715859720406,0.41685596313929685,-0.4275653837786034,0.5803723375702812,-0.1656637702551182,0.08078753338987822,0.16324966850848754,0.11958227078130781,0.0606818481892801,0.25365266769681716,-0.38737409744739143,0.13564573762134932,0.032289244456138844,-0.034275374560927066,-0.30182329505643324,-0.17367074093031423,-0.25431164940260315,0.0316090252259644],[-0.16521528695507537,0.06455467253458909,-0.26887399133326456,0.4060120645575881,0.42831087558469855,0.37257707941359186,0.2959129022577266,0.08327867509450679,-0.47759577698994926,-0.17098014578509424,-0.06749839412271946,-0.3038113657533071,0.10364225247203322,-0.4161905844228657,0.0651156460090011,-0.2380860732824045,0.5438953550776515,0.27995924114465565,-0.035601911375785916,0.2360275225282063,-0.28256628454950583,-0.1802220149484752,0.4263250744342283,0.06516836068382771,0.135829511345514,-0.04023213315874158,0.20141181263626956,0.5358486842743407,0.3525080482665869,-0.24810423798976972,0.5884875443932458,0.23990668943714644,-0.3240017953168187,-0.3398911752925089,-0.2033431093013554,-0.11689348875525263,-0.06679852210483095,0.17267086049640265,-0.26808673324241333,0.11176458213238877,0.10723578250907573,0.36749967758714086,-0.1412826634054023,-0.04384876204163001,-0.3092442405118342,-0.0011485391124144845,0.11795060118186174,0.16880490296935152,0.25037031752410205,0.2599091495487692],[-0.24170103466913784,0.19412360812701646,0.3247783844412446,0.11381299816642704,0.20599301579477042,0.1780563024461389,0.22131996142838004,-0.04190403839822946,0.35898867054975914,-0.1359028193699711,0.3924441819035708,0.30673955468281033,-0.20848252679825235,0.004956256938419834,0.370846109844582,0.028449882392359238,0.15291806308016856,0.11838370331944675,-0.005119992339509605,-0.1317615012452663,0.3116529942346137,0.07665291591682051,0.32389616981254493,-0.2858104043156491,0.02634273000177298,-0.22357623201598428,0.020560988244832545,-0.2232426440679973,0.271087405436649,0.3171278992812452,-0.2333364594499113,0.03672404451323258,-0.0038379098350636576,-0.204451569513782,0.08046319093357557,-0.13352108119580464,-0.03206743414044676,-0.018447198346381477,0.035756073239505706,-0.03714889830361851,0.001646002676619046,0.09772340620357883,0.10137284664500794,-0.2232673584221178,0.13844136272686514,-0.07862245419878017,0.24342909457569734,0.32638099227238293,0.1427166737396599,0.24863557567440386],[-0.1082368756229948,-0.030662987103305533,-0.003920805268674721,-0.2648577219382366,-0.3693892787481214,-0.09707918332843174,-0.19984664793385082,-0.054212559961711745,0.03758666361740881,-0.05259486425713761,-0.07997714466598788,-0.2518625844719565,-0.08512490302918269,0.3833732511527438,0.08873101550168327,0.6933385328396645,-0.15850836663518922,-0.25356316693830444,-0.3070230393781123,0.1242267877543472,-0.4665013227691759,-0.14285399559247308,0.001133877194835986,-0.26480998433113856,-0.3060968067475218,-0.11046529982815262,-0.3927978301512818,0.38581256267935526,0.29899870355497477,0.18469461258103242,0.08585799512067051,0.011494934878443996,-0.22862479092970056,-0.121711637693768,0.20711202750632005,-0.014562637969195491,0.44161486540587847,-0.2974589662413227,0.4275653751002676,0.10694078264840073,-0.1838762864134815,-0.19622561244808195,0.3223697233727021,0.015385027704832355,0.3396843240712284,-0.14667379846335632,-0.10655258189158856,-0.12653638472687426,-0.20871752350394007,0.32193241487384616],[0.08247594679004161,0.1251911844860203,-0.004706420037323827,-0.29837840378128655,-0.006014946952475161,0.17944776313269362,-0.6467754847884134,-0.08931864639993628,0.055956492211721845,0.16024755811620436,0.06506919077494928,0.008468675171650453,0.07144001906927991,-0.14455484801852725,-0.24365296103518402,0.19622667254758502,0.3860694019200895,0.18342095731919794,-0.15051540300231014,0.06384040960326309,-0.25450944659768315,-0.20494704695761945,-0.03691417515202888,0.015521819186149977,-0.01139325767673205,0.03031557910951954,0.43659772914961337,-0.14826370017726473,-0.4050111816705664,0.26906494772173073,0.07958062059563986,0.08306851264679618,-0.13118623402614818,-0.10616751281092118,0.007159872148209852,0.5773616646097893,0.19705734024657304,0.10604784088712457,0.12334411136252854,0.23827573878760283,-0.22114202167069424,-0.12325962370102175,-0.05324356359988051,0.2414450606303471,0.17594840122290203,-0.056746941739341625,-0.055469344041853774,0.20869141015601533,0.4115079212249467,-0.053847426918224195],[0.4447530815832208,-0.2846783610799314,0.0018360640989066312,0.2665955636425983,-0.27434744546671613,-0.1503697316176107,-0.1483131591654682,-0.20857879951286745,0.06422963826874202,-0.5288941322184405,0.012567132383497187,0.18894887609053743,0.23618575233106362,-0.2884804336858241,0.4277011375550467,0.21076430036664295,-0.14353407629524756,0.07489505017703235,0.05241007381691018,0.2765794551438976,0.11748858111244109,0.07224267497133469,0.12034311194396241,-0.1591259986094973,-0.19320204500232932,-0.6863344615826489,-0.5554268371424006,0.1401978501972095,0.3618607968915382,-0.31172256375046475,0.0499298453173191,0.2340292534425863,-0.10824280470193849,-0.16264856509048892,-0.027954401274771556,0.30011185134313095,-0.2224603897025651,0.0710235754063479,0.04173340530019265,0.3756023979238854,0.34306118889723064,0.04335746561530829,0.11305697364612405,0.04851802183211179,0.18558235039923388,0.13905234379136713,0.15321779157188298,-0.16500645686926319,0.17620833089147933,-0.0846437265957409],[0.04134189132965732,0.26456795401164057,0.19306752843897054,0.2915065944154892,0.004229186769323712,0.06118770403967701,0.2745704471393633,-0.0365406963927402,-0.18446749465336693,0.08499174989365868,-0.30463040033857003,0.29264351047984755,-0.16664611795768075,-0.1429810738275492,-0.0006380593239098259,-0.17158706188272893,0.02719042058754867,0.021246433013688504,0.1330739366467562,-0.1126809408232107,0.024084934864209748,-0.07387600340790298,0.010146877005060506,0.140645860612516,-0.16424317230923102,0.3563248101639984,0.10161602663463493,-0.03123377091752541,0.013628811906491248,-0.2874248844571563,0.21109099927606034,0.39785634712792706,-0.06006708275782913,-0.3210082688752176,-0.4069822245160809,0.1633854366386442,-0.0017391678083792939,-0.3879056615390093,0.21859143451604582,-0.06894739140638179,-0.45609255523011577,0.2044780437329443,-0.03996461434177856,0.1525515683566504,-0.017671175756505786,-0.04050438681206292,0.14905046156882618,-0.2947331237185514,0.5135702217684889,-0.18130689537662947],[-0.34887110314584724,0.015416419796887154,-0.546787952399638,0.15026158744880863,0.09334104464181116,-0.13378070421629093,-0.21509991438098075,0.12580433709705313,0.06645642992551652,0.5043696155349744,-0.08399352896971289,-0.09978549231976262,0.39824439370000886,-0.3208857123145039,-0.04156349557288053,-0.12919229871271917,0.03384322255612983,0.2855349299378125,-0.14257798370950348,-0.10157009720760742,0.5310879688855377,0.006165809296671126,-0.14979499877313288,0.5261410145475782,0.28627869012476403,0.0823921427954798,-0.22171031174018835,-0.10871657108649055,0.11534971106271719,-0.20170083572248104,-0.10369278279328308,-0.18978704344771408,0.009539291900843797,-0.07401481126007634,-0.2907745654551603,-0.23632649500344097,0.17495890869449066,0.14837335205625757,-0.34478468335488416,-0.3241129922065561,0.3396478799575373,-0.25942613154116756,0.07603598381896043,-0.10125233525173732,-0.31723837997537285,0.2241207751520003,0.1584413942437358,-0.2547243455485325,0.33241343020133457,-0.3394149079935648],[-0.02593400305808402,0.1879570789777259,0.20028705258299123,0.2832613464880814,0.011515956469650257,-0.21316937873752922,-0.3501632237333944,0.0985579690455203,-0.12910779484103413,0.36105783656402995,-0.0797873742666711,-0.013017713267126085,0.06309725830273326,-0.29979414899813206,-0.16964181522396848,-0.49531398865234744,-0.08469667333641775,0.15600520588184108,0.1900283920578423,-0.15675508065372726,0.26676147908114145,0.13688213501847735,0.009694409779352903,-0.07138025054437036,0.21239183545473386,0.5645234159647392,0.13943686377121947,0.03680634553198431,-0.23320708727783987,-0.24456476050408854,-0.428504008965422,-0.2908081785461639,0.537149843434701,-0.17833576415535313,0.15930923426394789,-0.19455020143715213,-0.5160107346316672,-0.015922300804844247,0.014559091483202918,0.1707930976531784,0.0848107271869764,-0.32220315271660455,-0.1402616583657757,0.20601128407814243,0.08824044337039905,0.23499241192902018,-0.11413241432764219,0.05110191264668374,0.29088492991170417,-0.0463957611907716],[-0.04299182000836112,0.12502258907518787,0.4436916194851129,0.35064707879901874,-0.37310156374916414,0.006470267586436151,0.07138679116417204,-0.3594825583470467,0.20758455802907053,-0.07844841291068241,-0.052548772029075194,-0.4477350848480615,-0.07849208972600703,-0.06337128339471707,-0.1628235512134353,0.210053569059151,0.09319278430083752,-0.22540665006957813,-0.23172997234802317,-0.08698548068049372,0.09798141151686801,0.341296645711203,-0.009774075201325061,0.3851213127323736,0.16302565582861578,-0.23804605018536962,-0.11444161901089295,0.23227345079742934,-0.36880757546620035,0.17955292727819697,-0.13332957131632459,0.07898603619756078,-0.07710860580550469,0.015532894826776333,-0.05334546190272488,0.4246272120360696,0.2846117523493101,-0.14248617628344412,-0.22794465381533371,0.07771081941793906,0.08658983150643793,0.39686243328562343,-0.10008335633737811,0.10046645455101239,0.14189338153984687,0.06590073357771928,-0.5632142861106169,-0.37730087536382867,0.018021749145909746,-0.06224613585592681],[0.19716644926686736,-0.038040451877272896,-0.40362092190986976,0.09325631784994201,-0.16281673878464456,-0.02932984675973599,-0.30912894373681865,-0.23116603245410888,0.1264062635880097,0.075640111002653,-0.13594729240832432,-0.2371366319870457,0.1084981849099271,0.0241266513233222,0.43561203581482555,-0.4497486259102288,0.04505664060310621,-0.28292550163826746,-0.23685452497955733,-0.02909588301619269,-0.31657333487225425,-0.2435080811914042,-0.07750696611200283,-0.18520229433558513,0.3167170741629349,-0.23961728499514118,-0.07175048975020848,-0.05941557390725373,0.15002179151036532,0.2468751102898593,0.18031249456597007,0.2527684914552542,0.03889577828462737,-0.026414800049031982,-0.04954153705543708,-0.1304105629167604,-0.269378026788611,0.02950177381137327,0.23095522709356778,-0.08163182498955632,-0.3307538720171904,0.04846704467810392,0.42980558471028574,0.09854666340651136,-0.14767142664918506,-0.03798887696801356,-0.4079209995253441,0.06692044850280689,0.15948809790767637,-0.397704152774942],[-0.007778572869373626,0.27807645804875797,0.44184890581277203,0.028785603423027675,-0.07937822060023161,-0.11029534684656475,0.1486465859095527,-0.0011730376253620417,0.09487137834628709,0.035054425763093144,0.3146806821512048,-0.13587430969341266,0.44587726605573597,-0.10985870870121586,-0.03814790083111913,0.13281156125418875,0.13208064610949394,0.4783302325215493,0.0782464600097798,-0.30027683353650575,-0.30531068536253314,0.0491297933488154,-0.3590327384723276,0.5067563665758068,-0.14593007690195015,0.2371983626519626,-0.2162005860594836,0.1470697409216129,-0.34882802234659377,-0.5614775991527348,-0.22548330229893848,0.18398297061946678,-0.1014842989419443,-0.32238826223224587,-0.1632940292661979,-0.2238854534639842,-0.4375287138500719,0.47299993758775327,0.12947620315043112,0.2646210915301236,0.00697153059531487,0.350347653776238,-0.3161005791046249,0.3847932002733759,-0.2611742818223403,-0.011459077027314635,0.07451998924367396,-0.5149934641828171,-0.29924958375034216,0.009206775273285173],[0.1653054953611857,0.33880943012419507,-0.410982716801769,0.10198644522814655,0.2638804642137198,0.19876635383379126,0.17175057578705877,-0.051634118258078454,-0.021514523466268046,-0.14021245910269267,0.4263215573596719,-0.2790744031979526,0.06044904646044297,-0.1616239556662935,-0.24238807203152737,-0.1902299654655184,0.46098084946957896,-0.3716902772221793,-0.3514864877788726,0.12504791895987813,0.11879563405097648,0.31482477365090256,-0.04540084097992601,0.14334259158224094,0.24015380977692907,0.047974930258861376,-0.34404839779396723,-0.398716487363375,0.010828280331737071,0.15528569748189955,0.11571475714244409,0.5369246264253694,0.1399890300774099,0.26943195700524436,-0.0594816990124456,0.026059392225242783,0.29959730409431,-0.030240038989447215,0.30432966603191414,0.12678640452856157,0.05519146746110169,0.05707939876498489,0.19963941671037605,-0.10446418388767001,-0.2670729911777576,0.05140531008890138,0.14332378471106424,-0.21624206352754333,-0.503373246534989,-0.23331736750122595],[0.10143347360208392,0.2175883520716008,0.2600696535631135,0.06567802202017237,-0.5032339925884868,-0.021594274999771734,0.06871398450399674,-0.16010130760996474,0.26588505181967254,0.3211842209173714,-0.22723329066049064,-0.051812517013628046,-0.1810018870568697,-0.18283267235982634,-0.7013665197104654,0.13783687060884606,0.1595411512856947,0.2783071731711749,-0.5243390441117428,0.17856528462227,0.18548854419971061,0.06131829139826449,-0.0388154022606802,0.12527180059533152,0.03715663881964365,-0.3497464965101306,0.1935840132792126,-0.3079848382582991,-0.25657023417999403,0.35611063393693887,0.18541274458715162,-0.13656247775038122,-0.01687088872309543,-0.05740200931640388,0.3566162819989592,-0.11699905815790684,-0.3230613167463265,0.08596211649533939,0.6058492306530435,-0.20576745116402362,0.015876177750589186,0.04501299471691403,-0.4936033686423674,0.19133244832729004,0.11445924106194177,0.11397477140703074,0.0538875894681104,-0.04439750239453816,0.30108790615984315,0.3473444448991304],[0.07546447389146053,-0.10958990768902663,0.007916776627163724,0.30857464450753586,0.11147008678973627,-0.15623851851775108,0.22199274708902603,-0.17746013500248098,-0.07301400692262296,0.1523636561761241,0.5766922960540244,0.17708872025009273,-0.025999184222927407,0.4027297048450826,-0.3038892622875685,0.029622371099300937,-0.22221628562733278,-0.42151334550572866,0.28408277017896244,0.30486134959946654,0.49337908739204805,-0.13742493353882845,0.1477187261288283,-0.10356313447147905,0.07074958065977976,-0.001430828667610816,0.41709648034332125,0.602566027838595,0.06942349606464393,-0.07091299216403384,-0.011831496469137018,0.2388434081481336,-0.20907811786477448,-0.4275013121096672,-0.11778461537204743,-0.1993168071546053,0.11688571556793932,0.028140640813693107,0.1620613950144862,0.10460518119663244,-0.29649077407944174,0.17328566516470228,0.19557549118195156,0.41875382231268177,-0.16125041233080506,-0.18416571837417728,0.23081284603564428,-0.04579308949301969,-0.14980002475608892,0.3818588280545069],[-0.024759771131152034,-0.14016102639403297,0.03326513475766116,-0.09983403565422072,-0.0257220570726103,0.26820214666848513,0.10322651508082328,0.5513787718318248,-0.1388730996311626,0.18080855552756367,0.16690421206915795,-0.14681089960934596,0.19345768361402357,0.15668201218174221,-0.06815446883053994,0.3365913668631887,-0.24190520517628272,-0.4639904834378845,-0.03321421027593002,0.24533377035586246,-0.07943090482382062,0.03146356322438676,0.4112335138790134,0.5916045821982804,-0.21321154338784007,-0.1911127871989691,-0.012141232580148912,-0.03132098563324121,0.09248541509945182,-0.05563704196020122,-0.031125453361733724,0.27796253495230916,0.19737740573640014,0.3948687831778467,0.4741404929586259,-0.28052495344579675,0.3797866808380664,0.12573992898741831,-0.053205301915700276,0.5045956340081079,0.2886461985355058,0.054330232973915316,0.4599778357225023,-0.13542646812353926,-0.25170607079879276,-0.023652132706629303,0.20895426404725964,-0.1320137167482447,0.3826746108685388,-0.037346470434411694],[0.48302750002602746,-0.42630000403309587,-0.24595530925885442,0.34110843903797095,0.1454800276564505,0.2194954451687213,0.2796086235832336,-0.2191024439267597,0.32930480702301274,0.07483947336650029,0.12680637215600987,0.26180143289721186,-0.2402559878708891,0.03689415600742685,0.11146619500939063,0.26945673805305825,-0.0463407541589031,0.10076560398598475,0.14764072425988312,0.4485636280705399,0.09644170055637392,-0.47965680865494337,-0.28636056972971957,-0.055148165074798666,-0.30775131423882407,0.36315646435640536,-0.07820915513192131,-0.3122264335355528,-0.3598321339539789,0.27278977627623363,-0.29402148844202514,0.14167593103712822,-0.3439366871166404,0.08484231289792382,-0.24708480114985307,0.04629407538411989,-0.11886709802645368,0.4421054244550952,0.044225915014100475,0.13046434281350144,0.20742399581633503,0.49538653462842586,0.004958522177124149,0.30043933369920794,0.1758194777917012,0.10647541240281347,0.17208373996138232,0.08367814650113609,-0.11839570927112596,0.06249050685246524],[0.007625581573905416,-0.44544380712507087,0.254507447314145,0.08423884037144812,0.5378176444350284,-0.18778855337956812,0.16054148365291238,0.12825887102895095,0.0040611967701236,-0.14385085054121147,-0.09570031618727637,0.2904968312529867,-0.05476078913418628,-0.03640921471601927,-0.31892723188314737,-0.1420103337605109,-0.027985554983794528,-0.34391185316497014,-0.18519011950060832,0.009362764586310912,0.32770124758222785,-0.0019109370505243084,-0.06865489901142352,-0.32784395983239173,0.216536685750796,0.0632853433302481,-0.45381719870514087,-0.41523761192859787,-0.05059013741084356,0.10376411992290538,-0.17126530318525537,-0.0967794618640309,0.008327108948978687,0.15656405000691637,0.23281673527431834,0.08806507862686411,-0.0680235867929691,-0.5492589973069406,0.24673195542254733,-0.09156146882328314,-0.14658318799543563,0.030437731214575076,-0.16944478711318392,-0.20874486996011724,0.3480035895972875,-0.1199754401512177,0.18262264965919914,-0.3459123954301653,0.17616891251812278,-0.1175647433734634],[-0.18721990056939727,-0.34662935900310043,-0.012963071333750114,-0.4846693517988387,0.2550560948344688,-0.014399100787512303,0.0849428943041543,0.42597095637191607,0.19832490277341316,0.13276929302581725,-0.26259634914577673,0.04380579381017896,-0.10882488170940899,-0.44771588705491777,0.1884765713759072,-0.1959079857405899,-0.4226540974128898,-0.5592184738227555,-0.003059541378573498,-0.4495594806356189,0.2452621980705135,0.15416366180893304,0.01886205524516217,0.20063948529773604,-0.03633667333627255,-0.34792246051023273,-0.3879661246223652,0.276353342674168,0.14997650544562507,-0.36097650784045343,-0.24695812842754208,-0.24724973852508586,-0.3905836074333221,-0.06726371007315644,-0.15828003226380263,-0.15283263987593343,0.2656498752857326,-0.27570239668720353,0.2092806697316297,-0.35848211724405227,-0.10027027726161106,0.053026864379915606,0.1133503055993356,0.34533087291579745,-0.09990705888089757,0.06418811937769674,-0.1960768493534863,0.013381526215674788,0.18977540321978675,0.21156721692524294],[-0.45587588648265837,0.0008969446612724086,-0.2782825079066197,0.23474921415935812,-0.07117344450980251,-0.1652900266781806,-0.21379875222807543,0.07001914390148534,-0.2980080360833808,-0.18511126906723485,-0.28571120501734304,-0.22844019130523455,0.008149724407341685,0.02487576991625451,0.29053734693012195,0.1304945450093749,-0.3373495734924912,0.22874888297124227,-0.28512872071469164,0.413282535020905,-0.21558662396475703,-0.015252012121062081,-0.4243883208306418,0.1205335861655287,0.14900828527304355,0.02210166827352441,-0.22669509386034684,-0.4153287212014971,0.1491822336379861,0.455470910821338,0.0343599161289897,0.3886130610406289,0.11475765524683099,0.20857777776723252,-0.1399081665609838,0.13803299082686343,-0.21774547783752635,0.16929152105265122,-0.03873365491645647,-0.31979050203418036,0.3896215643811932,0.25835335244821567,0.468369204640546,0.25956021686050923,-0.029388587417705836,0.14171236106791008,0.056319705777244905,0.012740951698148956,-0.25388155803882406,-0.029174829695736704],[-0.38872956595071473,-0.3635919826094888,-0.07675063174829327,-0.4234742974716669,-0.083507995812024,-0.037897212993616924,-0.2928192344944543,-0.2096362558341448,0.13302939116285772,0.28396873460606,-0.2295395132891009,-0.03315466970816137,-0.18488640086576255,0.38518189720992163,0.3533010863426666,0.059000247947263273,0.23846065094599678,-0.3471219400811666,0.13293846323555114,0.3319019188403945,-0.16600672151952356,-0.060492742676153066,-0.0019099403303732276,0.11420933971283496,-0.0719932250370543,0.10700051317041873,-0.03433901935997627,0.04272542845909111,-0.008147687450214925,-0.10288866965382362,-0.47064704616196434,-0.04624103538180435,0.07267730168930778,0.23126866965813447,0.05717842223800079,0.2526490926009415,0.15750290191967442,0.24346226100648286,-0.22245813079514404,-0.210493217615239,-0.3770366378465885,-0.5145329475008382,0.2636480860119943,0.1352744251878222,0.05962631326622256,-0.032578280960275194,-0.31196262770014177,0.5309557261677824,-0.00821811635122044,-0.4692938464794868],[-0.43097283926890884,-0.5189838631350029,-0.05696152406039506,-0.07038946358728468,-0.04839260970964179,-0.0055896854549153385,0.3533083934464581,0.005476850898256308,0.08812994923540465,0.4229466857952283,0.10165980296346894,-0.0025773044771871534,-0.15139598237467922,-0.3916862448123721,-0.2739458527914293,-0.14901658937071313,-0.41621717657594703,-0.169553573727042,0.23532059256663054,-0.015094821754583598,0.31678231482597374,0.07524113413378412,-0.363861993157091,-0.12198059478837842,-0.15723442465219925,-0.17846645219203983,0.12814365494510577,0.16106128840404238,-0.06423348492731655,-0.009692718166406211,-0.1297808507686901,0.1774540070433787,0.4633054724369796,-0.23712097187484407,0.11377130121302953,-0.08421075884296975,0.1499133371253316,0.2635748672870492,-0.07719785033668597,-0.23075600777818514,-0.1534849660253192,-0.32323035517965276,-0.19953002485370194,0.36099511688765484,0.31874640580804053,0.05533615985462313,0.025125798716984338,0.2859283595589975,0.15808913600211608,-0.04308468254356318],[-0.2220930608304244,-0.19405197313972644,0.2270970068405827,0.17769239487262614,-0.05347463528872559,-0.26184906826145427,-0.0009326201068523554,-0.2924507525536385,0.147249936475676,-0.21131628931600843,0.5085464971606546,-0.2703331326603171,0.02982884406141384,-0.11972372433480395,-0.4138733546127866,0.020013135140824645,-0.07689864633947271,0.3056526968147686,0.370809403224967,-0.09106033050041457,-0.0668010259716243,-0.45359235161437256,0.3378788031493751,0.31271805138548425,-0.13880387723558585,0.07553042079735517,0.44831764883095887,0.005044317830977141,0.2373661574015972,-0.0738247168173017,-0.16817552223272464,-0.2899644307854285,-0.050704196537126996,-0.21764259739577319,-0.20479438762601232,-0.333159571014061,-0.20488815159322382,-0.05486936150491507,0.16458030205408225,0.642529041785554,-0.15866093732746125,0.14682591591433564,-0.063019976921176,-0.3419427321175863,0.19943971401960214,-0.2467397714531378,-0.3768735756635957,-0.2449093291621721,-0.004203255099832298,-0.11504233896685415],[0.19867544238607768,-0.007579830482272704,-0.023494170606844625,-0.11390397476379947,0.432145953326336,-0.22982013478110686,-0.2721758741764048,-0.40365973099269936,-0.1713602195653334,0.12394502314177365,-0.24152817463317983,-0.2541668486109727,0.0015950311504274312,0.42549892062128714,0.13765126949544398,-0.16744759761813613,-0.11339210753535434,0.1592246769735708,-0.049625376996358606,-0.33225068524668544,-0.48732245203097846,-0.25153401311734946,0.4249544799934245,0.22690049115997218,0.13696191935405877,-0.3311806282154723,0.3314400381670912,0.4238628085474619,0.5265171104618666,0.19193717354370896,0.3183628722653532,-0.08145684257366223,0.5484385896998386,0.22904823613107894,-0.24769410222133875,0.2437103420912577,-0.009238346273458334,-0.07066982946394676,-0.2115159790471795,0.14204758343449753,-0.1844454504229039,0.1685442075028825,0.017737272545874816,0.18147922502201072,0.31125409236069346,-0.33660489108212377,-0.21137490214845292,-0.176460546310596,-0.015486665245718567,-0.36242714586639097],[-0.443534332584002,-0.17654602085164128,0.32852484203019955,-0.1348014097227428,0.08137501568021435,0.01897769812712874,-0.3049042270271143,0.24303718217299947,-0.3801076887031296,-0.11196298102225677,-0.17119690373551566,-0.21238537218017134,0.37343931005676023,-0.3356662187181495,0.013635585075970583,0.11197970109583016,0.47709417751316185,0.1269415168177166,0.08370665563568684,0.24218492594559637,0.2740644060895513,0.05773257151202791,0.0677525807661753,0.2537800302532226,0.1427610347255638,-0.022484454046248548,0.3255299610100156,-0.13396552423107444,0.24789434641471675,0.1005232099860511,-0.17863564268868765,0.13945216426178703,-0.56894176571892,0.39003043462659226,0.15275958530078365,-0.37853254880845355,0.16590599224228583,0.0057609331459416435,0.32783259785917573,-0.13234008635684535,-0.15049881722865963,0.19817086983477558,-0.5078146226969945,0.21589877180131323,0.39383482188672136,-0.2731111148280261,0.030289584343082595,0.10433493734528662,0.10459604603842504,-0.3223576786045543],[0.21982722937953816,-0.2865051118604851,0.19038570984179717,0.2979861875737348,-0.052153014051194796,-0.12781289604446408,0.11769150514926635,-0.3597167913983155,0.30562861305100625,-0.22151510102075195,0.05465577522973075,0.20635903715865067,0.3233717346314304,-0.2013222499831108,0.24966339799142362,0.10157160173769719,-0.35830153649194435,-0.041324929786422035,-0.1041931913379668,0.3152934081159836,-0.30328091018687003,0.538188589784812,-0.03911700190865,0.18329866860149888,-0.17087386545934252,0.2024658957373812,-0.024185262696511,0.047827738197812664,-0.281565330179516,-0.04061625173481109,0.23246285666556246,-0.020853579899780206,-0.3367916518252694,0.11167765125073538,-0.3671225394320706,0.13956001095739176,-0.17543840685536782,-0.2798926907349585,0.3323281214820183,0.019938953117986158,0.038052787640812796,0.2171596940667206,0.35765442128555314,0.3051368877864521,0.42808890857108395,0.5536426720030337,-0.3285191362098244,-0.33336415768264693,-0.10352127795152555,-0.14637264006881354],[-0.1532197530605249,0.181306444423065,0.037132397231621775,0.14224378644234165,-0.010664192555561178,0.22412062894841206,-0.062087414407376355,-0.15101607467239936,-0.028312433357862155,-0.017166181944371472,0.09114817014436499,0.06725535250200876,-0.2820799308535364,0.4121347734190479,0.24360052469183968,0.3422137102553492,0.3424901944476032,-0.24787715633799234,-0.091222381434562,-0.2744732114279254,0.14694683642563805,-0.25096796027141466,-0.2324218988590822,0.0033137867273322907,-0.13784948676459027,0.2009956737165774,0.047788825612867736,0.3973555821559921,-0.08780198638817334,-0.10805403642133915,-0.13629023686678157,-0.3965176017169515,-0.2680796602391981,-0.14968509112679385,-0.34548701849301366,0.37027125976761494,0.17669969190749846,0.2367990048412537,0.1597288961068233,-0.042635744973924944,-0.20737658268704362,-0.03279263214793088,0.2777835048331981,0.18565056868671867,-0.15317180864765165,-0.5026216342875434,0.10272154670783817,0.2481018547948792,-0.09216265399626156,0.051094094946388224],[-0.3684131686936679,-0.17427438688803004,-0.03258106592181656,-0.25538357229599085,0.10065162209352349,0.20114541190915727,-0.30701633300647074,0.03497145794329733,-0.5457175438835571,0.17143823643505443,-0.41017651048726245,0.28859365100437573,0.19331819228939828,-0.03317136454486018,0.26677559743866763,0.08070338437129226,-0.1382164537897911,-0.2861917019047636,-0.30968983850799037,0.024808231405573533,0.2369219784031761,-0.11230078759808318,-0.2474460400052584,0.022150934657844346,-0.10039101146566196,0.11904368482467956,-0.36728157911567477,-0.44276684037785485,-0.1274340491493222,0.17105938109774205,0.14638461703184313,0.007744105380060234,-0.0652445252922813,0.0017134097487821742,-0.07527879661800133,-0.14156576269027263,-0.02610950211765281,-0.12221234781677603,-0.12944278835364625,-0.1520159361008705,0.30249945817644763,0.3046241737895766,0.20627119793886914,-0.1105738268429467,-0.1713461989754197,-0.029342888042499543,-0.16856965221197598,-0.19783920028603816,-0.16093574922526777,-0.2817815455801455],[0.2750324823686884,-0.2853563063666405,0.2404117125454362,0.04521314878540607,-0.19165939176199168,-0.05456558464091731,0.06839688604273614,0.2681526417830384,0.11970749338250322,0.05745770072980223,-0.36889180568549007,-0.20717240026322958,-0.0781311375689969,0.28420526483248876,0.2237742300340448,-0.43317124169698284,0.054318674174447114,-0.20213156323676262,0.2655665529096206,0.06344114242377785,-0.047426329208139426,0.3533341008413954,0.07784965947181938,0.25907550304318944,-0.0008821053104669796,-0.1074054531652042,0.23492047289695323,0.06191305049047857,-0.2453369558155196,0.16248749789304812,-0.5181751035424066,-0.27406754442464076,0.16434928196966508,-0.02988948092922514,0.2468559592764677,0.13802465058366392,0.039535225596662185,-0.38164327564925066,-0.145675652521432,-0.0693391454896245,-0.5925421591392775,-0.2765072230495421,-0.09702983765397444,-0.19598627751660713,0.1727298817767527,-0.3725958162795723,0.16954416186460947,-0.22459538244347477,0.2552084502738849,0.01725644824561795],[-0.2862514465914026,-0.15067265857294526,0.49254890317398126,-0.10836565268642348,-0.2298305684751486,0.1309059444197601,-0.1246332751708133,0.14992903165109642,0.37381274955087657,-0.7001160961025205,-0.06621247969514144,0.3606617553470771,0.34787287721532617,-0.23890785468640374,-0.004216344901728342,-0.31655699292700934,-0.5546093169920915,-0.21007157174485008,0.04004733142034789,-0.2628677227371118,-0.023873002467778917,0.026514513418350816,0.044785172208316154,-0.25170180501473455,0.19999417491107024,-0.16953796781191435,-0.435444519508062,-0.11155787531465378,0.3575583612770506,0.3409156791481893,-0.14815727302493484,0.4535906780339735,-0.472079265179302,0.06644716441839563,-0.12730953840230375,-0.1354049869798825,0.24330724058407444,-0.31230915224621175,-0.3240358236190417,-0.20674133518599896,0.0038917611624578255,-0.23016376235978758,0.22359301003238896,-0.3838012348843569,0.026872743454771003,-0.07921985005003651,-0.12165376985267468,-0.0810506582065855,-0.2213838504802148,0.16818134546017527],[0.5317235041102646,-0.22773661357215233,-0.09366457991780391,-0.02467125099530773,0.03049923021324502,-0.08122396978104057,-0.16643539406911823,-0.202902132290466,-0.14693529165326902,-0.27425113120534844,-0.5332931453880798,0.06927011053130075,-0.14617538746032854,-0.44231939112589413,-0.006128722163440847,0.18300427225207186,0.10604109749380464,0.1540525207995321,0.34220444689391866,-0.0009945082173493103,-0.29782145985050196,0.6645698149049255,0.3262653894273055,0.36710139195929264,0.1535232558394034,-0.2241332849815324,-0.14412861233937493,0.13079851777188822,0.18857160605006223,0.3795116327248991,0.31421246141855946,-0.020337146668996386,0.04838188963672238,-0.1521585895814767,-0.22890458643546355,0.020973985684231866,-0.1839536527101521,0.1724480340327934,0.035929453994455796,0.20547273717309578,0.4747884578932458,0.4693489543823709,0.08303606038235471,-0.00844929638835723,0.008453301804847546,0.10545204641034571,-0.03051853186111675,-0.4367366614293836,0.03767146808308605,-0.3034408622369079],[-0.19077566974883564,-0.35780874277896896,0.028931139649136205,0.07547942752491274,0.009390803812333759,-0.11674811957497058,-0.2863602848649246,0.2142642104477474,-0.3325657716702689,-0.0413248072369575,0.12368803650119262,0.10144582470403912,-0.08198734242660294,0.06452766336393109,0.44817191907268217,-0.1625856413873795,0.017602959313223643,0.31716079991947943,0.14634886169321873,-0.24553345798419476,0.03198054205761683,0.04134032734677076,0.04332942966129327,-0.16045268947620417,-0.12485965246016378,0.4761036800065323,0.4996403431748586,-0.16504275117986794,0.16169385707096315,0.12793392604202952,0.021589294740198828,0.3123669714089061,0.08030120585259565,0.2897812582948075,0.07313600524509586,-0.24529325739149827,0.04458267309833355,0.14778965363266383,0.28685567575455906,0.06869247542092596,-0.4880687748101048,-0.06478750912785541,0.42897514371658374,0.025607558948486375,0.27476565896418764,0.17673484129049852,-0.09204197673687106,0.04012044094685524,0.12239047944988676,0.148627040137033],[-0.004772336488222749,0.23762913549827192,-0.21275327849375988,-0.006221229420734581,-0.5210438967302145,0.0027311124988914914,0.21343403592271892,0.09358589826404035,-0.28172293401453186,-0.28945164130421247,-0.23253400519824496,0.15252815494823396,0.32545508820454444,-0.1291921176993494,0.3006026020303617,-0.10132473910776099,0.036206145967562164,-0.3532546537190238,0.3527023411651269,-0.07561133380461506,0.4635681890015484,-0.6635830917828246,0.1977326219431747,-0.04447100288908616,-0.024669017104191823,-0.16261958945263136,0.4639446694184866,-0.15785051691400998,0.3688479339327454,-0.1073715455400509,-0.04157236545159204,0.5235232943685001,-0.088661645126562,0.16387097799851763,0.17027917864445874,-0.317849135964835,-0.33057294558782285,-0.41322656089306997,-0.1676947126314656,0.2868028358802154,-0.13253820617602088,-0.1637300889706234,0.2189022851021092,-0.21174741327515917,0.3883577619021364,0.39997465766688833,-0.19335204974997056,-0.12113056176192266,0.08788729075985086,0.08485436595109147],[0.5158128718657419,0.21528124744225366,0.31108983027789605,0.05565050907855462,0.17681586996919557,0.2561740184563762,-0.19110696269725141,-0.018892242696984547,0.4610860375527307,-0.47080233291184126,-0.10795739635665316,0.2946928887127195,-0.11280784591939452,0.25797969466008186,-0.46227131421586987,-0.014497302919788624,0.36487923519215426,-0.022679444007962762,0.353244335139408,-0.06921467453134372,-0.37220367307964897,0.1503919243547458,-0.08024464433132528,-0.25806301627073813,-0.05468495347783903,-0.016033934956497284,-0.7688409475495631,0.09148097865734839,0.12894762646245977,-0.2611958268242879,-0.08966186964432088,-0.09493041388398865,-0.27271879545990363,0.10573961955207431,-0.13863223338423078,-0.1319969389774107,0.1704936753871368,0.0036635417528665115,0.011529875478299215,-0.2866159179603085,-0.24105358514828623,-0.15331628152474008,-0.31477764815167686,0.08837921495355403,0.1304309066765918,-0.03062864081281219,0.471104517358063,-0.032027355247962824,-0.09924038827890319,-0.1431050855333587],[-0.48543106598238955,0.22748487894682312,-0.08912732166525705,-0.09087297174104175,0.17183549664202552,0.012611784355628153,-0.031644107926181886,0.17987160449743456,0.17468157665183426,-0.18078226796714683,-0.0019688510094370837,0.32427281690143606,-0.277706638470755,0.05408348784497319,-0.13647133651342913,0.09822214090930972,0.15469956817024733,0.13583229858791795,0.015110983040350828,0.012187159362446853,0.4249278902847431,0.006776414503217976,-0.044291069830459495,0.5548653402019189,-0.20534287659316774,-0.3982710163323271,0.1062298430028642,0.25431882868617484,-0.4568971680556973,0.018313411427896997,0.034586092618027364,0.36673570968280683,-0.15399905593929117,-0.07622746466159161,0.20648645074692373,0.004967864846917691,0.2109434484484875,0.19892157431492336,0.324878697942511,0.06879269356262824,-0.25006260446535544,-0.28582241494172095,0.28716341666498396,-0.4267319818715978,0.1829138022864847,0.13091041066681913,-0.04079476848382607,0.33647690952158793,-0.2470345279589587,-0.07381657792723764],[0.21840326241173064,-0.26364930515907414,-0.35208041724990524,-0.05262162484996351,0.0978621723230702,0.04275237468392064,0.21230066743285012,0.28132492697156614,0.20271349524122184,0.25142312833192204,-0.12599955198424767,-0.3568372871398074,-0.1549665848946588,-0.33025937607378686,-0.29110987974037383,0.24139510036382528,-0.03652235763585149,-0.30616419601157896,-0.2568433012123564,-0.3149785855243611,0.028139037610986614,-0.22293708081439526,0.021715825117656434,-0.21286207137253454,-0.580676472029548,0.3687111075987294,0.22003936891474285,0.05619294819663012,0.3603512177316327,0.02325057927492702,0.1487392141548089,0.015682316990623224,0.3361508356925143,0.1831586061639733,0.012592564983513951,-0.23534645753309913,-0.0625742796926907,-0.5021643960688869,-0.1200337421658561,0.23977314481704948,0.3768269549221469,-0.0006769746306276442,-0.3289974867374765,0.21839743054545863,0.0017640695366576559,-0.404870433577146,0.1930018854160793,0.06473998149753876,-0.054405048030126635,0.14172956528159075],[-0.00125235885418723,-0.2265627961755267,-0.3882645717555064,-0.16895795515667497,-0.5609897295984986,-0.1173813491771144,-0.06456183251434705,-0.12121937066649316,0.3488004164058544,0.0063433641051967166,-0.2542122642683383,-0.6589887594800148,-0.24314527571785435,-0.39058846790880025,0.07230411328299864,-0.08821886489147501,0.15616892920437034,0.12927469333005748,0.41346795160716954,0.1287784863458221,0.32479876723412504,-0.12414789994391098,0.06156977050120405,-0.27170451435965975,-0.16401862096234543,0.22229690722027148,0.3508582805780414,0.0775756687196065,0.036800202047080344,0.24893558803265767,0.04303312777601423,-0.1686887406824915,-0.47140905492139284,-0.07337993567611861,-0.41161370638523387,0.26868609043446773,0.056321130163231425,0.12845894077384618,0.15810320712364895,0.3651236609198156,-0.014437504945561036,0.24737898459042246,-0.1552599725641946,-0.20685745105136522,-0.2655603597524046,-0.1484490246362276,0.0936485251193273,0.003476386659446856,-0.06269692848955741,0.41863666059670146],[0.013780310243010144,-0.18970341312387734,-0.38782193917074986,0.0601607199667841,0.014701692604927513,0.10737019838507933,-0.5048040005577294,0.14050669539934532,0.492834316165473,-0.41366132245917087,0.020401657282949626,0.12135134059967795,0.008274989943389044,0.37313493969236755,-0.09889806012395733,0.2881963212287404,0.09025747250643434,-0.0654479903216072,-0.11976746206913834,0.3413837045893245,-0.11437087575505889,0.047757554982579616,0.022130937028069675,-0.12742697205926862,0.04498273161849917,-0.21021276597601038,-0.5482643841823549,0.45966912764135326,0.3112765035427888,-0.2288636436622967,-0.05319383404767017,-0.5202648408433418,-0.2547941242206043,-0.2399924111956679,0.017525203915805337,-0.29916609066457295,0.2116068736419543,-0.15675341916946411,0.1649084500036275,-0.19372914840309527,-0.08230545787008775,0.21577980173486883,-0.031732511159500085,-0.35588101522672316,0.2646499502941667,-0.06974707006412795,0.18905170747317163,0.21069797169845234,-0.18343929591181124,0.5294879620545181],[0.2287265679071018,-0.10398183947705122,0.030024109872349714,0.15407698870059358,-0.10838929244092549,-0.21818027252848265,0.06462318015744259,0.4073312177849553,-0.05004859477830376,-0.29557748093234903,0.12724245910870235,-0.30732237830278286,0.1667653401128958,-0.0013611103798015917,0.0036306052711426035,0.29776777628412554,0.13366434808752928,-0.06944144105858713,-0.23580249846738094,0.5669016000188405,-0.24537320877405286,-0.34832786235533,0.25246840260591186,0.08539313628238288,-0.49144534304285564,0.26804140493493583,0.05602181195224737,-0.4023213613594829,-0.23248482008091853,0.26448492546338365,0.013723337090811583,-0.06451069233508896,-0.2506822375173978,-0.09036306386605347,0.0588659469487066,-0.1523538395049749,0.363992431300762,-0.14156773946354628,0.20349911054381936,-0.39723808224117113,-0.12875893460623766,-0.2651868956410307,0.3015090336202779,0.05646075578995455,0.12226678315398351,0.4190708549711315,-0.15827517990045628,0.00021329504938560895,0.19628255081268156,-0.3445877133108172],[-0.09588778677526955,-0.1384879730566863,0.45467681549374445,-0.0378301769961211,0.3085359750237869,0.5387903911284637,0.10378300071838345,0.2538575348486646,0.11867523477423209,-0.04934311312931916,-0.07062819388615246,0.15957011040456154,-0.3104930159862821,-0.001520198859668781,0.31147694561539396,0.3960939803582412,0.09460545461580833,0.09519477138024846,-0.25466977800970847,0.19675031553858255,0.05310179287770314,0.32899427542294213,-0.6166355553853882,-0.1791629988174504,0.047305347252411506,0.04387239943992516,0.019842651408064682,0.2013595873559917,-0.2775640689431257,-0.09673738037869416,-0.3129767851418693,0.41882022573766375,0.17071409738166327,-0.24872145729222028,-0.20679304662861475,-0.06446835980765417,-0.09565393863880317,-0.15258186311779434,0.20924397800986752,-0.15539118787702033,-0.09933367322627554,-0.021401785832889802,-0.04790383708686452,0.03752958949111118,0.1563298499422075,0.42041657918801845,-0.2877620315826599,-0.34369713458973983,0.09304757576237332,0.05185037434325665],[-0.3598070673669196,-0.416065514316623,-0.1803971661147047,-0.29187366185535685,0.2956612308561732,-0.04251715515733884,-0.3280254114401977,-0.06900345730199815,0.18096767568248392,0.04042424852437056,0.050907190163032634,-0.4566334510601268,-0.06299152497022464,0.1177183251492053,0.07956827520480653,-0.20651138050582776,0.12383291497215634,0.18658565718032002,-0.09762421030782785,0.08272155802792375,-0.02096407257690222,-0.24708252122335211,0.09031631356267691,0.07764715334605621,-0.47613508615363337,-0.35198872171777046,-0.6166318843277232,0.19869483593299822,0.1442612347742414,-0.2929610686591969,-0.08725494699201922,0.2974186959144887,0.08499740719946217,0.22686484341335278,0.13449845104986163,-0.18760869613564857,0.177162612206964,-0.2636807965922604,-0.0027730729806082124,-0.06934919941544723,0.06499336724497268,-0.42301444566481416,-0.4440069845558129,0.2913055141956626,0.21265957280317138,-0.0867182719026538,0.18773093539667676,0.1255814750558742,0.18833510822585348,0.11545448954936857],[-0.26160899241720564,-0.334125932699614,0.06882168703246157,-0.05649129834072367,-0.21963060338288692,-0.08916523259326287,-0.07636485435298757,0.4896356906496478,0.12175253663984088,0.3037548786296688,-0.2308302018929454,-0.10874883581876016,0.41248583721984605,-0.23460448889584307,-0.07094375531447503,-0.21878681475812367,-0.15436931438935086,-0.18566433335804783,-0.2679770830447503,-0.4642687719957218,0.11436112361875155,0.15671078086366647,-0.2743313716597091,0.1522238675733202,-0.1413631141906622,0.19034703304014458,0.03210161234174902,0.05963568184794299,-0.24154094676327126,0.3163975787793942,-0.4168225063414412,-0.09204971957850383,0.09103755863718052,0.09907192028879454,-0.05521346892423634,-0.3412031782348307,-0.4557241938163398,-0.13375473540314087,-0.042558993270331295,-0.001134636927476812,0.11607835878464333,0.2867318803592266,-0.03649445772805317,-0.0815605353159552,-0.28086905756309444,0.2437412720452268,-0.18592333399621272,0.5361669850029047,-0.16202625085903227,0.07706053501448726],[0.23113915888469772,-0.09280199094238853,-0.01342447124963278,-0.04874068989598429,-0.4043621646024757,0.3939310644014413,-0.029202258716236218,0.16707393986193392,0.3183543240433452,0.09471984107517804,-0.12709128033491884,-0.24030822476126892,0.06250594454911809,0.2806979578397144,0.45033975592251557,0.04259453395134577,0.21011731506944298,-0.4234850916214319,0.3907506761720084,-0.08198482257451435,-0.042712008683499905,-0.12826210058769832,-0.37486625004909774,0.40417766291960855,0.11046922121193066,-0.26077611138678,0.2673727181019175,-0.4016084573630766,-0.3367625388961201,-0.17377267849046082,0.18605682365822285,-0.3332268419573431,0.1203099025204564,-0.0851155436355257,0.2899974234134884,0.09321918282794918,0.05647339744937921,-0.10775473911119152,-0.16278193638952682,-0.047026830556798516,0.3577473021667924,-0.17788663797042487,0.1492029332727183,-0.07929176999997262,0.3866237280713545,-0.10814322189034575,0.30671688170605477,-0.06651207109745946,-0.15970324350135812,-0.03750023532932345],[-0.31317875441914605,0.1854084337796688,-0.03455943050756956,0.5064520079270851,-0.04124470669336497,-0.21834042040095686,0.08607692140396306,-0.31615507921595654,0.3265825788915522,0.03863037130399405,-0.16251998208732837,-0.13137998675184898,0.06838359077265532,-0.1503928552640897,0.05933498050274172,0.014363754730172651,0.027575615821046118,0.12466582070226319,0.03211812333803282,0.5166759970291865,0.4396041487439726,0.24839930945862654,0.3382779002896339,0.20571637571711582,0.07202981214364902,-0.19568057021835292,0.1930272995710388,-0.011260742672716623,-0.22556829838012388,-0.1812042807378187,-0.2309211966170039,0.2541541064736817,-0.1056705565974893,0.075244072100275,-0.2907301904370084,-0.03774406350969986,-0.4758123985581279,0.14758872347341845,-0.2936472490228042,0.15013526069191563,0.1871697268266154,0.11145653567878105,-0.0218413365865624,0.3530699445209586,-0.0638203299296499,-0.000013448365301760301,-0.078555171525865,-0.05202715402182251,-0.019927188804663945,0.18847873158443657],[0.41835919538177,0.15566770071145036,-0.2867220726069211,-0.286893301502593,-0.08174489969574852,0.24672540107955399,-0.12703239676113381,0.3024423443887351,0.20961594600871183,-0.24008426573029318,0.019748431838363095,0.1971240573098666,0.13425544639808662,-0.23766666769833267,-0.18724180466719798,0.10881002221843408,0.17858005361595036,0.2396507571671366,0.03584338039782892,0.35993898227061816,0.27358113274368495,0.23779271118787187,-0.00905608108330138,0.06286208209320392,-0.17325195745511976,-0.06508072479792254,0.3050546769268042,-0.3124268713224693,0.11390059485740786,-0.08168707978954887,-0.30986208118605674,0.25110773798756103,-0.1738513882031953,0.22956639992323855,0.10373601241913583,0.1187204986741087,0.04091403566712863,0.020029866808759636,-0.371250860420388,0.5258027969738405,-0.06340372823566173,0.23529167940075013,-0.07180100101257715,0.10404187985939121,0.4656568987630577,0.07367418128400166,0.3859585458025711,-0.22467207517835838,0.3123033868225049,0.32428715167602956],[0.2390540006455011,-0.08130504085533452,0.3929280203636514,-0.29929347324968403,0.16205556457978876,-0.008972914235629473,-0.3500852660797611,-0.20246427554036622,-0.4452549503330816,-0.2077461124719232,0.09701525656940962,-0.22649601152649412,0.011110578310867814,0.1618652152290183,-0.01548744923986245,-0.18386770368098815,-0.49771590224281065,0.11873152922564933,-0.1450023162267603,-0.08560455125385802,0.06325320629850598,0.3903174269952018,-0.03892181081009424,0.12190191541912551,0.21809922481101265,0.01440134857230391,-0.09642258047079857,0.009161367090841588,-0.10532001414489575,-0.04606564676194086,0.3986871442163611,0.22230536616466923,-0.24838953771192684,-0.5115434656040995,-0.42481010667224633,-0.3270325430061748,0.28554642137337427,-0.31536938772699574,0.10849261298338,0.3676891969241601,-0.08334999108752544,0.05762018340908946,0.149828014459834,0.003772949048414631,0.2412154543412624,0.27510807087273204,0.41910310364619796,-0.1639505887719538,-0.3294978437142553,-0.23726703754788642],[0.10323555847767837,-0.07786684973467825,-0.17627843182832714,0.14395316122208834,-0.22097931936184592,-0.198257366138995,0.04363209570473052,0.14686986101880403,-0.23453291072066149,0.04520847285387536,0.09479456983511528,0.22663199618585173,0.4079314991822869,0.07348265420581353,0.331005122052049,-0.6151535762206501,-0.017712568772674187,-0.1989790443196532,0.1432322912305723,-0.003115477365706998,-0.3753443797315308,0.02244945607809222,-0.00896303946139232,-0.16621060888072892,-0.1783968618801211,0.14373737913103074,0.10129764342160275,0.25787515530286126,-0.5386028810412941,0.05114434901531614,0.4917305304871475,-0.058190462054371186,-0.013085150649785188,-0.11504449190250449,0.004635658870922918,0.4337685575468265,-0.2655288526222473,0.22536146798351148,-0.15812918896301167,-0.2737821689177246,0.5266854019450079,0.020637104573450304,0.1089164282642682,-0.156247291794537,-0.17756799840207507,-0.3594452181092267,0.21161805437109582,0.040634949219975514,0.31538636015429267,0.1353353363491458],[0.02434785066297776,-0.05374562166848342,-0.056008243388496415,-0.04173581497190432,-0.33058722557873643,-0.3400988574756678,0.09135473299404215,0.14652311588510306,0.01110976411787995,0.11790523915718935,-0.06849351024728345,0.035990799970014975,0.10759834341625624,0.08401090160862251,-0.2076947282685426,0.038038343847561856,0.2541694834030355,-0.2593652039302273,0.28666744951972106,-0.03805529705017058,-0.038067891603328914,0.020273210747307327,0.34729635594626385,0.13922192739934636,-0.5170581721672936,0.0626638093376472,-0.07373602672984117,0.1471084324998373,0.04267725680033577,-0.015917496016760346,0.12234430393921773,-0.09750589407387536,0.2981544675551011,-0.08266085996464421,0.015257415851135395,-0.16574687676808278,0.4908185108337671,-0.24067559231410773,0.21444949556208293,0.08330629026157021,-0.36275329923222055,-0.05450027491120489,0.282019193485344,0.1345274237726316,-0.3057619453574277,-0.2132266678073324,0.5155580400906947,-0.18906235248481543,-0.1481370741410916,0.27090359710178014],[-0.35835802702947406,0.4025095464115677,-0.20891356818595336,0.43616973360452355,0.12125622446860292,0.1556766995581456,-0.3217035410852222,-0.18569374569732086,0.035921576898994056,-0.26678484608182224,-0.3494460955461539,0.12280137402218341,-0.01434495913611556,-0.544766568189368,0.11458640909445533,0.3038314420307974,0.05055355666067973,0.004946335570841294,0.021711550497629073,-0.12149051685817941,-0.3556648895550186,0.07730912085055719,0.034312325508683184,-0.16440832266584626,0.019517334686518666,0.16092365562258076,-0.09817128867800104,0.046650587362819115,0.3645626041101886,0.17892442454117333,-0.29116198125410353,0.04968079862152412,-0.20792982229216914,-0.02268558885566887,0.3314698987866414,0.17065628704646363,0.023970912437666497,0.10026276050200474,-0.29738797408215323,-0.2385830649361711,0.20973868864993717,-0.18483072448349522,0.20047704582296463,0.000971784799844444,-0.3340833150724027,0.22687748846899694,-0.2111226721635426,-0.3255571346253614,0.3599386699570135,-0.17783968254302684],[0.23655778885116938,-0.2486251539267219,0.049928174505756255,-0.08763874879425948,-0.19181568636160246,-0.12145554664091625,0.1939848363534945,0.1710803433739146,0.4114165655092819,-0.31034159493240204,-0.38018411805043784,0.011359463905786807,0.09587854351124481,-0.22209754041124385,0.09403634710814243,-0.28948497014782504,0.22978879354860907,-0.3326039371505967,0.059074196290489545,-0.11955223627342654,-0.024292358176890266,-0.32666137322359173,-0.12008158211812459,-0.3168812650870807,-0.34337322844709883,-0.2927043186359208,-0.20393488592289255,-0.2783754076979008,0.2594712136750273,-0.4925746648784304,-0.20557653703853207,0.05714626783446114,-0.12994579669668657,-0.37506167697923,0.18740149085364516,-0.3112218509809592,-0.5703437204743815,-0.06109147090953623,-0.308592507633755,-0.24037061778182667,-0.014292884328398162,0.374261736514571,0.4615711164300821,-0.0009244213048208438,0.04568534314133327,-0.2432694243353674,-0.0944765946810027,0.09861722210057544,0.39711650594252856,-0.27713585649064826],[0.5902487123311092,0.3937354335194716,-0.6299214489499587,-0.2835435135007731,0.27249751031163794,0.11646109185133238,0.16219879227051504,-0.43512393129640503,0.08944671152397288,-0.0033370906091756275,-0.11033757195587683,-0.1771447850825225,0.04744264176928081,-0.1337278606514724,-0.12321190234940593,0.039745073278102505,-0.024019686800552942,-0.271611393130896,-0.4007956039116526,-0.231797924006979,0.11554512247470711,0.11272021177755609,0.31837092548136936,-0.44579931583479565,0.07312774028990039,0.4357459190449665,0.12696255299618253,-0.0719141511441987,-0.011595760762292198,-0.29611270644297893,-0.5254744990988282,0.02449438476672229,0.03929969460597943,0.38761193104282093,0.3703645434450932,-0.04634252640325881,-0.19000570919177645,0.0009075049977712857,0.37755050480681546,0.2196680758296712,0.3770793582704649,0.31142283973164286,0.1676789187828437,-0.05615289254946906,0.1571340609572947,0.39556067960834357,-0.19704792327308815,-0.2315449081116931,0.12298061680902098,0.32096753666972216],[0.28377605363416025,0.04143983758113251,-0.1137402251141377,0.012478719098322905,-0.3470832462929949,-0.08752368653382267,0.11098227483666986,-0.019947764015979697,-0.011416730524278246,-0.3880116371105661,0.0381803286380224,0.04844620095183691,0.22646140533310166,0.18184122481304166,-0.4286098272289198,0.45493875567192166,-0.15285546208564996,-0.07612508219041092,0.06382826637355035,0.018490810647492792,-0.334935044396249,0.21086484462834076,0.027229443527620578,0.4290251660658921,-0.20622755263140646,-0.2967356054886749,-0.11459158849456769,-0.2660803489816578,-0.2165934449158962,-0.161571844461089,0.11113301978534572,-0.16581951817701274,-0.3071090956796843,-0.3356569964192329,-0.1385201241461353,-0.3484645821619362,-0.015699954835305563,0.23463075973178618,0.09805127097752481,-0.09868159252971485,0.018969446107744946,0.214087849164614,0.1215182247961951,0.36766785266414853,-0.11123591474726016,0.3346974872563304,0.2023711446414366,0.5502336799465488,-0.3273105798119562,-0.36152038716484713],[-0.07350717410023552,0.17644119475709755,0.002867839158757532,-0.26974919787608054,-0.15780083616137788,0.04338164817289902,-0.17600276100919862,-0.14790852000760626,0.23583269081217315,0.02413776379504745,0.21290875526457592,-0.07810544598619489,0.07213606941734324,0.07561187085873385,-0.4208314320073651,0.030992428489976964,0.0029933603576551525,0.06304871625082126,-0.10013962233008611,0.3405108964388909,0.12030997430931561,-0.32758152116328937,-0.2706947227210702,0.1522905545370789,0.16553011988327665,-0.08063695575460986,0.33309242370993764,-0.07096600618128623,0.1829128101777746,-0.14637706478793844,-0.4337428806828548,0.2077957471350388,0.42047165486511817,-0.3633542947321379,0.09858992795059857,-0.16015020022702678,0.10689664162176998,-0.26501681837878266,-0.16214886442956528,0.0004945125158391517,0.3625256619549989,-0.08705711872903343,-0.23342424567756523,0.09959729098249415,0.2993868487620398,0.33832272858687956,0.46373559309801127,-0.013347364889822591,-0.16940775798874957,0.007488898347279782],[-0.2570103901151041,0.1826121697631279,-0.2504614269282558,0.10658622276868013,-0.1707051194672963,0.20972207081638933,0.13941202666719416,-0.0014799000745636115,-0.01473642308497071,-0.11501971386428395,0.19899547225226374,-0.1716116701672471,0.020521852076601177,0.029512346377957466,-0.30684145823867315,-0.5041586383959158,-0.04830293343984088,-0.17196263350310784,0.336709768328015,0.1281062857131872,-0.11661992076592995,-0.05965781297254394,0.044744221601189516,-0.061837946192621784,-0.0070283501726129405,-0.24627698764259195,0.3909858880556109,0.3337229408302622,-0.17486481189691563,0.1873066252412343,0.226948774809755,0.12793964355689358,-0.1902928970249633,-0.2179498223278823,0.05845156723590761,0.1938532389961148,0.009092862602025409,-0.0561755031322429,-0.2834529547115998,-0.18967350626964585,0.06825547709600457,0.1406169351654075,-0.10417135729945878,0.25132426894088783,0.1988885148223468,-0.15607877201172815,0.010649255620283848,0.027344995831970642,-0.08782780551751414,-0.38053153226557473],[0.16850076700431083,-0.03708750625917348,0.04231143211017177,0.2665974880089287,0.1986161612720186,-0.4042458109942572,-0.15320568956098155,0.33549558757051956,0.15842657615271083,-0.18197923026975354,-0.4788145156514166,-0.12716934284538473,0.12413081350377056,-0.5116601460635748,-0.24163022407992646,-0.23033666431585093,-0.04618382886165756,0.03887884490749474,-0.2600461970180398,0.18614827130653241,0.0013980553142756147,0.22264719516776343,0.22101202818611793,0.14501475533643246,0.28431837769941964,-0.3564168135319885,0.18151857472828709,0.13470085339930726,0.21711944197533098,-0.4399483710941158,0.17066607782045634,0.0553862496423043,-0.06078918192770894,0.33376532069472625,0.3880914612210228,0.1609970283789851,-0.025633870179597725,0.20926475865054822,0.3600535597699311,0.19399313347621103,-0.04034822882958105,0.5430708999845157,-0.3472512449296055,-0.004206298899209565,0.0037670108227805255,-0.08818051629521183,-0.35307426732691993,-0.13052841702268414,-0.1118574956033977,0.23971766982082282],[-0.06988354902748078,0.07518315731982333,-0.17086247762303827,0.18443515186658987,0.15384832385776284,0.2763770284065004,-0.2490798442175973,0.27437723951451853,0.17342763291120003,-0.04303910662255585,-0.17045839381603745,0.11049003063272628,0.03573179657924466,-0.16954690677136935,-0.06140455534372131,0.07540313727058891,-0.6672516589706725,0.06574452358652472,0.5147680781940587,0.003329657274946149,0.46372707597551255,0.2306983053151543,-0.13879571975906105,-0.13250781181736238,0.26635938979995794,0.11588911876421368,0.3843353614762338,-0.018702262102711087,-0.07272033082411739,-0.2914281567619595,-0.06737354673561487,-0.5127530351745342,-0.006089564750526105,0.2141538656291272,0.03713667609953577,0.1493299069670366,0.07388247379261431,0.3805526033426982,0.15194883681454469,0.46962802216289723,0.23230829330512842,0.5218816144606614,0.026153247825490465,0.25404514505216647,0.2920722441008677,-0.039302993358615645,0.21717915263824478,-0.015789202251363876,0.003600740688820575,0.2023764559941343],[0.08204192958907959,0.20593611873978307,-0.07206536714979213,0.05555615583047463,0.179302516059957,-0.5441957835226594,0.23040029214240237,0.25956389382616574,-0.22692376428596495,0.3142903219520711,0.41262787382826416,-0.13631900594461344,0.3523631069180679,0.12362195073105071,0.01473045543955042,0.055724924116906216,-0.039815223715650896,-0.10032205882328316,0.45819192828498034,0.09839792482203495,0.013590004156694924,0.1282111524855004,-0.1470492630064245,-0.09349651293583702,0.1188752709402427,-0.30414774094825925,-0.17284985924795382,0.24591708243988264,-0.25898693335149403,-0.12622181764358437,-0.3508424775816015,-0.4599087847252771,0.06539984648748128,0.0681613599774198,0.025751947660914848,-0.19036924495237728,-0.12305639194654847,0.34873181508688295,0.23824220701112164,0.04620278681076323,0.28350225450629774,-0.0435542199844407,-0.025518708500103238,-0.14188029160951451,0.1971753306337541,0.19427993982192385,0.37568438683771,-0.274024187516386,-0.018789307098447464,-0.02911668998086435],[0.07604135486185172,0.01145469043116117,-0.274612218438565,0.06246080907724514,-0.039636732994254326,0.3715516822646856,-0.2123460309527551,0.022062752885380787,0.3701664322405252,-0.4014873998766051,0.10846451655575276,0.05566348436318448,0.14402222503141607,0.0839565574338918,0.4337743069712975,0.12288972193724151,-0.21867819681998923,-0.03132994708968474,0.20490802758047907,-0.2808199226788844,-0.0018855900392383412,-0.31467946462026364,-0.010086308705332697,0.027006653320051116,0.147951276060875,0.005814237959897828,-0.11685324765008051,-0.21328064138140568,-0.1771742400301074,-0.25535260652878494,-0.13843521322745084,0.0013213329070005664,-0.22639482353277054,0.15142908220555326,0.0609643086131077,-0.21865126959324266,0.3556112140110995,-0.0112776503677669,0.11205143044456106,0.05130416746877836,0.02447810669512908,-0.08684220527052361,-0.31035058233493334,-0.24065849617473878,0.20249012433382166,-0.2630310501633173,0.06762469304133784,0.03611569932998471,0.47493389236824446,-0.31583712635907824],[0.14277301201966736,-0.008759204793222258,0.005038219106533348,0.09254159069547577,0.01327886037477834,-0.31775016120447297,0.5271513266509684,-0.04437144071850474,0.1044968472712216,0.07494078682894867,-0.17580305601212862,0.16048581476711768,0.11177460767959466,-0.36584474308353493,-0.18882416000357685,0.11922322807389026,0.07978949660123104,0.03808152556856797,0.07396013803929571,-0.14433289108017466,-0.04284039230590048,-0.11242263699137123,-0.03097868218419486,-0.036110462336155,-0.21149358898346005,0.3729452249856462,0.017342432889701498,0.01570220319277832,-0.37010990337697086,-0.15273902192251362,-0.03780067285074168,0.10016366180413216,0.29450138812764554,-0.07933507934360158,0.42264663927265356,-0.18705809601026688,-0.3584363886392894,-0.269308289843477,-0.06445599395108366,-0.33626939549636103,0.30748533101600584,0.129019540842107,0.3409581756610931,-0.18894289130534037,0.2601534184217591,-0.004389976302114296,-0.48466489630640797,0.12484266614544812,-0.3513670288834253,0.1470846746896311],[-0.19351649792520917,0.34212429261683336,-0.3021100464722082,-0.005899050387723148,-0.12179624331614886,0.037959656044377954,0.18771195967728,0.23714846973522294,0.3764438654074709,0.5213055509013304,0.34348581887353163,-0.24410477585936047,-0.34860704312454166,0.31308955118811743,-0.010213769729880418,-0.03428498139403119,0.4895050682406095,0.3910090369959392,-0.519312812719724,0.4209381829101338,-0.04616894875538456,0.12262552300075127,0.2783341320831586,0.08498533467419687,0.10744185626760713,-0.097835178385691,0.07115664717736209,-0.20730110616335432,-0.5859068970179557,-0.2211889728507287,0.20798193367880052,-0.029090831116402233,-0.41561583135465374,0.293963617752823,0.4792897636820952,-0.36038279161921255,-0.3252671410758582,-0.16480302911614975,-0.0390790389187311,-0.19511640334800917,0.19676305967577634,0.028650788042624865,-0.13574209708577364,-0.06235524143456701,-0.3380635188141854,0.25181366350441425,-0.2571641380016486,0.03890404224273398,-0.05736218667080284,-0.27278156791047237],[-0.04710174199300965,-0.1265910520995901,0.255795248161598,-0.5131047243782428,-0.021969390667592292,-0.2824587053987138,-0.23552170336614378,-0.08541504321808996,0.03327501355022461,-0.2194081935455317,0.12363759852556093,0.05125629695646211,0.31596236016595164,0.10611840525997107,-0.19411899373704014,0.2987051649459639,-0.08305124243034494,-0.0028766605002905066,0.07616030077625473,0.27865561451643234,0.04485143337359965,-0.2684867775240405,-0.14582134187659926,0.16986086530246292,0.13824018175340208,-0.07953707080638096,-0.35558767636782507,0.38781689495777105,0.24575392939057067,0.2657753348568495,0.1592130906791752,-0.0012954792078099242,0.4091890920673483,0.08712150023935467,0.6250678723553316,0.23757029822540654,0.3915483115454135,-0.10674920946790808,0.09515496621480236,0.020761248347843098,0.12889054770438063,0.12819016468298586,0.2435443180040903,-0.33515129622120643,-0.1719945449754098,-0.34825281579038775,0.32463420111731583,0.1294944711601489,0.06680150189555323,0.10922863104350398],[-0.030943507032780593,0.34743053773906185,0.23837949814364529,0.054988904747670306,0.40370355053650553,0.31067256387759185,0.06541632682228417,-0.21227431691296925,0.2870537024032337,-0.24533235846545803,0.4021165622575269,0.2239031122992951,0.19803874447172654,0.07717893434378403,0.13425167025219228,-0.11809187594936368,0.05086137874607641,-0.23927700940021185,-0.23210674506731108,0.1748267305079358,-0.19915400220384807,-0.3136367330457854,-0.06687631099725422,0.02992410959624816,-0.24656988877127992,0.2475998153005962,0.29453832886560827,0.3110876858220146,0.24983245907156457,-0.13146248759702478,-0.31444336019093355,0.12587019536909888,-0.09477005817736443,0.18467411675367984,0.04114648952753547,-0.2988464988555372,-0.1854504295908064,0.058019497096602146,-0.022463311620693933,-0.2739545848880253,-0.0320060557762753,0.029073713499231157,0.27833711613002016,-0.24817708793774765,-0.21365284758705677,-0.5277563374341271,-0.24037165846284786,-0.03323075622766536,-0.04891331984883704,-0.09341736388855049],[-0.18589198111990177,0.21070257557955002,0.3211803643401372,0.5300052294248794,0.17849748911511681,-0.042532021103047435,-0.32973827008308654,0.3528870483085482,-0.05480375998988022,0.12072119436245857,-0.24215668505361554,-0.4146529958494523,0.20887968719250122,0.12919954876792814,0.7412728897179549,0.19909797155544126,0.34672419649740355,-0.11177907931665525,0.4841141819148673,-0.1920309951157027,0.5998197573283848,0.3673104634288987,-0.043596097608223305,-0.6095793290121283,-0.18777799191177874,-0.13284469713629687,-0.12201035215091233,0.5597959759263682,-0.25562096285335467,0.3015683241073253,0.05035964165624679,0.0740993337290079,0.31203715765253764,-0.007874252133295394,-0.08999641846504387,0.1679641970530004,-0.20531543538326638,0.26894383962566704,0.24786399827718217,-0.18989266351428644,0.11240236381879717,-0.14151608984727485,-0.10705366029646358,0.05036002235951466,-0.17411487511136325,-0.32574130453674716,0.17031464080314854,0.2008994661455501,0.35858256654975396,0.22175773766931225],[0.26577294663388995,-0.23211645054535576,0.4105871952492661,-0.166735041300127,-0.22056110799207646,-0.23003154736872455,0.2404603344658453,-0.2836823398416447,0.0012830799370023294,-0.21981789960852371,0.03839421083061965,0.17203311616811373,-0.24607650954085913,-0.15623851891871843,-0.10288866294431866,0.2849792432244642,-0.20278026728416015,-0.0922624941832525,-0.1489581771942452,0.2947569490479235,-0.06467359314586962,0.14661008012685384,-0.22868924256133188,-0.15467816376385146,-0.05437270571873039,-0.014191306943863669,0.17862101450464163,0.00901697011050201,0.2332547026791065,0.1409265553851467,0.1463228446187381,-0.029117392098390427,0.2189535759254765,-0.4168527555425238,-0.1599322895823482,0.07338227946996598,0.06141277687768684,0.06673091828626015,0.1989502522911563,0.13115150946771426,0.13018728933748672,-0.19290325043653042,0.09746078378387246,-0.17566472264653177,0.11505275206703278,0.3456969883187194,-0.29651833738012673,0.011581362259085015,0.7096258530474668,-0.06693969853810389],[-0.37975147405244875,-0.2794733366836108,0.005412080219253768,0.22721714856825143,-0.1618410736240365,0.012644142416446541,0.30344872967968944,-0.1260953779950392,0.043938575567479626,-0.03302227511494599,-0.26404470169137373,-0.0033544705173041284,0.07460984934727943,-0.06372861108347166,0.33643967363363025,-0.1541182110606372,0.21532476280121438,-0.2686192438574254,0.2610559513327803,-0.2651896627238913,-0.30567689494805034,-0.06789495227950271,0.3258714036424425,-0.19993605721133148,0.0709372575958912,-0.12205109091831506,-0.03331739284399088,0.1429253529095092,0.46097874921932136,0.04451603174738858,-0.14982171862543087,0.1187356314752837,-0.376511794441024,-0.10268667295000974,0.3316305668315026,0.22320409935676133,0.18626458474700058,0.30448611904430123,-0.06392927292677131,0.0696986665564055,0.17415831502227205,0.137797256833581,0.03949471140937648,0.3343490632302425,-0.08006402770555832,-0.30253594636299136,0.14772080548748817,-0.23451571920074601,-0.3233432970107707,-0.2108798974486434],[0.3216074597136668,-0.10318517480784113,-0.4320969636688373,-0.075586228656636,-0.17415265029837024,0.2561067032202057,-0.2560467318869283,-0.3197149723678145,-0.3759659919802821,-0.1910842514077529,-0.16279745571284854,0.24463168538972607,0.21646779365268365,0.03238454751299401,-0.231662800918403,-0.009357021350525518,-0.4078106131273351,0.009215795118004633,-0.15266641152513247,0.02238126571048027,0.007724228014081069,0.15393544738423048,-0.5289497995781076,-0.1625396932495941,-0.10179236638349007,0.017482053545273546,0.4980016030940304,0.36099872500709024,0.16290949427443907,0.103634297316332,-0.238279077843617,-0.0889813754070897,0.28128077096659176,0.004016183305141554,-0.3969949642272018,-0.07530458780226021,-0.40621881415766303,-0.03523476178603965,-0.4504188438832972,0.043523225809302915,0.10942022831689577,0.04564300867779189,-0.0370852011786138,0.32060097386396813,0.23534946365953607,0.27956329000836805,0.34082873350699916,-0.01452162154662856,0.06669960341640452,-0.2577384328304012],[0.010400818489371952,0.14016007309300793,-0.14831987843529834,-0.17441618029100692,0.21184986606937814,-0.6509484899093078,-0.29900532957550435,0.3270720194052228,-0.052517586788123724,-0.23849832670480065,0.08351985584184211,-0.06437548963736732,0.014111236539552485,0.19152660953159395,0.1517091134972152,0.016709425845617663,-0.21394606506676803,0.06291295492009918,-0.07808835143214815,0.031075047767203545,0.12536263936378741,-0.07270279253427374,-0.15388961264515813,-0.1152724565217344,-0.3596903498541891,0.06608087583451594,-0.18787215977628452,-0.43845601257693373,0.2446561710620748,0.18759506332810716,-0.5877184602829533,0.1963608869304027,0.2616344926067619,0.2102736507689426,-0.2529961635091808,-0.10159028949974769,0.3670983348094232,0.16698051381880769,0.2539545269059324,0.3138515121042372,-0.08887987357921279,0.32077546346378616,-0.01792789093178465,0.2131244262605784,0.06737340016855979,0.4013473504983962,0.040947690693199534,0.1279897351383196,0.0044250432490164915,0.0367817279700601],[0.18992976454140312,-0.42597969836259647,0.3438399656823808,0.19055307171322006,-0.024546625031245668,0.0638737928639088,0.10927986141585785,-0.17399617149315208,0.35501088049774016,-0.1293935386803704,-0.06974854168874975,-0.19717856623434465,-0.03490135381730067,0.1942853617342116,-0.28478035718918615,0.23699117093624894,0.40790010604177546,0.2353570586407116,-0.09452665310522798,-0.0196990593398772,-0.19214799707491975,-0.06987320732336161,-0.03455052304194983,0.27790372665226304,-0.2053273955692548,-0.013825039679257207,-0.20310414729498766,0.023285715118690875,-0.40339869332201783,-0.28986789632625853,-0.4936026778666336,-0.16860447364274694,-0.0023598606818154844,-0.12274569822933129,-0.02998944468636966,-0.2145441573235097,-0.023636591931935125,0.016872059647913523,-0.2829580440746836,-0.02663052238532121,0.21543075798214753,0.42131710856083004,-0.21922048449172876,-0.20679637480588098,-0.11283794003782782,0.335534178795048,-0.23278316228017407,-0.12347419190441544,0.3377861699516933,0.11238980358027392],[0.04353566248310779,-0.2780433484075435,0.06061449573341379,-0.06280048815984879,-0.4214006643656357,-0.4902566502262031,-0.3115035287290111,0.3890023502799771,-0.22695488909240868,-0.07402385329366544,-0.07614173066115916,0.13292323810102918,-0.37282667333820585,0.2685831558592332,-0.09053929320126144,-0.24345364935972427,0.4493942846852387,0.33185626904442217,-0.208248383589942,-0.112268838721582,0.19967256041572506,-0.1637202816913152,-0.17026561187995856,0.37405647257925334,0.3129223186234928,0.017227045940168495,-0.08824184069768491,0.17405261036462305,0.5401003326353251,-0.21732959688516268,0.1165589410060447,-0.10053998561480842,-0.15116644495366333,-0.0008715807734777647,-0.20591717217230018,-0.11847036518403921,-0.3850826422454432,0.21940586967000061,0.12632982288115632,-0.39858812479074757,0.21737429656094073,-0.17579326737859538,-0.3661809532605231,0.10372112297549779,0.24618400498604048,-0.5015773984419757,0.40215921647319275,0.2507750799826688,0.5278582133402405,0.24630236259425983],[0.320441475372563,0.1372219517448094,-0.2205322129881762,0.06567548023974566,-0.1426131122807197,-0.12827024842385637,0.29340789721775956,-0.14087686914375558,-0.12061677705234489,-0.33785670913017085,0.06849235701861352,-0.025139764303415635,0.06033946172093829,-0.29587811513604917,-0.14926660242538528,-0.01696475671524312,0.2598522167492133,-0.19396833556513457,-0.052268307993016405,0.18716947443464943,0.021869257392945565,0.4595119852968383,0.12351850826450958,0.2320890009039976,-0.40001864216133165,0.2614162546369832,-0.4547328757406076,0.5165026571017275,0.052222538341358336,-0.11870338256138896,-0.07831593235954715,0.3273660773750623,-0.207900632859171,0.35276610137377956,0.11552432371470944,0.1240740077770992,0.19976058981293265,0.20174431001677648,-0.1723462698471483,0.38328981777850585,0.26887956404902064,0.14532168386743807,-0.4190213700453216,0.3091983635542783,-0.1312479887348114,0.22618674862734384,0.28376393191203236,0.31729264657821915,0.39449583869667343,0.005179477223148932],[0.14989512398354535,-0.054101185387830986,-0.049069432618093836,0.28657142627778637,-0.06982622540844463,0.4199133465479793,-0.44491105534590414,0.34458372493878386,0.2659761052187675,0.2939029415948384,0.11897468489252824,-0.3954649195056173,0.022355430522326747,0.021862751725608448,0.38251244348462676,-0.016257300808255156,0.36869156854042906,-0.025658318717689477,0.004335829427061344,0.2637050480993554,-0.5239137537053917,-0.039154525377085456,0.3500062875071759,-0.07797432821513943,-0.18405142140516642,0.34654884374747674,-0.2939545776998823,-0.20858802259911563,-0.35660665750821463,-0.01532112832230137,-0.0776906781198538,0.5039003025955405,0.1557199109694328,-0.032951335272562,-0.2631511142171418,-0.07862368082052223,-0.02318070314756547,0.04663574238617632,0.018168090051632835,-0.026215354956497128,-0.27523591122261176,0.21526692557417015,-0.1244273519637167,-0.5406440489286438,-0.01679412351593508,-0.17264712327609874,-0.3264751600914404,0.2432719018784774,-0.10438144192005461,-0.3136003169764458],[0.18926114911338882,0.31794106402802713,-0.19689307876118756,0.01354849898469851,0.04928496543618692,0.33877427048786035,-0.0483719560691719,0.16016107908208957,-0.05237930029141055,-0.12150725689798203,-0.11390763298841194,-0.11889418984781991,0.2533506635812034,-0.44512843037305794,-0.16014928839612275,-0.2052160731244785,0.23523561800027357,-0.03335901268627825,0.42518419643167604,0.21537851543197753,-0.2951944687431966,0.23815566821928136,0.2984304576858716,0.037109510470315105,-0.4234904451453443,-0.3863310167406281,-0.1002091047591448,-0.48150211633169127,0.3032773160610316,0.3048786073299998,0.4377581861275448,-0.2501666217682574,-0.06489857548608405,0.23049023032320687,0.1468441368901298,-0.20413484499292955,0.1687313350311455,0.2078598451079205,-0.16388013877210203,0.272505938360302,-0.18025809206605972,0.05631300589232138,0.33466832556689263,-0.11710125596527109,0.12021586415431548,0.04835589302715343,-0.0460821503176391,0.3574833409061243,-0.20528803802109935,-0.04998027654075692],[0.4867490321423914,0.14915114658223108,0.0022983932386827013,-0.2539556769211462,-0.1386334842943692,-0.0016807275319553894,0.4479829384362105,-0.22486545133724645,0.14577779064079488,0.29254500122817617,-0.16020842413753264,0.36673192304640895,0.18542454991635451,0.04833603945873646,0.3543306087836508,-0.39274015967686804,-0.042224308726181714,-0.3124775228857869,-0.2771031446486516,0.12814518952310713,0.3403723913123484,0.39244648569535023,0.19833205175386115,-0.07552056229587398,-0.12326057017114417,0.06558660428591573,0.04637153409951292,-0.10716025006018676,0.2753590937504827,-0.4705178245616906,-0.09211472648504329,-0.15286194179497464,-0.2520254635978704,0.060381255360069205,0.08473043615606242,0.027528616014887597,0.3806985946155949,0.11183581383509919,-0.1166637577000279,0.0581907160376894,-0.2835453282492377,-0.07763113492931054,-0.1205483272721566,